784
100
10
0.0242857	0.0264286	0.02	-0.0242857	0.0314286	-0.0100073	0.0264286	0.0306809	0.0135234	0.0474883	0.0578756	0.00113081	0.0514872	0.0357617	0.0333436	-0.0113494	-0.009258	-0.0178973	0.0154587	-0.00947797	-0.0231861	0.0138786	0.0124545	-0.01428	0.0235714	-0.0135714	0.00928571	-0.0185714	0.0128571	-0.0494187	0.0278936	-0.0335714	0.00482062	0.211896	0.00647845	-0.151287	0.0251841	0.005	-0.0273713	0.0844984	0.0230494	0.0171429	-0.00122797	-0.0214286	0.0165256	-0.00288929	0.000888345	-0.0178571	-0.0363178	-0.644934	-0.0229245	0.0521514	0.0289224	0.0221429	0.005	0.405616	0.00928571	-0.0630417	-0.0174637	0.0460934	-0.0516023	-0.0171429	0.025	-0.00996096	0.173637	0.738703	0.0166304	-0.0142857	0.196977	-0.0555057	1.01518	0.0328571	-0.0131817	0.0338852	-0.025	0.0239715	0.0773723	0.741584	0.0195032	0.000714286	0.178994	-0.0293526	0.0165151	0.0207143	0.0278571	0.32266	-0.0328571	0.00142857	0.106705	0.0357143	0.0886998	0.985916	0.0338231	0.0135714	-0.00714286	-0.123417	-0.0606691	0.0264286	0.799801	0.822323	-0.0157787	0.015	0.289917	0.00437498	0.0117244	0.23774	0.0209722	-0.00398171	-0.0227417	0.0307143	0.280125	0.005	-0.0341344	0.0221429	-0.310435	0.0802159	-0.0098011	1.64261	-0.00357143	0.259623	0.00514279	0.949738	-0.0116953	-0.0228571	0.0342857	-0.0107945	-0.14277	0.0185714	0.574527	-0.0157143	-0.0277038	0.005	-0.00333949	-0.396912	0.0243725	-0.0108726	0.00847443	0.0242857	-0.195935	-0.0421097	-0.0138692	0.0157143	0.0138442	1.08495	-0.116876	-0.0214286	-0.0138986	-0.348842	-0.0803208	-0.0242857	-0.0241264	0	-0.454965	-0.354359	-0.329084	-0.00285714	-0.0616623	-0.0181037	-0.046627	-0.0144494	-0.37076	-0.265828	-0.00248829	-0.0182275	-0.00571429	0.135287	0.0314286	-0.036406	-0.00670678	-1.55211	-0.523211	-0.355286	0.0271429	0.005	-0.00428571	-0.130837	-0.422608	0.0114286	-0.0753072	-0.00928571	-0.485511	-0.0496066	-0.0366869	-0.0182275	-0.0791945	-0.0848956	0.0178571	-0.356686	0.00561589	0.118318	-0.530099	-0.0178235	-0.0281253	0.00520499	-0.0296816	-1.65146	0.0152558	-0.069738	-0.292423	-0.0142857	-0.0693997	-0.0417581	-0.0553208	-0.0188986	-0.23315	-0.00785714	-0.0248608	0.158335	-0.0654595	-0.221657	-0.380275	0.0588322	0.0114586	-0.0228571	-0.0730854	0.0335714	0.128968	-0.00428571	0.044929	0.0242857	0.129418	-0.746273	0.0164286	-0.068178	0.0315879	-0.0843911	-0.0603272	0.00942536	0.418537	0.0264286	0.174349	-0.174545	0.0245897	0.0107143	0.157934	0.000466132	-0.029419	-0.0392955	-0.633913	-0.0271429	0.304569	-0.015	0.225305	0.0884434	-0.00214286	0.0135714	-0.0215061	0.00217583	-0.0271429	-0.0567557	-0.0663023	-0.0361133	0.0781422	0.0287023	0.0382867	-0.515956	-1.09157	0.0134179	-0.00357143	-0.0164286	0.149226	0.0114286	-0.0350813	-0.0301304	0.181256	-0.0341171	-0.439891	-0.00857143	-0.00133709	-0.0291934	0.0213184	-0.0111133	-0.794177	0.123058	0.0214286	-0.102901	0.214579	0.0157143	0.0171429	-0.0128571	0.067501	-0.0284205	-0.011832	0.0321429	0.00785714	-0.525058	0.319232	0.0223765	0.424437	-0.99485	-0.0226321	0.0171429	-0.0257143	0.0135714	-0.48061	0.0101877	-0.0164286	0.0380528	0.025	0.353808	0.213788	0.025	-0.00915598	-0.005	-0.392896	-0.03	-0.324094	0.005	0.00505719	-0.0221429	0.0271429	-0.0553272	0.294794	0.0164286	0.00714286	-0.241082	-0.043047	-0.0278571	-0.0141379	-0.00175574	-0.108293	-0.0414384	0.122688	0.327218	0.0559963	0.103111	-0.0440449	0.0357143	-0.02	-0.0321429	-0.115355	-0.0271429	-0.00642857	0.0128571	-0.0319375	-0.015	0.0705095	0.000714286	0.1004	0.00611759	0.250171	-0.0188852	0.651977	0.0142857	0.0335714	0.212468	-0.0207241	0.025	0.0214622	0.0164286	0.200875	0.0328903	0.0156866	0.00275533	-0.0192857	0.0357143	-0.00642857	0.0952508	0.035	-0.0257143	0.217471	0.48694	-0.0178571	0.0292857	0.109771	0.0157045	-0.0214286	-0.00928571	-0.103599	0.00428571	0.0319144	-0.0321429	0.0214286	0.0142857	-0.145626	0.0708033	-0.0200744	0.00428571	-0.00766732	-0.005	-0.235305	0.025	0.0314286	-0.0339013	0.00670044	0.0128571	-0.0321429	-0.0257143	0.00857143	0.00357143	-0.205398	0.118452	0.0906833	-0.0335714	-0.0354373	-0.0307143	-0.0989684	-0.02	-0.005	-0.186343	0.0497851	0.0285714	0.0164286	-0.0364384	-0.0239508	0.0286747	-0.00928571	-0.0292857	0.150551	-0.0454003	-0.0328571	-0.0114286	-0.0114286	-0.000714286	0.00797147	0.00357143	0.0726253	-0.00214286	-0.215959	-0.0142857	-0.0205722	-0.00595949	0.0246779	0.0342857	0	0.0785159	-0.0400098	-0.0165944	-0.0299171	0.0342857	0.00285714	0.0307143	0.126737	-0.0171429	-0.0425431	0.0335714	0.0114188	-0.105187	-0.00143837	-0.0142857	-0.0791256	-0.237367	-0.0847094	-0.02	0.00785714	-0.0623456	-0.0187318	-0.0157143	0.052022	-0.00786694	0.0168061	-0.0340238	0.0321429	-0.0104003	0.0357143	-0.00428571	-0.0267379	-0.0335714	-0.015	-0.0453894	-0.0203913	0.0228571	-0.00223095	-0.00785714	0.00714286	0.00142857	-0.01	-0.0107143	-0.00060021	0.0235616	-0.0242857	-0.0161666	-0.0321429	-0.0142857	0	0.0971138	0.0776086	-0.0142857	-0.00428571	-0.0243066	0.0535027	-0.0386753	-0.0195144	0.065369	-0.236427	0.021447	0.0399395	0.0278571	0.0307143	0.0328571	-0.0114384	-0.0482574	-0.0142857	0.0292857	0.117858	-0.0119415	-0.00571429	0.0142857	-0.0164286	-0.0121429	0.0934712	-0.005	0.000817577	-0.0228571	0.0146704	0.00857143	0.010317	-0.0285714	0.0292857	-0.0409872	0.0335714	0.00570449	0.02	0.0450899	-0.0154003	-0.0365638	-0.0250098	0.00571429	-0.0272617	0.00641878	0.00139014	0.00642857	-0.0264286	0.0264286	-0.079686	0.13754	-0.0667123	0.0321429	0.0132732	-0.0195979	0.0207143	-0.0610847	0.00774188	0.0292857	-0.024743	0.015	0.00142857	-0.0225431	-0.0200098	0.0286026	0.00943952	-0.0159687	-0.0264286	0.0264286	-0.025	0.00428571	0.120752	0.0292857	-0.0718149	0.0214286	-0.0158973	0.0142857	0.0417158	-0.0390622	0.00428571	-0.00571429	-0.0371404	-0.0619667	0.0271429	0.0250312	0.00345153	0.0121429	0.015	0.0133002	0.005	-0.0228571	-0.0307143	0.054384	0	-0.0315326	-0.0314851	0.00714286	0.0275095	-0.0666522	-0.00285714	-0.0332854	0.024143	0.00642857	-0.0275431	-0.00857143	-0.0226654	0.0172255	-0.03	-0.0137275	0.00571429	-0.025	0.0157143	-0.0142857	-0.015169	0.00714286	-0.0661224	-0.00785714	-0.0171429	0.0278571	0.0426075	-0.0114286	0.00571429	0.00187828	0.0273076	-0.0382574	-0.0226289	0.0357143	-0.0228571	-0.00714286	-0.0304003	0.01	-0.0334157	-0.0125431	0.0171429	-0.00142857	-0.0128571	0.00928571	0.0235714	0.0292857	-0.00425737	0.03	0.0207849	-0.0242857	-0.02	-0.0504384	0.00192127	0.0264016	-0.00142857	0.00142857	-0.00973851	-0.0401474	-0.0532574	-0.00642857	0.00357143	-0.015161	0.035	-0.0171429	0.0228571	-0.0235714	-0.0235714	-0.0335714	-0.0271637	-0.00714286	0.0333697	-0.0321429	-0.00785714	-0.0423715	-0.0221429	-0.02	0.0204877	-0.0272756	-0.0264286	0.0214286	0.0189535	0.0257143	-0.0111086	-0.0387678	-0.00371035	0.0242857	-0.03	0.00714286	0.00571429	-0.00458003	0.035361	-0.0271429	-0.0157143	0.000714286	-0.00928571	-0.00527858	-0.0542885	-0.0816568	-0.0351852	0	-0.0325842	-0.0311407	-0.0314286	-0.0107143	0.03	0.0185714	0.00428571	-0.0249759	0.0284333	0.0135714	0.0314286	-0.0221429	-0.0314286	0.0235714	-0.0630589	-0.0220173	-0.0228571	-0.0254507	0.0314286	0.0178571	-0.043728	0.0314286	0.0264286	0.00285714	-0.00428571	0.0178571	-0.025	-0.0402381	0.0214286	0.02	0.00928571	0.0185714	0.0278571	-0.0214286	-0.0278571	-0.0121429	0.0321429	-0.0228571	-0.00214286	-0.0267909	-0.0175951	0.03	0.00285714	-0.00428571	0.0171429	-0.015	-0.0171429	0.03	-0.0278571	-0.0221429	-0.0228571	-0.00928571	0.01	0.00428571	0.0292857	0.00642857	-0.0135714	-0.0321429	0.0156001	0.00857143	-0.0114286	0.0257143	0.0285714	0.0171429	-0.0321429	0.00142857	-0.0314286	0.000714286	0.00420509	-0.0328571	0.0257143	-0.0307143	0.0198356	-0.00714286	0	-0.0207143	0.0128571	-0.0169997	0.01	0.02	0.0335714	0.0228571	0.0114286	0.00785714	-0.00928571	-0.024156	-0.0105861	-0.0221429	-0.0271429	-0.005	-0.0121429	0.0335714	0.0214286	-0.02	0.015	0.025	-0.0012761	-0.0157143	-0.0107143	-0.00642857	0.0242857	0.0164286	0.0102135	-0.039386	0.01	-0.00142857	0.000714286	-0.0135714	0.0171429	-0.025	0.00714286	-0.0192857	-0.00142857	-0.0178571	0.0235714	-0.0182241	0.129422	
-0.0321429	0.00357143	-0.00428571	0.035	0.0264286	-0.00642177	0.0207143	0.00686606	0.00103118	-0.00789025	0.0116482	-0.0114947	-0.00824904	-0.02741	-0.0196615	0.0170915	-0.0144692	0.00592141	-0.00922753	-0.0199916	0.0118242	0.0237701	-0.00256025	0.0157479	0.0192857	0.0142857	-0.0221429	-0.0342857	-0.0328571	-0.0274866	-0.0225963	-0.03	0.00962196	-0.0224095	-0.022616	0.137141	-0.0204333	0.025	-0.0353078	-0.0891737	0.0426377	0.03	0.0364649	0.035	0.000711811	-0.0523389	0.0268802	0.0285714	0.0218579	0.33681	-0.0157922	-0.0141012	-0.0149548	-0.0285714	-0.00714286	0.159812	0.0207143	-0.0128502	-0.0697458	0.0125839	0.0253133	-0.00785714	0.0285714	0.0289984	-0.0821467	-0.090389	0.0161777	0.0271429	-0.0222189	0.00752385	-0.162911	0.0228571	0.0710278	-0.0155303	0.0214286	0.093913	0.0592832	0.30393	-0.00590057	-0.0257143	0.071577	0.0312909	0.0191281	0.0228571	-0.0328571	-0.177084	-0.0114286	0.0235714	0.0461629	0.0271429	0.11435	0.201213	0.00982703	-0.0321429	-0.0192857	0.238239	0.103205	0.0342857	0.398643	0.270443	0.12931	-0.0307143	0.135338	-0.0175301	-0.0204366	0.273586	0.0167744	-0.0165859	0.0151624	0.0242857	0.174999	0.00357143	0.0199568	-0.0285714	0.53817	0.0528598	-0.00266276	0.981596	0.0121429	0.436977	0.0219735	0.333877	-0.0276565	0.0257143	0.0264286	0.0456137	0.418499	0.0292857	0.751417	-0.025	0.000476386	-0.0235714	0.170407	0.579285	-0.0196653	-0.0484238	0.465777	-0.0171429	0.168787	-0.0435416	0.00796761	-0.0221429	-0.0274359	0.313629	-0.0504189	0.0235714	-0.0554543	0.394089	-0.0683172	0.0278571	-0.040901	-0.0242857	0.349982	0.194562	0.000786164	-0.0292857	0.046775	0.000322541	-0.0371655	-0.00631477	0.29743	-0.121519	-0.031655	0.00969422	0.0157143	0.458708	0	-0.0669146	-0.0146014	0.293432	0.0589839	0.0309063	-0.0278571	0.0314286	0.02	0.0221805	-0.0360785	0.0357143	-0.0519292	-0.0128571	0.00784938	-0.052603	0.123792	0.00112279	-0.373911	-0.0615841	-0.0228571	-0.154742	-0.0504169	0.00522846	-0.0496593	0.013649	0.019094	-0.0180202	-0.0406775	0.617626	-0.018516	-0.0640611	-0.0924926	-0.0292857	0.0595497	-0.0303292	-0.0383172	-0.0311686	-0.0503453	0.0178571	-0.0430932	-0.199066	0.181938	-0.0731999	-0.100992	-0.0504357	-0.0195194	0.0235714	-0.0914551	0.0314286	0.0341747	-0.00714286	-0.0361293	-0.02	-0.157869	-0.239204	0.00571429	-0.0690315	0.00505435	0.170035	-0.0190257	-0.0475613	-0.116881	0.00214286	-0.249511	0.081018	-0.00230018	0.0357143	0.236232	-0.0211206	-0.0247802	-0.0339127	-0.600801	0.00142857	0.0632153	0.0292857	-0.0037565	0.0844386	0.0164286	-0.00857143	-0.0270693	0.0510367	-0.015	-0.01974	0.235066	0.0249007	0.00508553	0.0240476	-0.0134835	-0.339137	-0.177919	-0.0112469	-0.0271429	0.0142857	0.378296	0.00857143	0.0164852	-0.00739934	0.0436094	-0.0926806	-0.0556999	-0.00785714	-0.00017546	-0.0356388	0.101917	-0.014385	0.00404847	0.160205	0.0185714	0.254404	-0.0362597	-0.0264286	-0.00785714	0.0142857	-0.00813439	-0.00321762	0.00442606	-0.00357143	0.00785714	0.103824	0.227447	0.0107817	0.139994	0.40546	-0.0102053	0.0242857	-0.00714286	0.0142857	0.114996	-0.0257163	-0.02	0.146576	0.0292857	-0.078848	0.19864	-0.0128571	-0.0177509	0.0107143	0.0654941	-0.000714286	0.457501	0.02	-0.00533471	-0.0114286	0.035	-0.0354543	0.222915	0.00428571	0.0314286	0.198386	-0.0369991	0.00785714	-0.0226394	-0.0540257	0.243336	0.00608729	-0.340143	0.227932	0.0823226	0.41206	-0.00488969	0.00857143	0.0292857	-0.0185714	-0.169382	-0.035	0.00357143	0.0185714	0.0100294	-0.005	-0.0171078	0.00714286	0.260202	0.0281529	0.279859	0.0130245	0.372603	0.00142857	0.0192857	-0.354125	-0.0310556	-0.0114286	-0.0156367	-0.0321429	0.207347	0.105963	0.0460063	-0.0160244	-0.0271429	0.0128571	-0.0264286	0.371449	-0.0142857	-0.0335714	0.0790179	0.638843	-0.0335714	0.0178571	-0.034642	-0.0317699	-0.0235714	0.0242857	-0.14893	0.0271429	0.0161483	0.0171429	0.00571429	0.00928571	0.135669	0.162152	0.00878105	0.0335714	-0.0548781	-0.00571429	0.49715	-0.0164286	0.0178571	0.0198257	-0.0549098	0.0257143	-0.000714286	-0.0314286	-0.0135714	-0.0142857	0.0843343	-0.0136608	-0.03283	0.00928571	-0.0203685	-0.0214286	0.0814398	-0.00571429	-0.0335714	0.178384	0.135281	-0.0164286	0.0242857	0.0189444	-0.0348968	0.0430926	-0.0185714	-0.00785714	0.0476322	-0.0104462	-0.0128571	-0.0278571	-0.0207143	-0.0314286	-0.0813085	-0.0257143	0.0126714	-0.00785714	-0.111689	-0.02	0.01072	-0.0194226	0.0127351	0.0221429	-0.00428571	0.217878	0.0260873	-0.0240156	-0.0095488	0.00357143	0.0264286	0.0142857	-0.0214637	0.0142857	-0.0697319	0.0171429	-0.0231984	-0.0427944	0.000373007	0.0271429	0.0343502	0.281443	0.011749	0.0357143	0.00142857	-0.0354456	0.00569151	-0.005	-0.0152169	0.0168016	0.0811102	-0.000608822	-0.0242857	-0.0154462	0.0228571	-0.0271429	0.135325	-0.0114286	0.0271429	0.00982021	0.164355	0.0171429	0.0624761	-0.0214286	-0.005	0.00357143	-0.00357143	-0.0178571	-0.0400836	-0.00248414	0.01	-0.0227517	0.00285714	-0.0264286	0.0142857	0.0574873	-0.0283794	-0.0114286	0.0357143	-0.0241208	0.167647	-0.0292324	-0.0209239	0.1527	0.133375	0.00469677	-0.0199772	0.0271429	-0.0335714	-0.00857143	-0.000341279	-0.0133034	-0.0278571	-0.0314286	-0.012484	-0.0395629	-0.0271429	0.00571429	-0.0142857	-0.0328571	0.0690761	0.0307143	-0.0294748	-0.0192857	-0.0458331	-0.00428571	0.130391	0.00857143	-0.015	-0.00162997	-0.00142857	-0.044627	-0.00285714	0.00904935	-0.0147319	0.0168458	-0.00819842	0.0285714	0.0233845	-0.00676985	-0.0685523	-0.000714286	0.0321429	-0.00928571	-0.0725891	-0.0549282	-0.0186947	-0.0228571	0.0023051	-0.0173332	-0.0207143	-0.0444338	0.00737721	0.0321429	-0.0182763	-0.0185714	-0.00857143	-0.0533034	0.015373	-0.0255054	-0.0218575	-0.0131996	-0.0228571	-0.0285714	0.0114286	0.005	-0.138906	0.0142857	-0.0463245	0.0328571	-0.0459702	0.0157143	-0.0032918	-0.0662525	0.00714286	-0.0342857	0.003893	-0.0476086	0.0157143	-0.00907678	-0.0124718	-0.00428571	0.0164286	0.0133558	0.0285714	-0.0157143	0.0121429	0.0241539	-0.0264286	-0.0208024	0.0334953	-0.0178571	-0.0471363	-0.0674236	0.0264286	-0.0248552	-0.0324905	0.0321429	-0.0283034	-0.0242857	-0.0786042	-0.0150439	-0.00714286	-0.0408465	0.01	0.035	0.0292857	-0.00714286	-0.0291687	-0.0257143	-0.0540699	-0.015	0.00571429	-0.0321429	0.0194478	-0.00214286	0.0242857	-0.0377018	-0.0223839	-0.00901765	-0.0438155	-0.02	0.0164286	-0.0164286	-0.0525891	0.00642857	-0.0303839	-0.0368748	0.00214286	-0.00285714	0.0164286	-0.00214286	-0.00714286	-0.0271429	-0.00848586	-0.0328571	0.0108907	-0.0171429	-0.005	-0.0982672	-0.0298133	0.0154809	-0.00357143	0.0335714	-0.00930716	0.00630885	-0.00973193	-0.0257143	0.00571429	-0.0229182	0.00785714	0.000714286	0.0307143	-0.0121429	0.0192857	0.0214286	0.0158792	0.00285714	-0.010287	0.0328571	0.035	-0.0988625	-0.00571429	-0.00857143	0.014996	-0.0149755	-0.00642857	0.025	-0.0344317	0.0242857	-0.0386816	0.0225864	-0.0612858	0.0335714	-0.00642857	-0.00714286	0.01	-0.0114348	-0.0324739	0.0171429	-0.0307143	0.0107143	-0.0185714	-0.014687	-0.0301234	-0.0700265	-0.0778523	-0.00714286	-0.0677373	0.00652383	0.0264286	-0.0335714	-0.0171429	0.0214286	0.03	-0.00142908	-0.0300096	0.025	-0.0128571	0.00857143	-0.0214286	-0.0128571	-0.059415	-0.0798548	-0.0157143	0.0175688	-0.0214286	-0.00428571	-0.0106352	-0.0185714	0.0135714	0.0271429	-0.00714286	-0.00428571	-0.00785714	0.00719543	0.0321429	-0.0207143	0.0221429	0.035	0.0264286	-0.0221429	0.00214286	0.01	0.035	0.0328571	-0.0278571	-0.0520285	0.0103579	-0.005	0.0121429	0.035	-0.0171429	0.0164286	0.0207143	0.00285714	0.0121429	0.0342857	-0.000714286	-0.00142857	0.0164286	-0.0235714	0.0264286	-0.0264286	0.00714286	0.02	-0.0351401	0.00285714	0.0342857	-0.0121429	-0.0328571	-0.01	0.00142857	-0.03	0.035	0	-0.00791968	0.00857143	-0.0307143	-0.0107143	-0.0488326	-0.0171429	0.025	-0.015	0.0342857	0.00929932	-0.0114286	-0.0242857	0.00785714	0.0228571	-0.025	0.0257143	0.0342857	-0.0698937	0.00289536	-0.0292857	-0.0142857	0	-0.0257143	0.0214286	-0.0107143	-0.0235714	-0.025	0.0257143	-0.00314958	0.0114286	0.0264286	-0.0135714	-0.0164286	0.0307143	-0.0539808	-0.0459563	0.0142857	0.00214286	-0.0285714	0.0121429	-0.0242857	0.0328571	-0.0114286	-0.015	0.0192857	-0.00142857	-0.0257143	-0.0265183	0.139223	
0.00928571	0.0264286	-0.0142857	0.01	-0.035	-0.0292754	0.0342857	-0.0229812	0.0355843	0.0121872	-0.0126509	-0.0118912	-0.025064	-0.0261728	-0.0363063	0.0150903	0.0399943	0.0450209	-0.0031131	-0.000479422	-0.025284	0.0122445	0.0223663	-0.0328936	0.0264286	-0.005	-0.0121429	-0.0107143	-0.03	-0.0910711	-0.0205937	0.0142857	0.0475401	0.0849773	0.0637913	0.270527	0.0308398	0.0235714	0.0294619	-0.0244626	0.0132064	0.00857143	0.0293767	-0.00857143	0.0518131	0.0554842	0.00219851	0.0228571	0.0214924	0.390167	0.0189737	0.159795	-0.00542391	0.0314286	-0.0178571	-0.107114	-0.01	0.189319	-0.0526015	0.0111231	0.201789	0.0335714	0.01	0.13391	0.178562	-0.862202	0.00862644	0.0271429	0.240943	0.0730193	-0.703448	0.000714286	0.108075	0.0140661	-0.00714286	0.0187707	0.279551	-0.656376	-0.0461035	0.00357143	0.0754345	-0.00475295	0.00652736	-0.0185714	-0.00785714	0.317588	0.00142857	0.0171429	-0.14323	0.0114286	0.339726	-1.23272	-0.0528963	0.0242857	0.0357143	0.357057	0.0743553	-0.025	-0.356454	-0.918763	0.0151864	-0.03	0.5788	0.0101863	-0.0399038	-0.191212	-0.0347159	0.0215442	-0.0163816	-0.00928571	-0.11447	-0.00714286	0.0227181	-0.0207143	-0.0888318	-0.165266	0.0123044	-0.426549	0.0335714	0.488218	0.0555467	-0.928936	0.0136633	0.0342857	-0.035	0.00854593	-0.101909	-0.01	0.17736	0.0292857	-0.0909418	-0.0121429	-0.290067	-0.18983	-0.018208	-0.0164075	0.215785	-0.00142857	-0.208741	-0.0276639	-0.0105144	-0.0192857	0.00835926	-0.20752	-0.0430348	0.00428571	-0.00203512	-0.143584	-0.0790301	-0.00928571	0.0016668	0.00785714	-0.0599759	0.131615	-0.281213	-0.0321429	-0.0678344	0.027738	-0.0387176	-0.0386507	-0.224153	-0.174945	-0.0874296	-0.0196281	0.0207143	0.503363	0.0142857	-0.00995087	-0.0176404	0.327567	0.0367602	0.0411476	-0.02	0.00785714	0.0242857	0.00885018	-0.100783	-0.0185714	-0.0639081	0.0307143	-0.0573411	-0.0718873	-0.087043	0.00608618	-0.311197	-0.0539103	0.0135714	-0.361648	0.0228246	-0.0663017	-0.0825584	0.020921	-0.17954	-0.0146569	-0.0315247	0.781431	-0.00344028	-0.0589503	-0.154573	0.0228571	0.0240002	-0.0589127	-0.0283158	0.00153631	-0.635717	0.0221429	-0.0514873	-0.178291	-0.000148358	-0.135887	-0.135968	0.0125662	-0.0230041	0.00714286	-0.0380517	-0.005	-0.0611881	-0.0342857	-0.011981	0.0157143	-0.0342041	-0.162567	0.0357143	-0.081173	0.0181235	0.0166036	0.0136792	0.0259886	-0.418676	0.0157143	0.0189308	0.00860543	-0.0405986	-0.0207143	-0.0897503	-0.00678879	-0.0136422	-0.0575219	-0.0196005	-0.03	-0.0739265	0.00642857	0.15784	-0.0725319	-0.0228571	0.00642857	-0.00662081	-0.373955	0.00785714	-0.0113208	-0.087203	0.0174659	-0.0100122	0.159946	0.0114788	-0.143616	0.118507	-0.0386383	0.01	-0.035	0.0548371	0.0264286	-0.0573371	-0.0399411	-0.300154	-0.0441673	-0.428741	-0.0278571	0.015449	-0.00196676	-0.0598088	-0.014677	0.0592563	-0.296639	0.0178571	0.012425	-0.104337	-0.0278571	-0.0342857	0.0114286	0.0275702	0.0154817	0.0287965	-0.0164286	-0.0121429	-0.128967	0.0872639	-0.0335178	-0.32574	-0.103403	0.00701217	-0.0121429	-0.000714286	0.00857143	-0.306879	-0.0277838	0.0142857	-0.0849039	0.0142857	-0.192196	-0.116101	-0.00714286	-0.0171159	0.015	0.523625	0.0307143	0.318986	-0.005	0.00315458	-0.0114286	-0.03	0.000822024	0.10879	0.000714286	-0.02	-0.137326	0.0118263	-0.0207143	0.0309008	-0.00132083	0.364641	-0.0325219	-0.235541	0.445249	-0.11372	-0.119496	-0.00100264	-0.0135714	0.03	0.01	-0.183129	-0.0207143	0.00357143	-0.00785714	-0.00721218	0.0307143	-0.0281487	-0.0192857	-0.0405568	0.0243624	0.303711	0.0323246	0.404441	-0.0292857	-0.00357143	-0.223428	-0.0339505	0.025	-0.0176504	0.0271429	-0.297643	-0.114781	-0.120043	-0.0295135	0.0307143	-0.000714286	0.0335714	0.106861	-0.0135714	-0.00642857	-0.33111	0.485528	-0.0264286	0.005	0.0208552	-0.0275219	-0.000714286	0.0164286	-0.302996	0.0235714	0.00575466	0.0278571	0.0192857	-0.00857143	0.135203	-0.312433	-0.00346852	0.0321429	-0.228015	-0.025	0.533067	0.0235714	-0.0185714	0.0131549	-0.410367	-0.0242857	-0.0228571	0.025	0.00285714	0.0357143	0.0264033	0.0402379	-0.0239534	-0.00928571	-0.0359685	0.0307143	0.191409	0.00642857	0.0107143	0.329779	-0.114917	-0.02	-0.0271429	-0.0168076	-0.0417504	-0.110851	0.0292857	-0.0335714	-0.226313	-0.0218645	-0.0235714	0.0285714	0.0228571	-0.00714286	0.304533	-0.0228571	-0.00501834	0.0185714	0.18638	-0.0271429	0.0141135	0.00412297	0.00997463	0.02	0.0121429	-0.117589	-0.0168076	-0.00632754	-0.0289693	-0.0114286	-0.00928571	-0.0157143	-0.147496	0.0357143	0.0138497	-0.0235714	-0.0232362	0.235072	-0.0160934	0.0128571	0.18313	0.521569	-0.0888637	0.0128571	0.02	-0.0016696	-0.0255083	-0.01	0.026511	-0.0396648	0.0965189	-0.0233949	0.0128571	-0.0468645	0.0335714	-0.0107143	0.1275	-0.0228571	0.0328571	-0.120686	0.163898	-0.0128571	0.0737074	-0.0292857	-0.0135714	0.00142857	-0.0171429	-0.005	-0.000153507	-0.0325219	0.00857143	0.0173193	-0.0107143	0.0142857	0.0328571	0.171036	-0.00495801	-0.0128571	0.00142857	0.0156001	-0.0541247	0.0183089	-0.0403311	0.17804	0.359276	0.00260097	-0.0425181	-0.0342857	-0.025	0.0142857	-0.0460934	-0.0440074	0.00214286	0.0235714	-0.0384297	-0.000393804	-0.0114286	-0.0335714	0.02	-0.0185714	0.0200701	0.0292857	-0.0291732	-0.01	0.00627286	-0.00214286	0.240376	-0.00142857	-0.0142857	-0.044476	-0.015	-0.0310934	0.0357143	-0.0462488	0.00813546	-0.0349226	-0.0118076	0.01	0.00231097	-0.00180764	-0.0163119	0.0321429	0.00714286	-0.00928571	-0.00115025	0.0122189	-0.0290556	-0.0285714	0.042329	0.137365	0.025	-0.0638932	0.0204121	-0.01	0.00790918	0.000714286	0.0228571	-0.0368645	-0.0303791	0.00799332	-0.0506604	0.0196082	0.0107143	0.0214286	0.00642857	0.00285714	-0.125155	-0.0107143	-0.0153781	-0.0271429	0.0758378	-0.0314286	0.0889947	-0.0961202	-0.005	-0.0107143	0.00891654	-0.0344474	0.0328571	-0.0291495	0.0105607	-0.0121429	0	-0.0441876	0.0128571	0.0192857	0.00642857	-0.049826	-0.0335714	-0.00264355	0.0097542	0.0235714	-0.027493	-0.0360695	-0.025	0.00874977	0.0362871	0.00642857	-0.0340074	0.00357143	-0.0478462	-0.0385615	0.00714286	-0.0314653	0.0328571	-0.0342857	-0.0257143	0.0128571	-0.0179747	0.00785714	-0.0343986	-0.01	0.0307143	-0.0128571	0.00693866	-0.0264286	-0.03	-0.0225827	-0.0185711	-0.0111503	-0.0338236	-0.015	0.0335714	0.00142857	-0.015436	-0.0278571	0.0292523	-0.0261503	0.0142857	0.0228571	0.0328571	0.0292857	0.0285714	0.00357143	-0.00170765	-0.00928571	-0.0262363	0.0235714	-0.0321429	-0.047703	0.0135327	-0.0169052	-0.025	0.0271429	0.00224186	0.0168505	-0.0190074	-0.0178571	-0.0278571	0.00998731	-0.00785714	-0.0185714	0.0314286	-0.0107143	-0.0164286	-0.0342857	-0.00939988	-0.0171429	0.0318982	0.0121429	-0.0307143	0.0174637	0.005	-0.00142857	0.0349308	-0.0331489	0.025	-0.0328571	0.00599437	-0.00642857	0.0157038	0.00545666	-0.0107431	-0.000714286	0.0328571	0.0292857	-0.0314286	-0.00336593	0.0119813	0.0128571	0.01	-0.0321429	0.0292857	-0.026964	0.0145847	-0.0473374	-0.046222	-0.01	0.0365565	0.00499232	-0.0342857	0.00142857	-0.00357143	-0.0278571	0.00142857	0.0299755	0.0286139	-0.01	-0.00142857	-0.000714286	0.0185714	0.0228571	-0.0480812	-0.0902827	-0.0142857	0.00352819	-0.005	-0.0107143	0.0048251	0.00785714	-0.0342857	0.0107143	0.0107143	-0.00428571	0.0164286	-0.0133265	-0.0271429	-0.0114286	-0.005	0.005	-0.00642857	0.0335714	0.00714286	-0.00928571	0.00642857	-0.0278571	-0.015	0.00082488	0.0358806	0.0185714	0.0321429	-0.0178571	0.005	0.000714286	-0.0171429	0.0257143	0.00285714	-0.0214286	0.0157143	0.00428571	0.0221429	-0.0178571	-0.0214286	0.0335714	0.0128571	-0.00357143	-0.032837	-0.0135714	-0.0142857	-0.00214286	0.0264286	0.015	0.0321429	-0.00285714	0.00642857	0.00214286	-0.0276302	0.0264286	0.035	-0.0314286	-0.0234128	-0.00357143	-0.0135714	-0.02	-0.00142857	-0.0298991	0.00642857	-0.035	0.0207143	-0.0142857	-0.03	0.00642857	0.00285714	0.0264556	-0.0254777	0.0164286	0.0185714	-0.0278571	-0.0335714	-0.0321429	-0.0292857	-0.00642857	-0.0164286	-0.0335714	0.0295578	0.0257143	-0.0307143	-0.00214286	-0.0185714	-0.0321429	0.00580952	-0.00400879	-0.0342857	-0.0114286	-0.0278571	-0.000714286	0.0307143	0.0142857	-0.035	0.0157143	0.000714286	-0.0292857	0.0228571	0.00645359	0.13889	
0.0278571	-0.015	0.00928571	0.00142857	0.0242857	-0.0221466	0.00714286	-0.018603	-0.00441852	-0.0262307	0.0150158	0.0267886	0.0248305	-0.0161259	0.011713	-0.00995368	-0.0260755	0.0329237	-0.0138277	-0.00370328	0.00357761	0.0136487	-0.0178031	-0.016373	0.0207143	0.00785714	-0.015	0.0264286	-0.00571429	0.0535332	-0.00352655	0.0235714	0.000588516	-0.0382114	0.00106818	-0.0177954	0.0118074	-0.00357143	0.00414377	0.018077	-0.0168716	0.0257143	0.0161972	0.0242857	-0.013851	-0.00434548	-0.032408	0.00428571	0.041412	0.248514	-0.0195624	-0.023256	-0.0183171	0.0285714	-0.015	0.0953017	0	0.0630566	0.029743	-0.019153	-0.0531528	-0.025	-0.0178571	-0.109239	-0.074473	0.482455	-0.071181	0.0107143	0.0205713	-0.00995905	0.382558	-0.0235714	0.0127916	-0.0145223	0.0357143	0.07124	0.0234744	0.322963	0.00319726	0.0357143	-0.0823304	0.0149612	-0.0318753	0.02	-0.0271429	0.201297	-0.015	-0.0264286	-0.0972277	-0.0228571	0.049218	0.672091	-0.0331658	0.0214286	0.0285714	-0.0319664	0.0730285	-0.00142857	0.43493	0.801213	0.132994	-0.0178571	0.0645179	0.047981	0.124258	-0.0908747	-0.0150049	-0.0204424	-0.0051159	0.025	-0.144592	-0.0121429	-0.0297935	0.0335714	-0.00227421	-0.151952	0.00330018	0.540528	-0.0128571	-0.0295613	-0.0945192	0.106914	0.0314352	0.0321429	-0.0228571	0.0516271	-0.0630068	0.00642857	-0.13979	-0.00857143	0.14591	-0.0242857	0.0321608	-0.276522	-0.0230048	0.0558445	-0.123744	0.0221429	-0.143807	-0.0122308	0.0114565	-0.01	-0.0227998	0.428073	-0.245238	0.00214286	0.0230443	-0.0987734	0.0354573	-0.0171429	-0.142992	0.005	-0.268523	-0.00282449	-0.0637006	0.0221429	0.183573	0.0446691	0.0499901	0.0415259	-0.158584	-0.24174	0.0416832	0.0302802	0.00857143	0.128287	-0.00785714	-0.00133096	-0.0308149	1.28903	-0.54414	-0.433987	0.0121429	-0.00785714	-0.005	-0.21318	-0.538296	0.025	0.0644408	0.0278571	-0.3657	0.0283144	0.314928	-0.0154341	-0.529778	0.075146	0.005	-0.481847	-0.00639682	0.0583333	-0.723854	0.0182643	-0.448944	-0.0081699	-0.0262555	0.379077	-0.00167552	0.0269752	-0.40961	0.0264286	-0.187878	0.046666	0.00617155	0.0566157	0.00869249	-0.00214286	-0.00710917	-0.0372992	0.297211	-0.264094	-0.397126	-0.0216476	0.0288882	0.0135714	0.0162801	0.0307143	0.0506829	0.0192857	-0.0107375	0.00285714	0.21434	0.271648	-0.0242857	0.0168858	-0.00342199	-0.0764666	0.0480443	-0.0320915	0.33197	0.0221429	0.633543	0.714384	-0.0290138	-0.035	0.314363	-0.0376334	0.0300827	-0.0194915	0.439961	-0.0142857	0.345427	-0.015	0.899594	0.0751094	-0.000714286	-0.00357143	0.0467746	0.651022	0.0164286	-0.0040986	0.221871	0.000344978	0.0255432	0.563284	-0.0321318	0.0689125	0.246106	-0.0126988	0.00357143	0.015	0.357511	0.000714286	0.00932791	0.0128492	0.462079	0.0161538	0.407534	-0.000714286	0.00530876	0.0456617	0.102885	-0.0289407	-0.203443	1.56039	-0.0292857	0.347939	0.729021	-0.0328571	0.0271429	0.015	-0.00712913	-0.0127328	0.0145886	-0.0164286	-0.0328571	0.252394	0.415407	0.0111324	0.70638	0.403031	0.0552353	-0.0235714	0.0192857	-0.00571429	0.68497	0.0426738	-0.0192857	0.0983402	-0.0164286	0.747928	0.552654	-0.0321429	0.00902944	0.0128571	-0.0229553	-0.0121429	0.407413	-0.0292857	0.049348	0.0192857	-0.0135714	0.0601871	0.39299	0.00142857	0.0164286	-0.377434	0.0629891	-0.00357143	-0.0218465	0.0501871	-0.684146	0.0376514	-0.0266166	0.0240659	0.113962	0.482589	0.0412334	-0.0285714	0.0271429	-0.0335714	-0.565111	-0.00785714	0.00642857	0	0.0068713	0.0135714	0.0496539	-0.00214286	0.52672	-0.0204437	-0.365377	0.00742619	0.130338	-0.025	0.00928571	-0.207094	0.0112228	0.00357143	-0.0010214	-0.0242857	0.280788	0.0989823	-0.560158	0.0122802	-0.03	-0.00214286	0.0107143	-0.428479	0.00428571	-0.0328571	-0.25337	0.197174	-0.005	-0.000714286	0.0464287	-0.0287772	0.0135714	-0.0235714	-0.19682	0	-0.00834973	-0.02	0.00714286	-0.0328571	-0.287158	-0.114279	0.0151741	-0.00428571	0.199051	0.02	0.126435	0.00928571	0.0264286	0.0159542	-0.240357	0.0314286	-0.0228571	0.00857143	-0.015	-0.0178571	0.326467	-0.342035	0.0465199	0.00714286	0.0137662	0.0314286	-0.250734	0.0264286	-0.0285714	0.105442	-0.0741857	-0.00214286	-0.0135714	0.03908	-0.0218485	0.185172	-0.0235714	0.0335714	-0.323222	0.0479579	0.0178571	-0.0185714	-0.0307143	0.00785714	-0.4783	-0.0328571	0.198111	0.01	-0.212364	-0.0107143	0.0177764	-0.00739381	0.00336968	0	0.0314286	-0.0927678	0.00122281	-0.0285892	-0.0160251	-0.0321429	-0.0257143	0.0307143	0.181718	-0.00357143	0.0443865	-0.0321429	0.0147942	-0.326431	-0.0280629	-0.0164286	0.42424	0.337515	0.0614734	0.00357143	-0.00714286	0.0452262	-0.0253247	-0.00285714	-0.0047285	-0.0102058	-0.179494	-0.0331779	-0.0264286	0.00510081	0.00214286	0.00571429	-0.155104	-0.00214286	0.00857143	0.141038	7.52683e-05	-0.0157143	0.249386	0.00285714	0.0157143	-0.00642857	0.00571429	0.025	-0.0388391	-0.0216343	-0.0271429	-0.000320748	-0.00857143	-0.0257143	0.00357143	-0.117998	0.0345028	0.01	0.0178571	-0.0123364	-0.0305775	0.00676892	-0.0119302	-0.00104148	0.127556	0.0269125	0.119361	-0.005	-0.0171429	0.02	-0.0273486	0.00152938	-0.0321429	0.00357143	0.00740966	0.0233677	-0.00214286	0.0292857	0.00785714	0.0321429	-0.0496518	-0.0185714	0.00112443	0.0292857	0.0498578	0.0335714	-0.011192	0	-0.0264286	0.0406297	-0.0171429	0.00979424	-0.000714286	0.11958	0.0251008	0.0349127	0.0297942	-0.0178571	-0.012318	0.0133657	-0.112986	0.0242857	0.0264286	-0.0307143	0.00867224	-0.02878	0.0113994	-0.00928571	-0.0251309	0.0183056	-0.0135714	0.00656273	0.0253666	-0.0171429	0.0104253	0.00571429	0.0171429	0.0322437	0.0126514	0.0268048	0.0891985	0.0245071	-0.00714286	0.0107143	0.0264286	0.00214286	0.0316389	0.0135714	0.0379083	-0.0121429	0.00239178	-0.0135714	-0.0165479	0.0555525	-0.00857143	-0.0321429	-0.00508999	0.0380493	0.0307143	0.0332334	-0.0142042	0.0185714	0.00428571	0.000926398	-0.035	-0.03	-0.00142857	0.0832231	0.02	0.0145747	0.00719205	0.0314286	0.11095	0.0178898	0.00571429	0.0341264	-0.0762787	0.00785714	0.0158151	-0.0128571	0.0348944	-0.0111282	0.00857143	-0.0138523	0.0307143	0.035	0.0135714	0.02	-0.0101501	0.00785714	0.0326853	0.0292857	0.0271429	0.0214286	0.0671791	0.0271429	0.0264286	0.0371784	0.00714846	0.0272437	0.0103177	-0.0178571	-0.0285714	-0.015	0.0351008	0.0121429	0.0125954	0.00295795	-0.0157143	0.00642857	0.00785714	0.0157143	0.025	0.0171429	0.00349504	-0.0142857	-0.011326	-0.0328571	0.00642857	0.0451211	-0.0123219	0.0338101	0.0278571	-0.0328571	0.0344352	0.0466492	0.0122437	-0.00142857	-0.035	0.00489913	0.00928571	-0.00928571	-0.0128571	0.0157143	-0.0228571	0.00642857	-0.00233644	0.0192857	0.0272943	-0.0228571	-0.0107143	0.0775689	-0.00642857	0.015	0.0172464	-0.00160583	0.00142857	0.0335714	0.0237684	-0.0278571	0.0531126	0.0414291	0.0479785	0.0235714	0.00285714	0.00285714	-0.0335714	-0.00067137	0.00227917	0.00357143	0.00428571	-0.025	0.03	0.039176	0.00454739	0.0455658	0.0303512	-0.015	0.0560122	0.0281654	-0.00285714	-0.0192857	-0.0107143	-0.00857143	-0.00357143	-0.0299687	0.0106934	0.0335714	0.00428571	-0.00142857	-0.0307143	0	0.0671483	0.0349398	0.0242857	-0.0220434	-0.0328571	-0.00785714	0.0272067	0.00428571	0.0307143	-0.0314286	-0.02	-0.01	0.03	-0.0162392	0.0328571	0.0278571	-0.00714286	0.0242857	-0.0185714	-0.00928571	0.00571429	0.00642857	-0.0164286	-0.0335714	0.0114286	0.0462945	0.00947119	-0.0207143	0.0292857	-0.0292857	-0.0192857	0.0278571	0.00642857	0.00571429	0.0292857	0.00857143	0.0328571	-0.00642857	0.0135714	-0.00642857	0.0342857	-0.00571429	0.0185714	-0.00571429	0.00296799	-0.0185714	-0.0142857	-0.00357143	0.00642857	0.00214286	-0.0114286	-0.0235714	-0.0278571	0.00714286	0.0240894	-0.0157143	0.000714286	0.0164286	-0.0223635	-0.00642857	0.0221429	0.0178571	0.0221429	-0.00730291	-0.0128571	0.0157143	0.0357143	0.0214286	0.01	-0.0214286	-0.0214286	0.0361723	-0.00159887	-0.00214286	0.00357143	-0.0228571	0.0142857	0.0242857	0.00928571	-0.015	0.0271429	0.0328571	0.0507527	0.000714286	0.00357143	0.0121429	-0.0142857	0.005	0.0161966	0.0107657	0.0335714	-0.0221429	0.00428571	-0.0142857	-0.0292857	0.0271429	-0.035	-0.03	-0.0221429	-0.0242857	0.0207143	-0.000590455	-0.0699176	
0.0292857	-0.01	0.0235714	-0.0292857	-0.0314286	-0.0228588	-0.0192857	0.0256486	0.00610942	0.071323	0.074469	-0.00517865	0.0195394	0.0704958	0.0072202	0.019911	0.0191127	-0.0328218	-0.0204714	-0.0307487	0.0303829	0.00997795	-0.0216271	-0.0264479	-0.0292857	0.0178571	-0.0135714	0.0192857	-0.0321429	0.0194755	0.0503327	-0.00214286	0.00749857	0.151079	-0.0906887	0.481606	-0.087351	-0.015	-0.0293041	0.232628	0.0190357	-0.0135714	0.010019	0.0164286	-0.0421396	0.123368	-0.0337322	-0.0221429	-0.0450569	1.52204	-0.00151263	-0.020224	0.0240063	-0.00357143	0.0142857	0.532294	0.015	-0.242092	-0.00503731	-0.06891	-0.248815	0.025	0.0164286	-0.15854	0.19454	0.48931	-0.0815869	0.025	-0.0633211	-0.013427	0.474887	-0.0285714	-0.0706035	-0.0651292	0.0228571	-0.0621993	-0.301233	0.212657	0.0896313	0.0121429	-0.281694	-0.0350625	0.0204668	-0.0271429	-0.00285714	0.0205974	-0.0242857	0.0128571	-0.0549216	-0.00428571	-0.0677881	0.256247	0.0269619	-0.0228571	-0.0321429	-0.241803	0.0382075	0.035	0.14701	-0.0507454	0.088698	0.0314286	0.210675	0.0124754	0.200747	-0.265626	-0.0209725	-0.0726778	0.0263526	-0.00642857	-0.213078	0.00714286	-0.00559059	-0.00214286	-0.161295	-0.0313816	0.0150141	0.149981	-0.0314286	0.369679	-0.0628739	-0.575048	0.00737593	-0.025	0.0128571	0.14875	-0.51397	-0.0235714	0.659909	0.0114286	0.154792	-0.0307143	-0.396972	0.09996	-0.0187758	-0.000849016	0.599565	0.0278571	-0.332378	-0.00718342	-0.0145277	0.00142857	-0.0423116	-0.157767	-0.0714791	-0.0257143	0.0343887	-0.247353	0.0121056	-0.0235714	-0.0108834	0.0264286	0.349346	0.802249	-0.417174	0.0257143	0.203574	0.0355581	-0.0290878	0.0412675	-0.0852711	-0.186375	0.0487864	0.0342015	-0.0221429	0.637638	0.0171429	-0.0287319	-0.00174913	-1.98039	0.829563	0.474478	-0.03	-0.01	-0.00214286	-0.0909761	-0.278149	-0.0314286	0.0864048	0.00285714	-0.0150079	0.0328198	0.280342	-0.00651281	-0.146958	0.056746	0.02	0.405447	-0.0325143	0.109905	0.378894	0.0130087	-0.124374	0.0129763	0.00853619	-1.95124	0.0272849	0.0252443	-0.272341	-0.0242857	-0.115637	-0.0461631	0.040677	0.0558173	-0.0795119	-0.00714286	-0.0531119	-0.452351	0.147455	0.521417	-0.174233	-0.0625541	0.0212343	-0.025	0.0183766	-0.0321429	0.068801	-0.00785714	-0.0437117	-0.02	-0.495135	-0.369287	0.0192857	0.0299627	0.0141235	-0.229159	0.0315316	-0.0282582	0.719494	0.0335714	-0.254574	0.0581113	-0.0533921	0.00642857	0.162288	-0.110646	0.0317727	-0.0104058	-0.161875	-0.00214286	-0.157505	-0.00142857	-0.155845	0.0811846	0.00857143	0.02	0.0156438	0.591448	-0.0235714	0.0622459	-0.169273	-0.00684837	0.0802597	-0.13938	-0.0275463	0.351276	0.737088	-0.0805847	-0.000714286	-0.0314286	0.102597	0.0121429	0.0390303	0.00760642	-0.148095	0.0264865	0.2555	-0.0164286	0.0128724	-0.0282998	0.0835294	-0.0154198	0.53919	0.184609	0.0164286	-0.156786	-0.168753	0.0192857	0.00857143	0.0264286	0.0607037	-0.0202859	-0.0184927	0.0321429	0.015	0.147756	0.154927	-0.0216902	-0.341739	1.12697	0.0102142	-0.0121429	0.01	-0.0207143	0.0847362	0.014944	-0.00142857	0.165242	-0.0221429	-0.681781	-0.163698	-0.00428571	0.00967225	-0.0321429	0.0449389	0.000714286	-0.0161074	-0.0342857	0.013498	-0.0292857	0.0271429	-0.00489699	0.129424	0.00928571	0.00142857	0.0588644	0.0332546	-0.00142857	-0.0249561	0.0393887	0.0106999	-0.00969152	-0.576403	-0.149067	0.210208	-0.233141	0.0220371	0.035	-0.0142857	0.0142857	-0.162608	-0.0321429	-0.0264286	0.0192857	-0.0288064	-0.00142857	0.0731014	0.00428571	0.438513	-0.0289928	0.0591981	-0.00831649	0.37915	0.02	0.00142857	-0.240249	-0.0218344	0.00357143	-0.016277	-0.0264286	-0.0948444	0.282041	0.223071	0.0366459	0.0135714	-0.00571429	-0.03	-0.0105818	-0.00714286	0.0285714	-0.514455	0.914561	0.0314286	-0.0321429	0.102333	0.0095942	0.00142857	-0.00142857	-0.165951	0.00214286	0.0045011	-0.0185714	-0.00571429	0.0164286	0.000541069	-0.151331	0.0124569	0.00928571	0.268457	0.00357143	0.512274	-0.0214286	-0.0235714	0.0142184	-0.514122	0.025	-0.0278571	0	0.00428571	-0.0342857	0.373285	-0.333854	0.0669413	0.0242857	-0.0310997	-0.0264286	0.131781	-0.03	-0.0271429	0.471416	-0.0672873	-0.0214286	0.0157143	0.00887991	0.0291734	0.0481318	0.0335714	-0.0135714	-0.638052	-0.00550159	-0.00928571	0.0114286	0.00928571	0.00214286	-0.248866	-0.0328571	0.33171	0.0335714	0.109547	0.0335714	0.0259588	0.0357377	0.0334849	0.0307143	-0.0142857	0.0455433	0.0117371	-0.0198743	0.00534245	0.0128571	0.0114286	-0.0192857	0.0953125	-0.00857143	0.0166413	0.02	0.0153085	-0.0430813	-0.0225487	-0.035	0.0561007	0.276488	0.130882	0.0221429	0	-0.0358218	-0.00648501	-0.00785714	0.0293678	0.000308484	-0.191343	-0.0017168	0.0264286	-0.0147873	0.0292857	-0.0235714	-0.0619592	-0.00214286	0.0257143	0.0947823	0.0187294	0.00142857	0.0989227	0.00214286	-0.00642857	-0.00571429	-0.0135714	0.00285714	0.0546573	0.0360228	0.00357143	-0.0131454	0.0264286	0.0164286	0.00928571	0.0173277	0.0405527	0.0342857	-0.0171429	-0.0203893	0.163138	0.0113189	-0.0210315	0.113635	0.358081	-0.0211467	0.0282796	-0.0178571	-0.0285714	-0.0142857	0.0210228	0.0173555	0.0221429	0.0242857	7.88234e-05	-0.0155217	-0.0178571	-0.0285714	0.0178571	0.0278571	0.142907	0.0221429	0.0216305	-0.00785714	0.0160872	-0.0121429	0.173405	0.0192857	0.0235714	0.000779782	0.035	0.0224513	0.01	0.052255	-0.00264445	0.00516642	-0.0054058	0.03	-0.00858399	0.00102277	-0.0160738	-0.0328571	-0.0235714	0.00285714	-0.00907302	0.0778418	-0.012372	0.01	0.0712196	0.146489	-0.0328571	0.01485	-0.00148873	-0.0164286	0.0322228	-0.00928571	0.00642857	-0.0219302	-0.0196915	0.0306374	-0.0142052	0.00952537	0.0107143	-0.00785714	-0.0121429	0.01	0.0319341	0.0114286	-0.0290157	0.0235714	0.0369759	-0.015	0.0180027	-0.000359849	-0.0114286	0.0185714	-0.0190184	0.0114391	0.0292857	-0.0150769	-0.017505	-0.00214286	0.0257143	0.0351411	0.0164286	-0.0121429	-0.0128571	0.0431965	-0.0314286	0.0329467	0.0186247	-0.015	0.0194708	-0.00835393	-0.0214286	-0.0484673	0.0108132	0.0128571	0.00664126	0.00857143	-0.0242836	0.0163782	-0.00571429	-0.00879428	0.0342857	0.0185714	-0.0257143	-0.0207143	0.0415106	0.005	-0.0354824	0.035	-0.0335714	-0.00785714	0.022064	0.0178571	-0.0185714	-0.0101904	0.0030845	-0.0162159	-0.0349378	-0.0128571	-0.0292857	-0.01	-0.0205016	0.0214286	-0.0139559	0.0187841	-0.00214286	0.0292857	0.0292857	-0.00142857	-0.0257143	-0.0121429	-0.00952299	-0.0278571	-0.0137653	0.00142857	0.0242857	0.0622015	-0.0268891	-0.010404	-0.00428571	-0.0285714	-0.0148782	0.014855	-0.0112159	0	-0.0221429	0.0299567	0.02	0.0328571	-0.0185714	-0.00785714	-0.0135714	0.0342857	-0.0232464	-0.0257143	0.0178965	-0.0235714	0.00428571	0.0378162	-0.0242857	0.0135714	0.00317814	0.00186233	0.0214286	0.005	0.00482621	-0.025	-0.0435843	-0.0180396	0.0052034	0.0342857	0.0192857	0.0192857	-0.00785714	-0.026946	-0.0164382	-0.0292857	-0.0335714	0.00428571	-0.0328571	0.0323845	0.0305539	0.0355195	0.0273922	-0.0271429	0.0623536	-0.0305165	-0.0157143	-0.0307143	-0.0221429	-0.005	0.0178571	0.0128979	-0.00121864	0.00285714	-0.0185714	-0.0328571	0.0128571	0.02	-0.0135978	0.0231852	-0.0164286	0.0433427	-0.00214286	0.0107143	-0.00569038	-0.0178571	0.0164286	0.00785714	0.0214286	-0.0157143	-0.00857143	-0.0143076	0.0107143	0.0107143	-0.00928571	-0.0242857	0.0121429	-0.0242857	-0.02	0.025	-0.0285714	0.0328571	0.00214286	0.0215449	-0.0257781	-0.0157143	0.00785714	-0.0207143	0.005	-0.0128571	0.0292857	0.0235714	-0.0171429	0.0278571	-0.00214286	0.0242857	-0.0264286	0.015	-0.00428571	0.03	0	-0.0121429	-0.0234637	0.0121429	0.0342857	-0.0321429	0.0228571	0.01	0.0157143	0.00357143	0.0357143	0.0228571	-0.025455	0.00142857	0.0292857	-0.0335714	-0.000580347	-0.0335714	0.0185714	0.0271429	-0.0114286	0.011967	0.015	-0.0271429	-0.0314286	0.0135714	-0.00214286	-0.0228571	0.03	0.0553865	0.03198	0.0307143	0.0171429	-0.0142857	0.00642857	0.015	-0.0114286	0.03	0.0257143	0.00571429	0.0509778	-0.00857143	0.0292857	0.0357143	0.0278571	0.0221429	0.0262261	0.0400525	-0.0107143	-0.015	0.00714286	-0.0207143	-0.00285714	0.0228571	0.0242857	0.000714286	-0.0342857	-0.0142857	-0.0214286	0.0384681	-0.0182093	
0.0221429	-0.00857143	-0.00428571	-0.0285714	-0.00142857	0.0121575	0.0321429	-0.00663302	-0.00566502	-0.0284677	0.0437927	0.00242871	0.0503117	0.0466652	0.0214428	-0.000406333	0.00386794	0.0121816	-0.0164755	-0.0177102	0.0118563	-0.0146399	0.000206764	-0.0035172	-0.0242857	0.0142857	-0.00214286	-0.00357143	0.0285714	-0.0615295	0.00251431	-0.02	0.0110746	0.259604	0.0581645	0.363586	0.0862258	0.0192857	0.0863087	0.107144	0.0683428	0.00357143	0.00199464	-0.0171429	-0.0290229	0.0403166	-0.0283462	-0.01	0.0371644	0.483123	0.02985	0.128585	0.00290215	0.0185714	-0.0228571	-0.0476643	-0.00285714	0.30032	-0.0851711	0.0424791	0.200146	-0.0178571	-0.03	0.0558687	-0.1766	-0.388424	-0.0521036	0.00857143	0.0788867	0.0263639	-0.574151	0	0.102421	0.00109421	0.0185714	0.0595186	0.198598	-0.396287	0.00204199	0.0228571	0.121402	0.0114558	-0.015664	0.0307143	-0.00571429	-0.274748	0.00642857	-0.00785714	-0.138011	-0.0235714	-0.168435	-0.34626	-0.0247306	0.0242857	0.0164286	0.00304435	0.22492	-0.0121429	-0.357573	-0.868599	0.128363	0.0235714	-0.16018	-0.0028978	0.0316851	-0.220391	-0.052467	-0.0417206	0.0044347	-0.0221429	-0.213263	-0.00285714	0.0253608	-0.0292857	-0.187472	-0.19953	-0.0184248	0.238719	-0.0235714	0.289644	0.145399	-0.681014	0.00508824	-0.03	0.0192857	0.264233	-0.0298788	-0.0342857	-0.280315	0.0185714	0.137874	0.0142857	-0.0348402	-0.304666	0.00193687	0.00888794	0.179936	-0.0228571	-0.134986	-0.0374318	-0.00812448	-0.00571429	-0.0218107	0.0734891	-0.00926604	0.0307143	-0.0423397	-0.0669793	-0.0980282	-0.0221429	0.148642	0.00428571	-0.0877364	0.254871	0.176117	-0.00642857	0.192055	-0.0640997	-0.0163625	-0.0263965	-0.139911	-0.0971558	0.0319637	-0.0143643	0.0178571	-0.657603	-0.0342857	-0.0204111	0.0344218	0.25901	0.166443	0.10796	-0.015	0.0335714	-0.0342857	-0.0109983	0.445369	-0.0328571	-0.146362	0.0221429	0.0757538	-0.0844568	0.191459	0.0199214	-0.195544	-0.123855	0.02	0.213649	-0.0208373	0.0930577	0.159386	0.00978736	-0.46459	-0.0363527	0.00519711	0.290427	0.00710567	-0.0986367	0.275435	0.0214286	-0.110354	-0.0661113	-0.120171	-0.0144825	0.250127	-0.0278571	-0.0688385	-0.156832	0.289382	0.234168	0.409661	0.0146828	-0.0246134	0.0121429	-0.107294	0.00571429	0.0935373	-0.0328571	-0.0144527	-0.0178571	0.393791	0.701354	-0.03	-0.0665996	0.0420963	-0.155885	-0.0287682	-0.0346919	-0.143506	0.0285714	0.0186441	0.301465	-0.0210063	0.00142857	0.279867	-0.0458619	-0.0658968	-0.0271006	0.261187	-0.015	-0.469613	0.0257143	0.462109	0.097604	0.00142857	-0.00285714	-0.0496058	-0.0822832	-0.035	-0.0287682	-0.0629323	-0.0191514	0.0261912	-0.207531	0.0214239	-0.270409	-0.0643073	-0.0395403	-0.0307143	-0.00642857	0.277284	0	-0.033029	-0.0624175	-0.65113	-0.0963443	-0.198548	-0.025	0.017031	-0.0121437	0.087722	-0.0327228	-0.472225	0.0311242	-0.0257143	-0.0603249	-0.0806302	0.02	-0.035	0.00785714	0.0521259	0.0121631	-0.00858125	-0.0178571	0.00357143	-0.167065	0.311813	0.0253586	-0.762663	-0.43124	-0.0260555	-0.0321429	0.0214286	0.03	0.318325	-0.0144012	-0.03	0.0814938	0.0321429	-0.19243	-0.136377	0.0278571	-0.0673733	-0.0142857	-0.200372	0.0214286	-0.305895	0.01	0.0309769	0.00785714	0.0185714	-0.0394825	0.305073	-0.025	0.0207143	0.369248	-0.10056	0.000714286	-0.0107568	-0.00805395	0.188774	-0.020672	-0.169258	0.00278024	0.0675153	-0.122674	-0.0415515	-0.00857143	-0.00285714	0.025	0.251101	0.0357143	0.0171429	0.00642857	-0.0184018	-0.015	0.0186771	0.0285714	0.229732	-0.00422176	0.26505	-0.0236744	0.115438	0.00714286	-0.0121429	0.0253214	-0.0663863	0.0357143	-0.0280698	-0.0142857	-0.137555	0.102482	0.175035	-0.0670621	-0.0207143	-0.00214286	-0.00928571	0.220956	0.0242857	-0.0114286	-0.19281	0.215308	-0.0121429	-0.0207143	0.0438716	-0.0735291	-0.000714286	-0.0157143	0.19497	0.03	0.0168025	-0.0328571	-0.0285714	-0.0171429	0.234518	-0.0919986	-0.0631145	-0.00785714	0.181231	0.0257143	0.273636	-0.005	-0.00214286	0.0230334	0.0848154	0.0121429	-0.0114286	0.0228571	0.02	0.0142857	0.155688	0.125756	0.0497755	0.0357143	0.0182408	-0.00785714	0.303228	-0.00642857	0.0114286	0.0996549	0.0366163	0.0292857	0.015	-0.0171006	-0.074773	0.176593	0.0264286	0.0164286	0.0177061	-0.0528346	0.00571429	0.0328571	-0.02	-0.0321429	-0.0386189	-0.0221429	0.162135	0.0135714	0.144581	0.0357143	0.0693987	-0.0469424	0.0104307	0.0285714	-0.0221429	0.0934582	-0.0635291	-0.000488151	-0.0620522	-0.00357143	0	-0.00785714	0.207317	-0.0214286	-0.0499775	-0.0335714	-0.0799577	-0.069722	-0.0299577	-0.015	0.0939309	0.162777	0.144807	-0.0192857	-0.00714286	-0.0444794	0.00648169	0.00928571	0.0394782	-0.050672	-0.203721	0.00911899	0.0107143	-0.0828346	0.005	-0.0107143	-0.0140154	0.0242857	-0.0228571	0.182874	-0.172141	0.0128571	-0.229282	0.0121429	0.0264286	-0.0114286	0.0135714	0.03	0.161154	-0.015672	0.0157143	-0.0351667	0.0207143	-0.00214286	0.0207143	-0.14317	0.0512593	0.0157143	0.0214286	-0.0352045	-0.0668854	0.00685968	0.0163413	-0.225445	-0.265605	-0.0433401	0.136172	-0.0107143	0.03	0.0278571	-0.015672	-0.0585489	-0.03	0.0342857	0.215952	-0.00471048	-0.0135714	0.00642857	-0.00857143	0.0257143	-0.0715777	0.00785714	-0.0184875	0.0235714	0.0387659	-0.0207143	-0.274884	-0.0257143	0.03	-0.0524838	-0.00214286	-0.0742434	0.0192857	0.12826	-0.0406918	-0.0270339	-0.0449577	0.0128571	-0.0179765	-0.0513863	0.0830017	0.03	0.0128571	0.01	-0.0464061	-0.152493	-0.140255	-0.0214286	-0.241291	-0.157772	0.005	-0.102568	0.0209669	0.035	-0.0694603	-0.0235714	-0.0221429	-0.0678346	-0.0242434	0.00387494	0.0752853	-0.0167009	0.0171429	-0.0221429	-0.0164286	0.015	0.0405497	0.0221429	-0.0955012	0.0171429	-0.054646	-0.00285714	-0.13092	-0.0963776	-0.0285714	0.00285714	-0.0587269	-0.0983844	-0.0178571	-0.0225536	0.0222305	-0.0114286	-0.00142857	-0.0367134	-0.0128571	-0.0314286	0.0335714	0.0600483	0.01	-0.0174447	-0.0282351	0.00571429	0.0619346	-0.0832554	0.0185714	-0.0203839	-0.0693169	-0.0328571	-0.0628346	-0.00142857	-0.106247	-0.0183862	0.0314286	-0.0250956	-0.00857143	0.00357143	0.0357143	0.0321429	-0.00775778	0.0192857	-0.0952319	-0.00285714	-0.0285714	-0.0221429	0.0230804	0.0307143	-0.0185714	-0.0576536	0.0132143	-0.0814061	-0.0310664	-0.0328571	0.0335714	-0.0285714	-0.0442632	-0.0185714	0.00866042	-0.0742632	0.0207143	-0.0271429	0.0342857	0.00714286	0.00285714	0.0292857	-0.0552619	-0.005	0.0403443	-0.0314286	0.0285714	-0.0762737	-0.0400308	-0.0254575	-0.0221429	0.0321429	0.0318799	-0.0303534	-0.0478346	0.00285714	-0.0235714	0.0187868	0.0307143	0.0128571	0.0235714	-0.00642857	-0.015	0.0178571	-0.0480617	-0.0185714	0.0182094	-0.00285714	-0.0107143	-0.0857952	-0.0314286	-0.00714286	-0.0224542	-0.088618	-0.0107143	-0.0278571	-0.0242849	-0.0185714	-0.00803105	-0.0448701	-0.0177027	0.00285714	0.0321429	0.00785714	0.0335714	-0.0139531	-0.0263013	-0.0264286	-0.0271429	0.00571429	-0.0128571	0.0125729	-0.0534225	-0.0830086	-0.101814	-0.0235714	-0.0539384	0.0269011	0.00857143	-0.02	-0.0207143	0.0121429	-0.0264286	0.0264551	0.0197025	-0.00214286	0	-0.00357143	-0.02	0.025	-0.0814228	-0.0768242	-0.00857143	0.0123019	-0.0235714	0.0257143	-0.0585287	0.0228571	0	0.0271429	0.0292857	0.0221429	0.0228571	0.00393212	0.03	0.00285714	-0.03	-0.0164286	-0.0342857	0.0135714	-0.00142857	0.0171429	0.0271429	-0.0271429	0.00714286	-0.0143013	-0.0413009	-0.0292857	0.00785714	-0.0128571	-0.00357143	0.00571429	0.0271429	-0.0114286	0	0.00428571	-0.0221429	-0.0171429	0.0278571	0.0128571	-0.0264286	0.0207143	0.0357143	-0.00214286	0.0141155	0.03	0.00142857	-0.015	0.0142857	-0.0321429	0.0342857	0.0135714	0.02	0.025	0.00747433	0.0285714	-0.035	0.0285714	-0.0193998	0.00785714	0.0171429	0.0321429	-0.0221429	-0.0272794	-0.0157143	-0.0214286	-0.0207143	-0.00214286	0.0335714	-0.0292857	0.0114286	-0.0345161	-0.0452618	-0.0228571	-0.0307143	0.00785714	-0.0292857	-0.0278571	0.0285714	-0.0142857	-0.025	-0.00785714	0.00790879	0.0307143	0.0178571	-0.015	0.0228571	0.0178571	-0.0590706	-0.0520307	0.0264286	-0.00428571	0.0192857	0.005	0.00428571	-0.0321429	-0.0157143	-0.0157143	-0.0335714	0.0185714	-0.00928571	-0.0336811	0.277065	
-0.0157143	-0.00928571	0.0321429	0.0271429	-0.00357143	-0.0321444	0.0192857	0.0171344	-0.0257007	-0.0027104	-0.0290369	0.000869656	-0.022462	-0.0103361	0.0258054	0.00929665	-0.0194434	0.0209633	-0.0316067	0.0105985	0.00316626	0.00680064	0.0169393	-0.0271403	-0.00571429	0.0357143	-0.0257143	-0.0235714	0.0271429	-0.00818405	-0.0449156	-0.025	-0.0245113	-0.102957	-0.0325037	-0.0632736	0.0117259	-0.0135714	0.0377896	-0.15707	0.0463877	0.0114286	0.0429942	-0.00857143	-0.0174284	-0.0796076	-0.0273696	0.0285714	-0.0225069	0.430378	-0.0320993	0.0330572	-0.019076	0.02	0.0264286	-0.202774	-0.015	0.0460394	0.0314697	-0.0304743	0.00398749	0.0278571	-0.0142857	-0.0204538	-0.194006	-0.112498	-0.0700885	0.0321429	-0.107688	-0.0238844	-0.161313	-0.0285714	0.0500979	-0.000499944	-0.00214286	0.0265103	0.112817	-0.312248	0.00559161	0.0135714	0.186125	-0.00359901	-0.0051685	-0.00928571	0.0185714	-0.213321	-0.0328571	-0.0328571	0.00288486	0.0264286	0.0340935	0.130928	-0.0793322	0.0357143	0.0164286	0.31095	-0.0335634	-0.00214286	0.29354	-0.133416	0.0172287	0.0228571	-0.0216412	-0.000557147	0.0197933	0.291163	0.0354455	0.0207925	-0.00907757	0.0285714	0.0892429	0.0135714	-0.0101102	0.00642857	0.219455	-0.112148	0.0221631	0.33948	0.0114286	0.0626681	-0.264761	0.0491149	0.0239763	0.0164286	-0.0107143	-0.262471	0.271458	-0.0242857	0.0679191	0.000714286	-0.0692042	-0.0235714	0.223491	-0.0582107	0.00810308	0.000977971	0.0372867	-0.0278571	-0.0124181	-0.0149063	0.0352609	0.0285714	-0.0112778	1.1018	-0.232008	-0.0342857	0.0269886	-0.020919	0.0150411	0.00857143	-0.279959	0.00642857	0.149578	0.162144	-0.0984297	-0.0135714	0.0812926	-0.0244493	0.0380339	0.00433625	0.0831054	-0.178837	-0.0264059	-0.03026	0.0185714	0.635772	0.025	-0.00705897	-0.00642878	1.01452	0.104661	-0.0248268	-0.035	0.0114286	-0.0164286	-0.395042	-0.108344	0.0178571	0.00511467	-0.0157143	-0.214266	0.00218394	-0.0262739	0.02474	-0.130853	0.0221744	0.0114286	0.056614	-0.00828303	0.024824	-0.267099	0.00860674	-0.303304	0.00369135	0.0132827	0.0412686	0.0210424	-0.0277876	-0.19732	-0.0192857	-0.33025	-0.0287711	-0.0171018	-0.02944	0.232645	0.0314286	-0.0296962	-0.128309	-0.0597599	-0.540468	-0.407377	-0.00733758	-0.00232937	0.0107143	0.0370704	-0.0121429	0.0196155	0.005	-0.00338516	0.0207143	-0.219626	-0.0873859	-0.005	0.00432679	0.0297939	-0.211679	0.0262743	-0.0307452	-0.306546	0.0285714	0.057286	-0.153733	-0.0434933	-0.0228571	0.0162104	0.0146431	-0.0359713	-0.017279	-0.0725718	-0.0135714	-0.115254	0.0107143	0.419854	0.00600213	0.0221429	0.02	-0.0262917	0.194291	0.0257143	-0.0201543	-0.0510723	-0.0289877	0.0178717	0.176635	-0.00110867	0.107799	0.950789	-0.0444668	0	-0.0164286	0.235723	0.00142857	0.0110105	-0.00280415	0.144671	-0.0107212	0.703772	0.0242857	-0.0324198	0.00342871	-0.0185981	0.030298	0.568288	1.19598	-0.0142857	0.283982	0.218964	-0.00214286	-0.0121429	0.0121429	0.0172796	-0.0198111	-0.0156575	-0.0321429	0.01	0.887089	0.223328	-0.0230103	0.407386	0.593783	-0.0111478	0.0207143	-0.0128571	-0.0271429	1.13711	-0.0373427	0.0285714	0.00140096	0.0271429	0.433893	0.280154	0.00214286	-0.012193	0.0185714	0.775344	0.015	0.618754	0.025	-0.019288	0.0178571	-0.0335714	-0.00872569	0.365074	-0.0142857	0.000714286	0.556679	0.00186779	-0.0142857	0.024347	0.0284172	0.14674	-0.0165647	0.196843	0.0730144	0.0381614	0.21303	0.0255625	-0.0135714	-0.0221429	-0.0128571	0.175077	-0.0314286	0.025	-0.0214286	0.0219807	-0.00642857	-0.00348196	-0.0185714	0.361801	0.00704377	-0.851806	-0.0130913	-0.369316	-0.0335714	0.00785714	0.10359	0.0134353	0.0185714	0.0257496	0.00571429	0.0905764	0.0900056	-0.194106	-0.0395156	0.0264286	-0.0128571	0.00428571	-0.864872	-0.0257143	0.0171429	0.18446	-0.534565	0.0214286	0.035	0.00373871	0.00486383	0.0292857	-0.0314286	0.0964624	0.0121429	-0.0236235	0.025	0.0342857	0.0171429	-0.422107	0.136861	0.0202645	-0.0285714	0.046128	0.0171429	-0.693963	-0.0271429	0.015	0.00452471	0.290462	-0.0292857	0.0278571	0.0135714	-0.00714286	-0.0342857	0.426585	-0.123832	-0.020518	-0.0178571	0.000834042	0.00714286	-0.355864	0.0314286	0.0107143	-0.518213	0.256757	-0.0121429	-0.0335714	-0.0308505	-0.00890054	0.0959696	-0.0214286	-0.005	-0.180488	-0.0164974	-0.0242857	-0.02	0.0128571	-0.00857143	-0.304442	-0.0121429	0.204871	-0.0221429	-0.347793	0.0257143	0.0130213	-0.00407323	0.0277563	0.0128571	0.015	0.149383	-0.0179933	-0.0326759	0.00722536	-0.00428571	0.0192857	-0.00285714	0.0995053	0.0214286	-0.0522117	0.0257143	0.0141495	-0.230593	-0.0179933	0.0178571	-0.0438333	-0.0577168	0.106077	0.00285714	-0.0121429	0.00547014	-0.00976049	-0.0135714	-0.00755779	0.0262924	-0.0704368	0.0148559	0.0271429	-0.052926	-0.00785714	-0.0285714	-0.201583	-0.0228571	-0.0242857	0.0727812	-0.232709	0.03	-0.120558	-0.00642857	-0.0192857	-0.00642857	-0.0164286	-0.00214286	-0.0186383	-0.0337076	-0.02	0.00414159	-0.035	0.0135714	-0.0285714	-0.00984434	0.0342606	0.035	-0.025	-0.00973971	-0.0985437	0.0216861	-0.0291794	-0.250329	0.0275147	-0.0329843	-0.040653	0.0278571	0.0185714	-0.0328571	-0.0201362	0.00564546	-0.00214286	0.00571429	-0.0908377	0.0125292	0.0342857	0.00357143	0.0128571	0.0128571	-0.136154	0.0278571	-0.0215287	-0.0271429	-0.0519164	0.0242857	-0.064343	-0.03	0.0235714	-0.0371852	-0.0321429	-0.0215647	0.0321429	-0.0444466	-0.0557831	0.0153134	0.0184353	-0.00857143	0.0157079	0.000578113	-0.179801	0.0335714	-0.00571429	-0.00785714	-0.017926	-0.237975	-0.0161381	0.00142857	-0.0643533	-0.0680394	0.015	-0.0012695	0.00160639	0.0314286	-0.0447875	-0.015	-0.015	-0.0214974	-0.012279	-0.0292167	-0.0562873	0.0306332	0.025	-0.0285714	0.0107143	0.0257143	-0.223121	-0.00428571	-0.00360517	-0.0221429	-0.0725261	0.0121429	-0.0851629	-0.000312565	0.00571429	-0.02	0.00138351	-0.00979063	-0.0178571	-0.0070738	0.0385395	0.0328571	0.0221429	-0.0226388	-0.00642857	0.0235714	-0.00428571	0.00920636	0.0242857	-0.0239032	-0.0128752	0.035	-0.0971586	-0.00855528	0.00785714	-0.0841246	-0.121292	-0.0307143	0.00207403	-0.0157143	-0.0106448	-0.0118633	-0.00214286	0.0134309	-0.0178571	-0.0328571	0.0107143	0.0271429	-0.0114417	0.0285714	-0.0361575	0.0157143	-0.00928571	0.00785714	0.0467909	0.0192857	-0.005	0.0258102	0.0369953	-0.00078311	-0.020343	0.0214286	0.0192857	-0.00714286	-0.022926	-0.00928571	0.014631	-0.0193545	0.0321429	0.00857143	-0.0128571	-0.0214286	-0.00357143	0.02	-0.00753833	0.0142857	-0.00773001	-0.0157143	-0.0292857	0.00313763	0.0158146	0.0284435	-0.0157143	-0.0321429	0.017939	0.00980509	-0.0336403	-0.00428571	-0.00214286	0.0213781	0.0171429	-0.0271429	0.00785714	0.000714286	0.000714286	0.00714286	-0.0147397	-0.0142857	-0.0271145	-0.0114286	-0.00428571	0.00845504	-0.0321429	-0.00714286	-0.0176109	-0.0397316	0.00785714	0.005	0.0329391	0.0135714	0.00995104	0.00991946	-0.0253344	-0.00428571	0.0142857	0.00642857	0.00785714	-0.0341437	0.0026872	0.00714286	-0.0107143	-0.0157143	-0.0192857	-0.00513505	-0.0297502	-0.0107868	-0.0250681	-0.0214286	-0.00303743	0.0126608	-0.0321429	0	0.00928571	0.00785714	-0.00642857	0.0264372	0.0212455	-0.0342857	0.0328571	0.0192857	0.0142857	-0.0271429	0.00116172	-0.00715416	-0.03	0.00729401	-0.00642857	0.0128571	-0.0290757	0.0321429	0.0207143	0.00142857	0.0171429	-0.035	0.0342857	-0.031527	-0.0171429	-0.0335714	0.0171429	-0.0128571	-0.0192857	0.0207143	0.0221429	-0.00928571	-0.00785714	-0.0207143	-0.0185714	-0.026682	-0.0220555	0.015	-0.00214286	-0.00428571	-0.0114286	-0.00642857	-0.0171429	-0.00642857	-0.0328571	0.0121429	0.00785714	-0.0207143	-0.0264286	-0.00785714	-0.0185714	0.0257143	-0.00714286	-0.0207143	-0.00716888	-0.0235714	0.0178571	-0.0264286	-0.00142857	0.0335714	0.0292857	-0.0157143	0.0257143	0.0228571	0.0335807	0.00785714	0.000714286	0.0171429	-0.0165376	0.0335714	0.0135714	-0.0242857	-0.00928571	0.0312985	0.005	0.0307143	-0.0271429	0.0135714	0.0107143	-0.0185714	0.00642857	0.0213784	-0.035114	0	-0.0292857	0.0357143	0.0114286	-0.01	0.0107143	-0.0264286	0.0242857	0.00357143	0.025967	0.0135714	0.0271429	-0.00428571	-0.015	-0.00785714	-0.0292176	-0.0337375	-0.0107143	-0.00928571	-0.0164286	-0.0185714	0.0228571	-0.0107143	-0.0242857	0.0314286	-0.0335714	0.0214286	-0.0235714	0.00598377	0.0528758	
0.02	0.00928571	-0.015	0.0192857	-0.0157143	0.0100047	-0.00642857	-0.0062471	0.044263	0.0205168	0.00195362	0.0210423	0.00109182	0.0356239	0.0506629	-0.00630677	-0.00663764	0.0060344	0.00963174	-0.0127227	0.030918	-0.0103402	-0.0514305	-0.022073	0	0.00571429	0.0164286	0.0221429	0.0171429	-0.0383854	-0.00678853	-0.0335714	0.0328024	0.273788	0.00966725	0.555391	0.0411086	-0.0185714	0.0310487	0.0640311	0.00362184	0.0342857	0.00133147	0.00571429	-0.0429652	-0.0276564	2.30307e-05	-0.0221429	0.0201194	0.939082	0.0191024	-0.00351528	-0.0141044	-0.0257143	0.0164286	0.302103	0.015	0.0148455	-0.0711867	0.0553021	0.00340391	0.00785714	0.000714286	-0.0406961	-0.0446002	0.133202	-0.00184624	0.0271429	-0.149127	-0.0529357	0.29509	-0.0157143	0.0587507	0.0669196	-0.00928571	0.0562877	-0.110373	0.410338	0.0387571	0.0157143	0.0149461	0.00969639	0.0088986	0.0307143	-0.0142857	-0.230632	-0.0207143	0.00142857	-0.0457378	0.0221429	-0.0820259	0.350977	0.0462602	-0.000714286	-0.000714286	0.0683692	0.0897766	-0.0342857	-0.135528	0.334458	0.127995	-0.0328571	0.114004	-0.0310208	0.0925041	-0.147509	0.00509416	0.0142074	0.00557087	-0.035	-0.0495688	0.0278571	0.0112456	-0.00285714	0.112512	0.056294	-0.0447234	0.669315	0.0335714	0.21651	0.0321756	-0.322888	0.00683653	0.02	-0.00428571	0.132865	-0.235148	-0.0171429	-0.237489	0.025	0.0902835	-0.0128571	0.0400577	0.21486	-0.0215212	-0.00927472	0.0647282	-0.0278571	0.00638058	-0.0678557	-0.0252247	-0.0278571	0.0550286	0.745301	0.00542639	-0.0142857	-0.0350722	-0.291778	-0.0897581	0.0142857	0.154647	-0.0214286	0.307036	0.0749933	0.113722	-0.03	0.226179	-0.0262374	-0.0533831	-0.051589	-0.323353	0.0345263	0.0620002	0.0200012	0.0185714	0.243715	-0.0207143	-0.0489937	-0.0102183	-0.60008	-0.146693	0.313682	-0.0207143	0.0107143	-0.0221429	0.145161	0.133812	0.03	-0.124562	0.0214286	-0.434879	-0.0661867	0.283515	0.0142869	0.0247787	-0.045819	0.0242857	-0.0131456	-0.00651082	0.0602941	0.210819	-0.0486312	0.0351407	-0.0591868	-0.0198635	-0.433433	-0.00644518	-0.0699357	-0.0775643	-0.0185714	0.169908	-0.0212342	-0.0669009	-0.0586436	0.119629	0.0257143	-0.0368288	-0.118256	0.26368	-0.0634919	-0.373609	0.011901	0.00444464	-0.0257143	-0.0642227	0.0221429	0.0904796	-0.0328571	0.0130741	-0.0192857	-0.0502035	0.0743708	0.0207143	-0.0861867	0.0321911	0.246741	-0.0279293	-0.0161413	-0.129992	-0.00857143	0.0739905	-0.462418	-0.014364	0.0228571	0.320003	0.0503867	-0.0879448	-0.0477122	0.125771	0.035	-0.0210166	-0.00357143	0.273993	0.0704061	-0.0278571	0.00642857	-0.0532985	-0.183886	-0.0257143	-0.0793579	0.455905	0.0224573	0.0447316	-0.0770447	0.0362597	0.179697	0.584705	-0.0201308	0.0171429	0.0228571	0.540589	-0.00642857	0.00775437	-0.014517	0.0961002	-0.0420834	-0.447148	0.03	0.0110689	-0.0116306	0.0449289	-0.0361141	-0.356926	-0.227468	-0.01	0.32378	0.24498	-0.00142857	0.015	0.00357143	0.0473781	-0.0114628	0.0293751	0.0314286	-0.000714286	-0.554745	0.260325	0.0335699	0.141162	0.565269	-0.03268	0.02	0.0314286	-0.0235714	0.0751213	-0.0287291	0.0321429	0.113482	0.00571429	0.620209	0.21437	0.000714286	-0.0221151	0.00714286	-0.374516	0.0192857	0.165235	-0.0164286	-0.0195913	0.0171429	-0.0121429	-0.0636436	0.115171	-0.0178571	-0.0171429	0.256335	-0.0702559	0.00285714	0.015858	-0.0686436	0.0222714	-0.0384265	0.504026	0.166656	-0.0299192	0.19855	-0.0288763	-0.00928571	-0.0135714	0.0178571	0.525627	0.00642857	-0.0178571	0.00928571	0.0127715	-0.0285714	-0.0246612	0.0171429	0.108746	-0.0266397	0.468432	0.0110251	0.746374	0.0321429	-0.00428571	0.446503	0.00800208	0.0271429	-0.0314884	0.025	0.187843	0.0359968	0.311919	-0.0630585	0.0257143	0.00142857	0.00571429	0.265304	0.0271429	-0.00714286	0.0871065	0.237568	0.035	0.00214286	0.0212458	-0.0427122	0.00857143	0.00857143	0.337307	-0.000714286	0.0181643	-0.00428571	-0.0242857	0.0164286	0.21913	0.013052	-0.0384765	0.0214286	0.0833815	0.0185714	-0.0394429	0.00928571	0.00857143	-0.021057	-0.0604783	-0.00214286	-0.0157143	0.0285714	-0.000714286	0.0121429	0.185521	0.121884	-0.0164617	-0.0128571	0.0165906	0.000714286	0.125376	0.0314286	0.01	0.0464244	-0.0548401	0.0292857	0.0292857	-0.0498551	-0.0635982	0.100016	0.0135714	0.00928571	-0.190532	-0.0799687	0.0292857	-0.0171429	0.0221429	0.00142857	-0.235311	-0.0264286	-0.0712811	0.0228571	0.21152	0.035	0.0136899	0.0150717	-0.0198284	0.0178571	-0.0228571	-0.167214	-0.00199792	-0.0328187	-0.0859404	0.0307143	-0.0242857	0.0321429	0.0161659	-0.0314286	-0.090683	0	-0.0305694	0.101286	-0.0477122	0.035	0.377768	-0.176682	-0.108129	0.0171429	-0.0314286	-0.0540839	-0.0196759	-0.0328571	-0.0118575	0.00871636	-0.146026	0.00436828	0.02	-0.0349687	0.0242857	-0.00142857	-0.113306	0.00785714	0.0128571	0.101478	0.179883	-0.0107143	0.232038	0.0264286	0.03	-0.00428571	-0.00928571	-0.0157143	0.0291554	-0.0562836	-0.0171429	0.00651114	0.00357143	0.00214286	-0.0107143	-0.0473515	0.0613544	0.0157143	-0.0242857	0.0107723	0.0547949	-0.0309363	0.0206293	0.0598789	-0.375515	0.00237192	0.0697418	0.0321429	-0.005	-0.0278571	-0.0277122	-0.0599687	-0.00357143	0.0221429	0.00380485	-0.0264044	0.0185714	0.0171429	-0.025	-0.005	-0.0531467	0.03	-0.0166614	-0.0157143	0.034408	0.0285714	-0.16914	-0.0185714	0.00785714	-0.0279986	0.0114286	-0.0369979	-0.0164286	-0.0386086	-0.0421116	-0.00391307	-0.0227122	0.00928571	0.0118414	-0.0269979	-0.0241495	0.0128571	-0.00642857	0.0135714	-0.0592544	-0.114223	-0.10734	-0.0192857	-0.0702731	-0.340658	-0.0228571	-0.0910543	0.0128877	0.0164286	-0.0637414	0.00428571	-0.0257143	-0.0642544	-0.000569351	-0.0207998	-0.0738361	0.0328143	0.00214286	0.0164286	0.00785714	-0.0185714	-0.0788409	-0.03	-0.0711544	0.0221429	-0.141802	0.00857143	-0.128194	-0.10198	-0.0142857	-0.00214286	-0.00911329	-0.0502398	-0.0207143	-0.0272284	0.0220289	0.0285714	-0.00714286	-0.00669214	-0.0257143	-0.00571429	-0.0207143	-0.0441014	0.0228571	-0.0282843	-0.0323111	0.0214286	-0.0575886	-0.0525973	0.00214286	-0.163506	-0.105708	0.00571429	-0.0449687	0.0142857	-0.0507848	0.00263652	-0.0128571	-0.0538551	-0.0285714	0.00785714	-0.0107143	-0.0157143	0.055576	0.00357143	-0.0611973	0.000714286	-0.00357143	0.0235714	0.0212081	0.00571429	-0.0185714	-0.00463517	-0.0382583	-0.0528259	-0.0866515	-0.00642857	-0.00928571	-0.00785714	-0.0242544	-0.00642857	0.0167151	-0.0728259	0.0342857	0.0114286	0.000714286	-0.00785714	-0.0114286	0.0228571	-0.0616836	0.0321429	0.0457357	0.00785714	-0.02	-0.0638669	-0.0125388	0.00652167	0.0314286	-0.0278571	0.0242299	-0.0571432	-0.0785402	-0.02	-0.0342857	-0.0313428	-0.0142857	0.0314286	-0.000714286	0.0114286	-0.0128571	0.0335714	-0.0127991	-0.0142857	0.0196876	-0.0307143	-0.00214286	-0.113359	-0.00357143	-0.0128571	0.0133366	-0.0323121	-0.0171429	0.00285714	-0.0154205	0.035	-0.0135661	-0.0118065	-0.0606166	0.0285714	-0.0271429	-0.0264286	0.000714286	-0.0144193	0.0252572	-0.0328571	-0.00714286	-0.0242857	0.0335714	-0.0305523	-0.0537409	-0.0556512	-0.0792692	-0.005	-0.0431329	-0.0328389	-0.000714286	-0.0292857	0.0307143	0.0314286	0.03	0.00219083	-0.0250611	-0.0228571	-0.0314286	0.035	0.0128571	-0.0342857	-0.069225	-0.0813226	0.0292857	-0.0147417	-0.00214286	0.0307143	-0.0536509	0.025	0.0335714	-0.0114286	0.00142857	-0.00357143	0.0171429	-0.0324947	-0.0178571	-0.0285714	0.02	0.0264286	0.0178571	-0.0164286	-0.00214286	0.0121429	0.0157143	0.0285714	-0.0221429	-0.00349478	-0.00965268	-0.0185714	-0.00928571	-0.0164286	0.02	0.0242857	0.00785714	0.0128571	0.0321429	0.00642857	-0.0264286	-0.00928571	-0.005	-0.0292857	0.0142857	-0.00285714	0.00214286	-0.005	0.0226536	-0.0142857	-0.0328571	0.00642857	0.0128571	0.02	-0.00928571	0.0114286	0.0328571	-0.03	-0.0131205	-0.0257143	-0.00214286	-0.0257143	0.00536557	0.0235714	-0.00714286	0.0121429	-0.0221429	0.00041077	0.0257143	-0.0264286	-0.0285714	0	-0.035	-0.0321429	0.00571429	-0.0364008	-0.0455975	0.00928571	0.0107143	-0.0135714	0.03	-0.0214286	-0.00571429	-0.0278571	0	0.02	-0.0129804	-0.00357143	-0.00857143	-0.0142857	-0.0278571	-0.01	-0.0491726	-0.0102903	0.0142857	-0.0114286	-0.0228571	0.0271429	0.025	0.00357143	0.00142857	-0.00214286	-0.0321429	0.00142857	0.000714286	-0.0403706	0.2328	
0.00142857	0.0185714	-0.00857143	-0.0107143	-0.0221429	0.00499782	0.0185714	-0.0150622	-0.0348426	-0.0439433	-0.0524017	-0.0451251	-0.0260465	0.00520792	-0.0333318	0.0139552	-0.0177906	-0.028583	0.0339489	-0.025935	0.0203743	0.0262386	0.0356193	0.02642	0.0285714	0.0328571	0.0292857	-0.00642857	-0.00285714	-0.103638	-0.051571	0.0342857	0.0191496	-0.204012	-0.0231182	-0.0550509	-0.00670863	0.00642857	-0.00207603	-0.173939	-0.00745776	-0.00785714	-0.0166246	-0.0321429	-0.0107249	-0.0750902	-0.00966347	-0.0335714	0.0274788	0.0558259	-0.0281394	-0.0482299	0.0132895	0.0114286	0.0107143	-0.0986463	0.00785714	-0.100259	-0.105101	-0.0149788	-0.0268021	-0.0242857	0.00428571	-0.000576016	-0.0444338	-0.137627	0.00641243	0.0192857	-0.0219591	0.0589521	0.0819476	-0.0278571	-0.0141804	0.00059603	0.0121429	-0.00645121	-0.0358329	-0.216548	-0.0175997	-0.00428571	-0.0378566	0.00781719	-0.0435734	-0.0342857	0.0207143	0.0140594	-0.0278571	-0.00714286	0.0672275	-0.0264286	-0.0534257	-0.169782	0.0684368	0.00214286	-0.035	-0.10861	0.0248929	-0.035	0.114679	-0.19319	-0.0371491	0.015	-0.0729897	-0.0293632	-0.0474385	0.0236266	-0.0267033	-0.0116903	-0.0482529	0.0335714	0.103255	0.00142857	-0.0281024	-0.035	-0.0793402	0.113441	-0.0202999	-0.0461839	0.0214286	-0.0933042	0.047051	0.129416	0.0243582	0.00642857	-0.015	-0.106177	0.156777	-0.0192857	0.263603	-0.015	-0.176261	-0.02	0.176444	0.00577187	0.01588	-0.0548717	-0.0884532	0.0207143	0.166788	-0.014439	0.0175309	0.000714286	-0.0253307	0.218539	0.129503	-0.0307143	-0.0278695	0.27674	-0.121529	0.00571429	-0.0901526	-0.0314286	0.0299214	-0.0570114	0.174158	-0.025	-0.184986	-0.0537831	-0.0641209	-0.0491719	0.178512	0.149841	-0.0151197	-0.00664669	0.00928571	0.208707	0.025	-0.0248902	0.0323292	0.261926	-0.109711	-0.0337045	0.00571429	-0.00285714	0.00928571	-0.0532288	0.10912	0.0307143	-0.135561	-0.0135714	0.140517	-0.0958151	-0.162966	-0.017361	0.101872	-0.136546	-0.000714286	0.180618	-0.0134694	-0.0722381	0.0433735	0.00181705	0.21165	-0.0840044	-0.0317734	0.350313	-0.0255292	-0.132143	0.118111	-0.0164286	0.0322141	-0.0990315	-0.103672	-0.0657267	0.178092	0.0121429	-0.0380975	0.156778	-0.0920554	0.0468465	0.163044	-0.0170465	0.00665982	-0.0257143	-0.0720106	-0.0321429	-0.0958241	0.0321429	-0.0338038	0.03	0.0297788	-0.13314	-0.0235714	-0.0908151	-0.0351658	0.320568	-0.0307267	-0.0904029	0.039773	-0.0214286	0.0613911	0.0283973	-0.0616903	0.025	-0.167846	-0.0635192	-0.0880478	-0.0787149	0.0766847	0.00785714	0.182943	-0.02	-0.0813754	-0.0739121	-0.0107143	0.0114286	-0.0585468	-0.0455476	0.00714286	-0.0814409	0.141029	-0.00802732	-0.04501	-0.0362759	0.0219	0.19847	-0.131776	-0.0492608	0.0342857	-0.0328571	-0.182061	0.0207143	-0.0700259	-0.0765206	0.186425	-0.109928	0.166347	0.0114286	-0.026882	-0.0361317	-0.0995726	-0.00802732	0.129925	-0.0776723	-0.00642857	0.0465176	-0.0957577	0.0321429	0.0214286	0.0171429	0.00939179	-0.0417398	0.0120263	0.0128571	0.0278571	0.0481636	-0.236116	-0.00980355	0.231707	-0.330455	-0.0581835	-0.0171429	-0.00642857	-0.0228571	0.00113981	-0.0731202	-0.0142857	-0.0637101	-0.0207143	0.162725	0.0610798	0.0342857	-0.0763984	-0.0121429	-0.108594	-0.0342857	-0.24466	0.00785714	0.035983	-0.00642857	-0.0114286	-0.0514409	-0.236396	-0.035	-0.0264286	0.0581557	-0.0656718	-0.0171429	-0.0165652	-0.0828695	-0.00158039	-0.0644292	0.209877	-0.198954	-0.0866794	0.160926	-0.0503202	0.0292857	-0.00357143	-0.0328571	0.114834	0.0264286	-0.0342857	0.0142857	-0.0264727	0.0357143	0.00199971	0.0207143	-0.286399	0.00878258	-0.0338813	-0.00456001	-0.230414	0.0278571	-0.00214286	0.123127	-0.0637149	0.0221429	0.0203885	0.0307143	0.148386	-0.122339	0.0460901	-0.0658879	-0.0235714	0	0.0257143	0.173143	0.0307143	0.0228571	0.275013	-0.14354	0.0128571	0.005	-0.0456019	-0.0694292	0.00428571	0.03	0.0752781	-0.0242857	0.00533587	-0.00785714	0.00857143	0.0128571	0.109239	0.0883001	-0.0401501	-0.0185714	-0.257465	0.0307143	0.0554173	0.0164286	0.0221429	-6.25786e-05	0.206253	0.0335714	0.00642857	-0.0207143	0.0328571	-0.0335714	-0.461018	0.15461	-0.0479022	-0.0207143	-0.0123045	0.0192857	0.1411	0.00928571	0.0128571	0.177208	0.0417746	0.0192857	0.00928571	-0.0315721	-0.0293403	-0.162516	-0.0342857	0.0278571	0.233039	-0.0600595	0.0228571	0.025	0.0114286	0.00857143	0.214527	-0.035	-0.235806	-0.0335714	0.172617	-0.0321429	-0.0526815	-0.0496164	-0.0393662	0.00714286	-0.00285714	0.0212251	-0.0337149	-0.0649713	-0.0660102	0.00357143	-0.0157143	-0.0342857	-0.156739	-0.00571429	-0.0957737	0.0207143	-0.0372864	0.21247	-0.0480007	0.000714286	0.11721	0.336615	-0.231867	0.00428571	0.00857143	-0.0411215	-0.0610376	0.015	0.00592873	-0.0387149	0.0746587	-0.0124201	-0.0307143	-0.105774	0.0335714	-0.0328571	0.0831164	-0.01	0.00642857	-0.130003	0.223212	0.0257143	0.132902	-0.0171429	-0.0164286	0.00714286	-0.0328571	0.00785714	-0.248891	-0.0801435	-0.0278571	-0.00884871	0.015	0.0335714	0.0342857	-0.0278113	-0.0293318	-0.0314286	0.00285714	-0.0585763	0.0742635	-0.0462708	-0.0267236	0.141822	0.0963788	-0.0284744	-0.0921904	-0.000714286	-0.0142857	0.00571429	-0.0508578	-0.0757737	0.0321429	0.0207143	-0.203414	-0.0297634	0.0285714	0.00214286	-0.0114286	0.0314286	-0.0513827	0.0335714	-0.0327528	0.0342857	-0.0319779	-0.00857143	0.0791406	0.0157143	0.0321429	-0.059532	0.0214286	-0.0730007	-0.025	-0.104828	-0.106488	-0.0597953	-0.0794292	0.0221429	-0.0371007	-0.0930007	-0.144594	0.0271429	0.0192857	0.025	-0.114345	-0.0659258	-0.133402	-0.03	0.0117211	0.0267447	0.00214286	-0.129234	0.0134686	-0.00642857	-0.0827329	-0.01	0.02	-0.0693452	-0.0915721	0.00992848	-0.0784489	-0.010022	0.005	0.0221429	0.0128571	-0.00928571	-0.161931	0.0292857	-0.0941462	0.0221429	0.00156542	0.00642857	-0.0552367	-0.173151	0.0321429	0.0278571	-0.0350586	-0.174138	0.0328571	0.0127856	0.0323056	-0.035	0.0207143	0.00376288	0.0307143	-0.0135714	-0.0185714	-0.0483428	0.01	-0.0241525	0.0302332	-0.0142857	-0.105633	-0.126126	-0.0278571	-0.0284938	-0.00614171	0.0121429	-0.106488	0.00571429	-0.0705162	-0.0331111	-0.0242857	-0.0933716	0.0342857	0.00857143	-0.0314286	0.0335714	0.00308562	0.00285714	-0.073613	0.00928571	-0.0314286	-0.0335714	-0.0377744	0.0342857	0.0257143	-0.0603464	-0.0520904	-0.0922023	-0.0432827	0.00928571	0.02	0.0207143	-0.081488	-0.00714286	-0.0525004	-0.0893452	0.00571429	-0.00285714	0.00857143	0.00428571	-0.0207143	0.02	-0.0894565	-0.0228571	0.0141635	0.0235714	-0.025	-0.100677	-0.00567519	-0.019125	-0.0228571	0.0307143	0.0221925	-0.0248929	-0.0972023	0.02	0.0335714	0.00388834	-0.0171429	-0.0335714	0.0171429	0.00428571	-0.0121429	-0.00928571	0.00285222	0	-0.00684399	-0.0321429	0.0321429	-0.154314	0.00714286	-0.025	-0.0166673	-0.0841396	0.0242857	-0.02	0.0138469	0.0342857	-0.0242777	-0.00525975	-0.0202148	0.0342857	-0.0342857	0.0221429	0.0135714	0.0300658	0.00499106	0.0107143	0.00285714	-0.01	-0.0214286	-0.0381874	-0.0365278	-0.102011	-0.117339	-0.00928571	-0.0459159	-0.0366223	-0.00642857	-0.00214286	0.00857143	0.00214286	-0.0264286	-0.00359525	0.0279766	0.0335714	-0.0221429	-0.0278571	-0.00285714	-0.00214286	-0.111574	-0.105313	0.0335714	-0.0403919	0.0114286	0.0107143	-0.0330777	-0.0192857	-0.0142857	-0.0214286	-0.0285714	-0.000714286	0.0342857	-0.0284815	0.00142857	0.0107143	0.0278571	-0.0321429	0.0164286	-0.015	-0.0335714	0.0257143	-0.0121429	-0.0242857	-0.0135714	-0.0113849	-0.0049474	-0.000714286	0.0235714	0.00785714	-0.00214286	-0.0342857	-0.00285714	-0.005	0.0171429	-0.0278571	-0.03	-0.00714286	0.0257143	-0.00928571	-0.0278571	0.0321429	-0.00928571	0.00785714	-0.00233206	-0.00714286	-0.0178571	0.0264286	-0.00428571	-0.000714286	0.0121429	0.035	-0.0107143	0.0357143	-0.0412293	-0.0235714	0.0157143	-0.015	-0.0108554	-0.0307143	0.0278571	-0.0278571	-0.03	-0.0116603	-0.0314286	-0.0114286	-0.00357143	-0.0264286	0.0164286	0.0228571	-0.035	-0.0571127	-0.0230968	0.0278571	0.0328571	0.0178571	-0.0157143	0.0157143	0.00785714	-0.0185714	-0.0207143	-0.0164286	-0.0121843	-0.0307143	-0.0171429	0.0264286	-0.0192857	0	-0.0289152	-0.050618	0.00428571	-0.0307143	-0.035	-0.025	0.0307143	-0.0314286	-0.00142857	0.0285714	0.0142857	0.0164286	0.015	-0.0336229	0.272533	
-0.00214286	-0.0285714	0.00357143	-0.0207143	0.0285714	-0.0171486	-0.0121429	0.0103255	0.00947914	0.0280337	0.0067589	0.0108337	0.027359	0.0201207	-0.0231271	-0.0228007	0.0223945	-0.000624348	-0.0181919	0.0331517	-0.0193595	-0.00451679	0.0312638	-0.0171522	-0.0335714	-0.0114286	-0.00142857	-0.0164286	-0.0328571	0.0716235	-0.00292458	-0.0335714	-0.02495	-0.0396843	-0.0547135	0.184304	-0.104512	-0.03	-0.0761294	-0.102002	-0.0227104	0.0164286	-0.0325011	-0.0335714	0.0254812	-0.0520396	0.0120588	0.0307143	-0.0101135	0.601017	0.0129997	-0.0379005	-0.0149082	-0.01	0.0135714	-0.168993	0.0135714	-0.220525	-0.063345	-0.0606232	-0.219877	0.000714286	-0.0164286	-0.0853215	-0.201384	-0.48526	-0.0814411	0.00642857	-0.194767	-0.0880025	-0.489318	-0.0171429	-0.151427	-0.123267	-0.015	-0.107794	-0.083199	0.0601369	-0.0113113	-0.02	-0.0193162	0.0198032	-0.0107451	-0.0121429	-0.025	-0.181103	-0.0192857	-0.0107143	-0.114005	-0.00785714	0.0446024	0.0343323	-0.0580911	0.025	-0.0335714	-0.0987779	-0.123011	-0.00714286	-0.331669	-0.640277	-0.220276	-0.0228571	-0.0269552	-0.0537107	-0.0652322	-0.137717	-0.0528912	-0.0684918	-0.00370425	0.0285714	-0.109279	-0.025	0.0136958	0.00285714	-0.131271	-0.0239025	0.000422448	-1.29072	0.0135714	0.00347472	-0.169217	-1.12062	-0.022424	0.00142857	0.01	-0.169804	0.116589	-0.000714286	-0.439836	-0.0164286	-0.043245	0.0192857	0.346555	-0.0110641	0.0213405	0.015638	-0.0971539	-0.00785714	0.188668	-0.0141783	-0.0142076	0.0157143	-0.118841	-1.35846	-0.105659	-0.00357143	-0.0650071	0.236047	-0.063345	0.000714286	-0.269298	0.0185714	-0.116117	-0.347185	0.316585	0.0314286	-0.13702	-0.0611934	-0.00721105	-0.011945	0.0766776	0.128452	0.01171	0.021745	-0.0342857	-0.765141	0.000714286	-0.0934262	-0.0181712	0.76891	-0.315425	0.117099	0.005	-0.00428571	-0.00285714	-0.254128	0.182576	-0.0157143	0.0545524	0.00142857	0.102019	-0.106202	-0.113054	-0.0318264	0.012549	-0.0351326	-0.0321429	-0.0904969	-0.0859623	0.040231	0.111478	-0.00789612	-0.224801	-0.0709113	0.0222963	0.257964	0.0293502	-0.0648147	0.343697	-0.0292857	-0.1781	-0.0564376	-0.102631	-0.0192928	0.369543	-0.03	-0.0533649	0.0919374	-0.0712785	0.112655	0.0752753	-0.112762	0.00886073	-0.0221429	-0.0878884	0.0164286	0.0951335	0.025	-0.0768408	-0.00142857	0.198916	0.677063	0.00785714	-0.0926307	0.0329831	-0.217212	-0.0400071	-0.0995255	0.331294	-0.02	0.274518	-0.272827	-0.0970633	-0.0164286	0.0701465	-0.0670244	0.0014847	0.0254891	0.420528	0.0157143	-0.12325	-0.035	0.203581	0.05003	0.015	-0.0207143	-0.00897887	0.294222	-0.0321429	-0.0264357	-0.139124	0.0267472	0.0495883	0.127715	-0.0461275	0.164068	0.251939	-0.0715707	-0.0142857	-0.0114286	-0.155922	-0.00214286	0.0228074	0.0249855	-0.0430533	-0.0345519	0.398563	-0.0285714	-0.04605	-0.125563	0.0604504	0.0146043	0.23222	0.330422	0.02	-0.303158	0.110833	-0.0328571	-0.005	0.0342857	0.151531	0.00142774	-0.00701402	0.03	0.0321429	0.402814	-0.194266	-0.0215651	-0.367797	0.0121113	-0.0471889	0.0314286	-0.00714286	-0.01	0.461726	-0.0616893	-0.0214286	0.234348	0.0192857	-0.0749316	-0.391026	-0.0285714	-0.0449082	0.025	0.308142	0.0264286	0.122742	-0.0164286	0.0795907	-0.0192857	0.0185714	-0.0314357	-0.110964	-0.0242857	0.0135714	0.194811	-0.00676665	-0.0121429	0.000164323	-0.04215	0.183575	0.0576319	-0.249037	0.178148	0.102997	-0.440748	-0.0516826	0.0214286	-0.0185714	0.00857143	0.0731768	0.0235714	0.015	0.0157143	0.0150235	-0.0321429	-0.0128967	-0.00285714	-0.249364	0.0367604	0.0173126	-0.0332583	-0.262506	0.0207143	0.0164286	-0.163465	0.0676319	-0.00285714	0.00638959	0.00714286	-0.170784	0.0579924	-0.0476776	-0.0287211	0.0192857	-0.00285714	0.00142857	-0.238703	-0.0178571	0.0178571	-0.374358	-0.443408	0.005	0.0314286	0.0674273	0.0583462	0	0.015	0.00833511	0.0214286	-0.0204066	0.03	-0.00928571	0	-0.103296	-0.0968392	-0.00271545	-0.0292857	0.00627864	-0.0135714	-0.525778	0.0107143	0.0285714	0.00146722	-0.0698964	0.0121429	0.0342857	0.0235714	-0.0157143	0.0178571	-0.217822	-0.0511462	0.037488	-0.0228571	0.0441338	0.0207143	-0.267434	-0.00285714	-0.035	-0.269315	-0.441296	-0.02	-0.03	0.0147748	-0.0275864	0.0809227	0.0178571	-0.0207143	-0.265888	0.00921887	-0.0335714	0.00571429	0.0335714	0.0307143	-0.320748	-0.0157143	-0.348663	0.00714286	0.0346151	-0.00857143	0.0548541	0.0366048	0.0269885	-0.0335714	-0.00642857	-0.164136	0.0626319	0.00557038	-0.0251924	0.0221429	-0.035	-0.0307143	0.0661303	-0.03	0.00421887	0.0192857	0.0312034	-0.122277	0.0397748	0.0178571	0.0993234	-0.0542895	-0.155827	0.0171429	0.0328571	0.0231762	-0.0138753	-0.0314286	0.00129973	0.0154891	-0.247535	-0.00243943	-0.00928571	0.0113617	-0.00357143	0.0192857	-0.350914	-0.0178571	0.00785714	0.0179908	-0.102582	0.00785714	0.110236	-0.0271429	0.0135714	-0.0135714	-0.00714286	0.005	-0.200055	0.0683462	-0.0135714	0.006132	0.03	-0.025	-0.0157143	-0.304166	0.0353497	0.0221429	-0.00428571	-0.0274805	-0.275595	0.046519	0.00395772	-0.0284058	0.132353	0.0074719	-0.0305622	-0.00785714	0.0221429	0.0157143	0.0326319	0.0163617	0.025	0.0342857	-0.267198	-0.000935857	-0.0157143	0.03	0.00785714	-0.0321429	-0.244907	0.03	0.0119918	0.0178571	0.0262349	0.0285714	-0.0694237	-0.0235714	0.0142857	-0.00222935	0.0257143	0.0162034	0.0314286	-0.0584538	-0.0114954	-0.0312159	0.0762034	0.00857143	-0.0200543	0.0276319	-0.194651	-0.005	-0.0207143	0.0135714	0.0177903	-0.17618	0.035906	-0.0221429	-0.205566	-0.0307866	0.0178571	-0.0693406	0.0225349	-0.00928571	-0.025656	-0.0114286	-0.0164286	-0.022924	0.00620337	0.032085	-0.0550682	0.0278689	0.01	0.0271429	0.0235714	-0.0257143	-0.142139	-0.0107143	0.0190447	0.00428571	-0.157698	0.00642857	-0.103065	-0.0500419	-0.0157143	-0.00642857	0.00479756	0.0223463	0.00714286	0.0199421	0.0231492	0.0257143	0.0207143	-0.00912087	-0.0192857	-0.035	-0.00285714	-0.0257247	0.0264286	-0.00770233	0.0331772	0.0221429	-0.0317178	-0.00573287	0.0128571	-0.109681	-0.0282571	-0.0214286	-0.042924	0.0342857	-0.0557806	-0.0288168	-0.0292857	-0.0272678	-0.0257143	0.0271429	0.0114286	0.0192857	-0.00276804	0.0192857	-0.042731	-0.0185714	-0.0257143	0.025	-0.0089692	-0.01	-0.00928571	-0.0075862	-0.0263453	0.00636172	-0.00779661	-0.0128571	0.00428571	-0.0228571	-0.017924	-0.0185714	-0.0124322	-0.000781132	0.0321429	0.0328571	0.00928571	0.0142857	-0.0214286	-0.0192857	-0.0116983	-0.0121429	-0.0239847	0.01	0.00785714	-0.0909111	-0.0302681	0.0109462	-0.0185714	0.00214286	-0.0342596	-0.00813346	-0.0186383	-0.00642857	-0.00714286	0.0181371	0.0128571	-0.0214286	-0.0307143	-0.0192857	-0.00857143	-0.000714286	0.0303767	-0.0164286	0.0111358	-0.00357143	-0.0192857	-0.0770535	-0.0257143	0.0314286	-0.029972	-0.0371326	-0.0171429	-0.0271429	0.0177621	-0.00785714	-0.0310573	-0.0375059	-0.0276563	-0.0107143	-0.0221429	-0.0264286	0.0314286	-0.0293208	-0.0322394	0.025	0.0257143	0.0157143	0.005	-0.0269513	-0.0109261	-0.0414598	-0.0691417	-0.00428571	-0.0359247	-0.035687	-0.00714286	-0.00285714	0.0278571	0.00285714	-0.00785714	0.0292989	0.011025	-0.0235714	0.00357143	0.03	0.00357143	0.0114286	-0.0956641	-0.0561557	-0.035	-0.00328638	0.0185714	-0.00285714	-0.0235894	0.0221429	-0.0142857	-0.0192857	0.00142857	0.0257143	0.0121429	0.0132096	-0.0135714	0.00928571	0.0314286	0.00357143	0.0157143	-0.0121429	0.0357143	-0.0271429	-0.00857143	-0.00785714	-0.0335714	-0.0263141	-0.0467752	-0.0292857	-0.00285714	-0.0264286	0.0171429	-0.0342857	0.0185714	-0.0171429	-0.015	-0.0335714	0.015	0.0107143	0.0235714	-0.035	0.0264286	0.0264286	-0.00857143	-0.0321429	-0.0102033	0.0135714	0.0121429	0.0221429	-0.0192857	0.0285714	0.0114286	0.0171429	-0.0342857	0.00357143	-0.00667085	0.00428571	-0.0292857	0.0142857	-0.0131766	-0.0314286	0.0228571	0.0278571	0.00714286	-0.0303022	-0.025	-0.00714286	0.01	0.025	-0.0328571	-0.00285714	-0.00928571	-0.0213368	-0.0212542	0.0178571	-0.00214286	0.0157143	0.0321429	-0.0257143	0.00142857	0.0135714	0.00357143	0.0135714	-8.34093e-05	0.00428571	-0.0185714	0.00571429	0.00928571	0.0242857	-0.0234025	-0.0259465	-0.00571429	-0.0264286	0.0121429	-0.035	-0.0207143	0.0221429	-0.00714286	0.0242857	-0.0235714	0.0321429	0.0228571	-0.0460664	0.115212	
-0.0235714	0.0214286	-0.0128571	0.0271429	-0.0171429	0.0336005	0.03	-0.000489607	0.0718794	-0.00433178	-0.0118847	0.0113241	0.0310101	0.0276868	0.00317142	0.02105	0.0305716	0.0146587	-0.00404035	0.033091	0.0151548	0.00958187	0.00691802	-0.0350433	0.000714286	0.0321429	-0.0235714	-0.00357143	-0.0157143	-0.0889414	0.00123322	-0.00428571	0.00934143	0.181812	0.0997023	0.534207	0.119062	-0.0192857	0.0850955	0.0310106	0.0632963	-0.0257143	0.0359037	-0.0235714	-0.0219352	0.0593648	0.0355584	-0.0107143	0.0222184	0.419638	0.0204053	-0.0166763	0.0024916	-0.0128571	-0.0242857	-0.0241894	0.02	0.344257	-0.113023	-0.0483488	0.400297	-0.0128571	-0.00142857	0.416719	0.31272	-0.517974	0.310413	0.00714286	0.167518	0.301977	0.0645435	-0.00785714	0.18232	-0.0277685	0.00357143	0.0913886	0.251332	-1.31593	0.0162535	0.0292857	0.139238	0.000779462	-0.0550928	-0.00857143	-0.0114286	0.63636	0.03	-0.0278571	0.397628	-0.00571429	0.181843	-0.445874	0.117691	0.0114286	-0.0135714	0.168408	0.249123	0.0171429	0.484321	-1.61317	0.219202	-0.0307143	0.485322	-0.030248	0.0294888	0.212382	-0.0279005	-0.0531464	-0.00874529	0.0321429	0.398064	0.0142857	-0.00356157	-0.00357143	0.147293	-0.00771067	-0.055734	-0.0821543	-0.00714286	0.432026	0.340786	-2.48158	-0.00366744	0.0135714	0.015	0.223356	0.34959	-0.0221429	0.156786	-0.0178571	0.0306024	0.0307143	0.0092534	0.520005	-0.0279806	0.0264875	0.377855	-0.0107143	-0.00430135	-0.038123	-0.0150461	-0.0228571	-0.0641944	-0.985015	0.341373	0.0178571	-0.0791959	0.156256	-0.128738	0.0307143	0.161017	0.0157143	0.585038	-0.243222	0.192766	0.0164286	-0.0144611	-0.031173	-0.0822296	0.00244699	0.320704	0.13481	-0.0186845	-0.0172183	-0.0157143	-0.570664	0.0171429	-0.107879	-0.00848916	-1.38737	-0.635087	0.109169	0.0178571	0.00142857	0.03	0.0867976	-0.0422042	-0.00285714	-0.109343	0.00357143	0.418784	-0.157309	-0.140058	0.0206388	0.335014	-0.156215	0.01	-0.555777	-0.0428846	-0.0180602	0.29894	-0.0562699	0.425331	-0.103202	0.0135949	-1.94712	-0.0234794	-0.162647	0.24449	-0.0307143	0.13704	-0.160671	-0.130881	-0.0784816	-0.515113	-0.0235714	-0.0794971	0.440867	-0.214289	0.0828148	0.839096	-0.107743	-0.0570043	-0.0128571	-0.11354	0.00142857	-0.0504028	-0.0285714	-0.090963	0.035	0.182971	-0.768611	-0.0307143	-0.119452	0.0247336	0.10108	-0.052053	-0.125119	0.162958	0.0235714	0.00283528	0.759313	-0.0810035	0.0207143	-0.376996	-0.0549465	-0.090246	-0.0568065	-0.588469	-0.0292857	0.527648	0.0314286	0.0766582	-0.0770965	0.0192857	-0.0314286	-0.0206674	0.102205	0.0121429	-0.0663387	0.179737	-0.0166177	0.0280687	0.516148	0.00560142	-0.0518557	-0.557008	-0.103274	0.0128571	0.0128571	-0.414063	0.0164286	-0.0316445	-0.0845928	0.473466	-0.0897425	0.368348	0.035	0.00269536	-0.0890668	-0.051768	0.00909659	0.369056	0.492042	0.035	0.095811	0.431694	-0.0135714	-0.0157143	-0.005	-0.0267511	-0.0764473	-0.0168844	-0.00642857	0.025	0.517732	-0.478729	0.0123236	0.339241	0.587282	-0.0966815	0.0192857	0.00142857	0.0114286	0.257211	-0.0630516	-0.0314286	-0.0775265	0.00214286	-0.0466774	-0.268461	0.00714286	-0.06647	-0.00785714	0.468781	0.0128571	0.379054	0.005	0.0117824	-0.0221429	0.000714286	-0.0813387	-0.420989	0.02	0.03	-0.0742997	-0.0993004	-0.0328571	-0.00451705	-0.112767	0.0481089	-0.0460922	-0.0162868	0.255773	-0.00260361	-0.412967	-0.0363583	0.0314286	-0.0335714	0.0307143	-0.206635	0.01	0.00142857	0.0128571	-0.0386322	-0.0121429	-0.000626916	-0.00357143	-0.246725	-0.0119419	0.604776	-0.0100617	0.65102	0.0257143	0.0142857	-0.0702128	-0.0303779	0.00214286	-0.0376985	0.0164286	-0.159945	-0.0505861	0.072625	-0.0680455	-0.035	0.0235714	-0.0228571	0.0948147	-0.015	-0.0214286	0.0662092	0.749999	-0.0107143	-0.00928571	0.00868907	-0.0332351	0.0142857	-0.015	-0.185686	-0.0278571	0.0107799	-0.00214286	-0.0342857	-0.0321429	-0.376533	-0.104092	-0.0697406	0.0185714	-0.065817	-0.0214286	0.531152	0.0257143	-0.0107143	0.0265715	-0.14154	0.0264286	0.0192857	0.0357143	-0.0157143	-0.0321429	-0.274842	-0.0839322	-0.0049127	-0.0321429	-0.0509371	0.0164286	0.0108186	0.0142857	0.00214286	0.324163	-0.340554	-0.0228571	-0.0192857	-0.0725208	-0.0884476	-0.103732	0.00428571	-0.03	0.0127695	-0.114253	-0.0164286	0.0221429	0.0128571	-0.0264286	0.0950685	0	-0.209597	0.00142857	0.15338	0.0207143	-0.0176001	-0.0547415	-0.0121631	-0.00785714	0.0178571	-0.273712	-0.0518065	-0.019048	-0.0792227	-0.025	-0.00428571	0.0328571	-0.0624109	0.0121429	-0.0785388	0.00571429	-0.0796636	-0.0418053	-0.0496636	-0.0321429	-0.233478	0.690468	-0.299844	0.0257143	0.005	-0.0951925	-0.00544563	-0.03	-0.0122141	-0.0346636	0.0173456	-0.0231493	0.005	-0.0792531	-0.0264286	-0.0135714	0.302457	0.0178571	0	-0.101125	0.0831264	0.0314286	-0.0916302	-0.0178571	-0.0271429	0.0114286	0.0235714	0.0264286	-0.259641	-0.0253779	0.03	0.0118507	-0.005	-0.015	-0.0292857	0.202658	0.0093113	-0.00214286	0.00571429	-0.0286626	0.227373	0.000751599	-0.0412648	0.318722	0.0464544	-0.0672793	-0.0926222	-0.00142857	0.0121429	-0.0178571	-0.0703779	-0.131396	-0.0228571	-0.02	-0.119332	-0.024944	-0.00714286	0.0114286	0.0128571	0.0307143	0.213225	-0.0278571	-0.0836978	-0.0307143	0.0407428	0.0192857	0.25082	-0.0142857	0.0185714	-0.0415806	-0.01	-0.0539494	0.00857143	-0.0914974	-0.0985388	-0.0189379	-0.0568065	-0.0157143	0.00639659	-0.0439494	-0.0293276	-0.0192857	0.0221429	-0.02	-0.104967	0.217342	-0.145636	-0.0107143	0.150758	0.142786	0.0214286	-0.105023	-0.00657719	0.0328571	-0.0518153	-0.0178571	-0.0185714	-0.0935388	-0.0918065	0.0286328	-0.0707151	-0.00788753	-0.0278571	0.0271429	0.00571429	-0.025	-0.0830196	0.0107143	-0.122374	-0.0271429	0.0633491	-0.00357143	0.0535135	-0.219287	0.0114286	-0.015	-0.048438	-0.134952	0.01	0.00220421	-0.0051881	0.0321429	-0.0314286	-0.0132199	0.0285714	-0.03	-0.0335714	-0.0235967	0.0128571	-0.0438765	-0.0247687	-0.00285714	-0.0756575	-0.0802837	0.025	-0.009001	0.146758	-0.0285714	-0.0821103	0.025	-0.13218	-0.00904898	-0.015	-0.109029	-0.01	-0.00214286	0.0264286	0.0135714	-0.0262494	-0.0342857	-0.113376	-0.0264286	0.0328571	0.0264286	-0.0186117	-0.00928571	0.0321429	-0.0265619	-0.0186567	-0.126396	0.0735583	0.0128571	0.00642857	0.00714286	-0.104253	-0.005	-0.0511218	-0.110682	-0.0328571	0.035	0.0157143	0.0192857	-0.0242857	-0.035	-0.0902229	0.00142857	-0.00747297	-0.0214286	-0.0214286	-0.185534	-0.0297922	-0.0366791	0.0214286	0.0128571	0.0147294	0.0238598	-0.096396	-0.0114286	-0.0214286	-0.0328673	-0.00214286	0.0192857	0.0185714	-0.0321429	0.0278571	0.0164286	0.00276594	-0.0278571	0.00655778	0.00357143	0.00785714	-0.175223	-0.0135714	0.0192857	-0.0150725	-0.0723759	-0.0157143	-0.0142857	-0.0102062	0.035	0.0330176	-0.0488106	-0.030984	0.0185714	-0.0157143	0.0271429	0.0342857	0.0206461	-0.0215102	0.0135714	0.0292857	0.0128571	0.0342857	-0.0594397	-0.0909986	-0.119969	-0.101771	0.0178571	-0.0838059	-0.0113512	-0.015	0.00785714	-0.0121429	-0.0278571	0.0278571	-0.0242899	-0.0165296	-0.0242857	0.0335714	0.00785714	0.0114286	0.0307143	-0.147675	-0.120798	-0.0207143	-0.0351579	0.00214286	-0.0228571	-0.0546554	-0.0178571	-0.00785714	-0.0178571	-0.00428571	-0.01	-0.005	-0.0635538	-0.0207143	0.025	0.0314286	-0.0214286	0.0257143	0.0171429	0.0214286	-0.0221429	0.0242857	0.0128571	-0.0114286	-0.0769608	-0.0363356	-0.0135714	-0.02	-0.035	-0.0192857	-0.00571429	0.0114286	0.0321429	-0.00642857	0.0142857	0.0107143	0.0171429	0.0314286	-0.0335714	0.0342857	0.0285714	-0.00857143	0.03	-0.02961	-0.0285714	0.0185714	-0.0342857	0.0221429	0.00857143	-0.0164286	0.00785714	0.0214286	-0.0285714	-0.00516569	0.0107143	0.0142857	-0.025	-0.00482965	0.0292857	0.0121429	0.0142857	0.0242857	0.0226641	0.01	0.0185714	0.00214286	-0.0157143	0	0.0342857	0.0228571	-0.0457557	-0.0462192	-0.0221429	0.0292857	0.0321429	0.0214286	0.0114286	-0.00142857	0.00785714	0.0207143	0.0171429	-0.0709839	0.00571429	0.0235714	0.00142857	-0.0192857	-0.0321429	-0.0589489	-0.0597249	0.0321429	0.0242857	-0.00857143	-0.0135714	0.0121429	0.00285714	-0.0314286	0.015	-0.0121429	-0.0307143	0.0135714	-0.0483511	0.358435	
-0.0307143	0.025	0.0328571	-0.0342857	0.0107143	-0.0264338	-0.035	-0.0176252	0.0307711	0.0181545	0.03018	-0.0361885	-0.0293631	0.0031655	0.0325932	-0.0253835	0.00703456	-0.00673589	0.00627025	-0.00073335	-0.0091967	0.00105074	0.0126665	-0.00858774	0.035	-0.00857143	0.015	-0.0314286	0.00571429	-0.0895459	-0.0303814	0.0107143	0.0126887	-0.076102	-0.0344693	-0.0156188	0.00161721	-0.0228571	-0.0558579	-0.0957843	-0.0270773	0.005	-0.0297133	0.00214286	-0.000413536	0.00119265	-0.0340675	-0.02	-0.0260942	-0.281683	-0.0255721	-0.0779231	-0.0214738	0.0278571	0.00214286	-0.130261	0.0207143	-0.142613	-0.136257	0.0265237	-0.0876997	0.0264286	0.0357143	-0.109685	0.212265	0.162158	-0.059717	0.0107143	0.154729	0.00229587	0.482286	-0.0142857	-0.0408625	0.0870388	-0.0114286	-0.0371266	-0.00169876	0.168379	0.00762394	0.00785714	0.0702928	-0.0131108	-0.00071638	-0.0335714	0.0157143	0.254778	-0.02	0	-0.0554884	0.0342857	0.0869071	0.536339	-0.0195247	-0.00928571	0.0271429	0.0684129	-0.113089	0.00142857	0.553014	0.609162	-0.0304221	-0.0214286	0.411034	-0.0336209	-0.0515759	0.134917	-0.000172612	0.00081623	-0.0401437	-0.0342857	0.0740451	0.0285714	-0.0122664	0.0178571	0.241353	0.0373533	-0.0579098	0.398105	-0.0314286	0.529919	-0.0908183	0.774036	-0.0217452	-0.00357143	-0.0128571	-0.0540797	0.170848	-0.00928571	0.428253	0.0114286	-0.0743661	-0.0114286	0.199096	0.453044	0.0233655	-0.0136356	0.381282	0.0228571	0.156317	-0.0451029	0.0230331	0.025	0.00616917	0.493024	0.00700214	0.035	-0.0917434	0.269109	-0.142685	0.0221429	-0.0607715	0.0192857	0.47553	0.647691	0.229474	-0.0307143	-0.0135036	-0.016599	-0.0667738	-0.0347407	0.326256	-0.0904471	0.0319837	-0.00748773	0.0164286	0.459262	0.0328571	-0.0508544	-0.0310362	-0.136351	0.348789	0.125185	-0.0235714	0.00357143	-0.0278571	-0.119473	-0.0103257	0.0257143	-0.142018	-0.0207143	0.076602	-0.141971	0.017575	0.0232266	-0.0321605	-0.142516	0.035	0.297889	-0.00374731	0.0565897	-0.224127	-0.000569457	0.0687721	-0.063695	-0.0326598	0.0162905	0.00944266	-0.152073	0.0283387	0.0228571	0.0251725	-0.0921465	-0.0991141	-0.0560291	0.165511	-0.00785714	-0.0663687	0.00857311	-0.0333662	-0.512924	-0.438849	0.0118887	-0.0425386	0.00142857	-0.127956	-0.0171429	0.0399913	-0.0121429	0.0317494	-0.005	-0.21735	-0.260581	-0.0185714	-0.1234	0.0122943	0.125752	-0.0853148	-0.0542974	-0.693439	-0.0321429	-0.067261	-0.832857	-0.0106123	-0.0221429	-0.0695395	0.0140603	-0.100916	-0.034794	0.0222158	0.0221429	0.088455	-0.01	-0.450908	0.0586302	0.0271429	-0.03	-0.0267481	-0.29016	0.03	-0.0767434	0.145457	0.00822967	-0.0258019	-0.0864471	0.0361925	0.256338	0.313368	-0.00526473	-0.0164286	0.0128571	0.0031902	-0.0207143	-0.0696327	-0.0628038	0.230139	-0.0762075	0.145955	0.0335714	0.00667422	-0.0478713	0.0129807	0.00822967	0.418234	-0.260005	0.005	0.0428597	0.0373963	-0.02	0.0314286	-0.0321429	-0.0444365	-0.0390268	-0.0195074	0.00214286	0.02	0.263832	-0.152903	-0.0297744	0.163225	0.16136	-0.0578446	-0.0121429	-0.02	-0.00714286	-0.274284	-0.0512956	0.0121429	-0.000699305	-0.0292857	0.0460172	-0.161453	0.0285714	-0.0855865	-0.00857143	0.00849378	0.0264286	0.096138	0.005	-0.0170407	0.0107143	-0.0264286	-0.053172	-0.145714	-0.01	-0.0135714	-0.0674926	-0.0905955	-0.0321429	-0.0574231	-0.0688863	-0.131048	-0.0619369	-0.150842	-0.1612	-0.0538658	-0.143367	-0.0644079	0.0292857	0.0214286	-0.000714286	-0.173593	0.0178571	0.0285714	0.0235714	-0.0306855	0.025	-0.068407	-0.0114286	0.0174095	0.0199779	-0.412643	-0.000460098	-0.368635	0.00857143	-0.00714286	-0.100133	-0.049794	-0.0264286	0.0101448	-0.0335714	-0.0416909	0.0451864	-0.284351	-0.0545612	0.0221429	-0.0271429	0.000714286	-0.413001	-0.0342857	0.0228571	0.043091	-0.0751456	0.00428571	-0.0285714	0.0110287	-0.0719369	0.0314286	0.00785714	-0.256436	0.0257143	0.0301359	0	0.0285714	0.00357143	-0.418554	0.248639	-0.0554947	-0.0264286	0.0515822	-0.00571429	-0.130713	-0.03	0.0328571	-0.00195979	-0.0861003	0.0185714	0.0107143	-0.0242857	-0.00142857	0.0114286	0.130705	-0.344867	-0.0141781	0.00214286	-0.0279897	-0.0271429	-0.389925	0.0171429	0.0157143	-0.299727	0.22278	-0.0235714	-0.0178571	-0.0140798	-0.0441795	0.0310463	0.0221429	-0.0242857	0.0191188	-0.107763	-0.0285714	-0.0228571	0.0221429	0.005	-0.368745	-0.00285714	0.0625423	0.0271429	-0.420354	-0.0128571	-0.00646955	-0.0201414	-0.00547892	0.0192857	-0.0278571	0.153995	-0.0226512	-0.0376501	-0.0727591	-0.0278571	-0.0292857	-0.0214286	-0.0865542	-0.0114286	-0.0720489	-0.000714286	-0.0333655	-0.177133	-0.0733655	-0.0185714	-0.377792	-0.236385	-0.00438692	0.00428571	0.0228571	-0.0831211	-0.0609795	0.0107143	-0.00324148	-0.0755083	0.0725895	0.00470811	-0.0185714	-0.0863346	-0.00928571	0.0264286	-0.0223251	0.0185714	-0.0214286	-0.0215323	-0.0373073	-0.015	-0.171485	0.0107143	-0.0257143	-0.0128571	0.0107143	0.0257143	0.00647366	-0.0276512	0.00785714	-0.0352919	-0.0314286	-0.0321429	-0.0271429	0.018833	-0.0204604	-0.0264286	0.00428571	-0.0435837	-0.0175632	-0.0591573	0.00443444	-0.143383	-0.107841	-0.0681687	-0.0281925	0.0257143	0.035	-0.0307143	-0.0655083	-0.0970489	0.0264286	0.0271429	-0.0980288	-0.00266452	-0.0221429	-0.0235714	-0.00928571	0.00214286	-0.00957662	0.0335714	-0.0782925	0.00357143	-0.0381507	-0.0207143	-0.100735	0.0171429	0.025	-0.0107347	-0.035	-0.0412226	-0.0335714	-0.0785301	-0.0777632	-0.0699379	-0.0405083	0	-0.0193166	-0.0762226	-0.099435	-0.0185714	-0.00142857	0.0321429	-0.0777632	-0.0530097	-0.0938753	-0.0114286	-0.0979114	-0.187361	0.0257143	-0.0985721	0.0173774	0.0314286	-0.0311311	-0.0121429	-0.0257143	-0.112049	-0.0440798	0.0287806	-0.0902389	-0.0303428	-0.0271429	0.0128571	-0.000714286	0.0171429	-0.11432	-0.0278571	-0.0813228	0.015	-0.0926792	0.0242857	-0.0955192	-0.178427	-0.0142857	-0.03	-0.0155696	-0.109218	-0.00642857	-0.0126479	-0.0188996	0.02	0.00428571	-0.0357145	0.0157143	-0.0178571	0.0142857	-0.0633526	-0.00785714	-0.0240144	0.0260349	-0.0321429	-0.0765077	-0.0524191	0.0157143	-0.0854848	-0.0896122	0.0342857	-0.0527632	0.0342857	-0.106011	-0.00066513	-0.0121429	-0.0563788	-0.00357143	0.00928571	-0.0178571	0.0142857	0.028049	0.0107143	-0.114958	0.0328571	-0.005	-0.0242857	0.00153841	0.0114286	0.0307143	-0.0800988	-0.0714418	-0.0634775	0.00971014	0.0271429	0.0264286	0.015	-0.0963346	0.00642857	-0.0218111	-0.0799061	0.00428571	0.00357143	-0.0292857	0.0185714	0.02	0.0314286	-0.0752681	-0.0192857	-0.0123573	-0.0242857	0.03	-0.102321	-0.0148278	-0.00309446	0.0307143	0.0178571	-0.0260564	-0.020094	-0.0941918	-0.0271429	-0.0107143	0.0276177	-0.00285714	-0.0228571	0.0221429	-0.0121429	-0.00642857	0.0135714	0.0014163	0.0342857	-0.0161823	0.0342857	-0.0321429	-0.151904	0.0164286	-0.0114286	-0.0184796	-0.0605076	-0.03	-0.00928571	0.0210525	0.035	-0.0187553	-0.0439175	-0.0869215	0.0192857	-0.00857143	0.0171429	-0.0314286	0.0169458	-0.00997385	0.03	-0.02	0.0228571	-0.0292857	-0.0304028	-0.0883345	-0.117242	-0.124828	0.00428571	-0.075604	-0.0101226	-0.0314286	-0.0335714	-0.00857143	-0.0142857	-0.01	-0.0221523	0.0313608	-0.00428571	-0.0307143	-0.0171429	0.0314286	0.0292857	-0.0736952	-0.107193	0.0128571	-0.0465072	-0.0207143	-0.0178571	-0.0655515	0.005	-0.0242857	-0.0157143	0.0292857	0.0185714	0.0221429	-0.0294091	-0.0178571	-0.0335714	-0.0271429	-0.0192857	0.00142857	-0.0235714	0.0192857	-0.00642857	-0.00285714	-0.0271429	0.00642857	-0.0125149	-0.0535625	-0.0235714	0.0135714	-0.035	-0.0307143	-0.0292857	0.0357143	-0.0171429	0.0264286	-0.0207143	0	0.0314286	-0.015	-0.0235714	-0.0207143	0.015	-0.00357143	-0.0342857	-0.0167178	0.0135714	-0.0328571	0.0285714	-0.005	-0.0307143	0.00571429	0.015	0.035	0.00357143	-0.000858674	-0.0292857	-0.00285714	-0.00642857	-0.0508279	0.0114286	-0.00642857	-0.0135714	-0.0164286	-0.00858894	0.005	-0.0264286	-0.0271429	0.00571429	-0.0314286	0.0307143	-0.0164286	-0.0513008	-0.055499	0.015	0.0214286	-0.00642857	0.0292857	-0.0107143	-0.0142857	-0.0121429	-0.00642857	0.0264286	-0.0784001	-0.00785714	-0.00571429	-0.01	0.035	-0.00785714	-0.0441887	-0.0846488	0.005	0.0128571	0.00214286	0.0235714	0.00714286	0.00785714	-0.00214286	0.015	0.015	0.00214286	-0.025	0.0127478	0.314283	
