4
11
1	1	0
20	1	2
10	1	2
1	0	2
-0.742847	
-0.670169	
0.675841	
0.985437	
-0.461691	
0.54308	
-0.94816	
-0.830949	
-0.816117	
-0.538053	
-0.432958	
0.479439	
-0.653484	
0.554403	
0.657734	
-0.556562	
-0.856771	
-0.316921	
-0.801307	
-0.713246	
-1.27641	0.609043	-0.107534	0.094061	-1.17927	1.31339	-0.0513437	0.403076	0.316352	0.827872	-0.318723	0.90445	1.86734	1.33273	-0.689793	0.744128	0.417721	-0.548695	-1.63581	0.761589	
-0.416547	-1.04776	-0.413551	-0.910896	-1.00726	-0.351793	0.104223	0.203331	-0.762014	-0.0486753	-1.08549	1.19127	0.372954	1.15895	0.0565425	0.143098	0.472395	-0.184868	-0.95396	0.319049	
-1.04087	-0.0299402	-1.19802	-0.273479	0.152949	0.0672893	-0.256356	-0.0212514	-0.0804432	0.0458798	-0.674032	-0.513742	-0.749718	0.230274	-0.115251	-1.48754	-0.244596	0.490604	0.128048	-1.04135	
-0.414691	-0.144634	0.45888	-1.16355	-0.4536	-0.140086	-0.336928	0.629288	-0.749919	0.451517	0.650893	-0.635281	-0.641471	0.787063	0.283234	0.404949	-0.432704	0.267739	0.449952	-0.0411769	
1.12522	0.537222	0.82397	0.275079	0.355987	-0.781367	-0.0475309	-0.517184	0.527053	-0.0415771	0.853968	-0.34858	0.334638	-0.342443	-0.258599	-0.00774586	0.0883579	0.510023	0.647976	0.0927395	
-0.4662	-0.359005	-0.789129	-0.650866	0.555065	0.767065	-0.810202	-0.10426	-1.21286	-0.913759	-0.723676	0.575948	-0.12563	0.142769	-0.2456	-0.356781	-0.450842	-0.57277	-0.833853	0.190345	
0.9207	1.14793	-0.586692	-0.0940288	1.05014	-0.542075	0.224546	-0.151022	0.876495	0.574054	1.12316	0.248473	1.07736	-0.286809	0.270577	0.0643982	0.469729	0.162253	-0.165036	-0.0815631	
0.868615	-0.562903	0.587966	0.192338	0.524865	-0.854323	-0.310497	0.133704	-0.385408	0.364555	0.775356	-0.997036	0.362494	-0.720001	-0.248099	0.000969107	-0.419614	0.068672	0.374912	0.0422626	
0.258928	0.530112	0.447573	0.242828	-0.271783	0.475708	-0.187216	-0.385467	-0.529741	-0.0228228	0.159951	0.518708	0.102725	-0.447634	0.295597	1.05169	0.555457	-0.456085	0.522443	0.231084	
-1.15709	0.148992	-0.13435	0.156899	-0.989801	0.0555437	0.149391	-0.445243	-0.871036	-0.889702	-1.05862	-0.292943	-0.361167	0.517743	0.174827	-0.562907	-0.186408	0.10208	-0.324891	-0.292487	
0.46025	-0.569491	0.673385	-0.1181	0.600868	-0.644428	-1.39464	-1.25861	-0.0985605	-1.61425	
3.53334	0.272747	0.936635	0.279439	1.40955	-2.17503	0.0627425	0.172564	0.995423	0.0901458	1.95655	-1.87531	0.377019	-2.25858	0.148584	-0.337328	0.289645	0.273169	3.82136	0.0609921	
-0.307388	0.138349	1.42418	-0.292516	0.253406	-0.707315	-0.722039	0.884909	-0.193878	0.617164	
-0.0140165	
