784
10
10
0.0242857	0.0264286	0.02	-0.0242857	0.0314286	-0.01	0.0264552	0.0307143	-0.00352208	-0.0310235	-0.00941328	-0.0272617	-0.0120598	-0.154364	-0.132008	-0.0164286	-0.00642857	-0.0230212	0.0164286	0.0246183	0.0414724	0.0232583	0.0128571	-0.0142857	0.023598	-0.0135714	0.00928571	-0.0185714	0.0128571	-0.01	0.200259	-0.0335714	-0.0198661	-0.874571	-0.0339712	-0.824507	-0.0014473	0.005	-0.0537125	-0.691372	0.0468035	0.0171429	-0.00209654	-0.0214286	-0.00838389	0.10162	0.0379942	-0.0178571	-0.104165	-2.00403	-0.0257143	-0.0626438	0.03	0.0221429	0.005	-1.86242	0.00928571	0.236589	0.0335714	0.0228571	0.0577252	-0.0171429	0.025	0.749124	-1.43364	-1.52506	0.770822	-0.0142857	-1.42252	0.316172	-0.0114467	0.0328571	-0.417731	-0.00285714	-0.025	-0.243397	-0.549043	-1.2136	-0.00415012	0.000714286	0.47413	-0.0292857	0.0192857	0.0207143	0.0278571	1.2931	-0.0328571	0.00142857	0.971611	0.0357143	1.98788	-0.960774	0.536753	0.0135714	-0.00714286	0.127024	-0.442452	0.0264286	-1.67456	-2.55537	-1.29388	0.015	-0.213862	0.0207143	-0.182407	0.683945	0.0342857	-0.0335714	-0.021639	0.0307143	-0.333054	0.005	-0.0342857	0.0221429	-0.0442236	0.339491	0.0114286	-1.46933	-0.00357143	0.382744	0.117933	-0.968964	-0.0128571	-0.0228571	0.0342857	-1.82756	-0.129606	0.0185714	0.0137608	-0.0157143	-0.281055	0.005	0.215538	-0.734631	0.0264286	0.0168758	-0.819356	0.0242857	-0.601693	-0.0178571	-0.015	0.0157143	-0.0121429	-2.60464	-1.20507	-0.0214286	0.015	-0.488333	-0.0292857	-0.0242857	-0.129396	2.49829e-63	-0.664358	-0.267202	0.362467	-0.00285714	0.0608256	0.00142857	-0.02	0.00428571	0.879201	0.232377	0.0349211	-0.015	-0.00571429	-0.15474	0.0314286	-0.035	-0.0106071	0.342769	-0.42692	-0.281119	0.0271429	0.005	-0.00428571	-1.53114	-0.0498244	0.0114286	0.00714286	-0.00928571	1.52373	0.00142857	0.462217	-0.015	0.202463	-0.03	0.0178571	-0.472766	0.00642857	0.882349	0.889031	-0.00857143	-1.86893	0.0314286	-0.0221429	0.117608	-0.00842038	-0.0271429	0.794465	-0.0142857	-0.251822	-0.0321429	-0.00428571	0.01	-0.44345	-0.00785714	-0.0307143	0.421872	0.182817	0.660855	0.539414	0.0278571	0.0142857	-0.0228571	-0.0228571	0.0335714	0.815793	-0.00428571	0.015	0.0242857	0.910548	0.359061	0.0164286	-0.0171429	-0.00937783	0.2206	-0.0314286	-0.00714286	0.164352	0.0264286	-1.03326	1.17066	-0.005	0.0107143	-0.872622	-0.03	0.00428571	-0.0321429	-0.241937	-0.0271429	-0.867198	-0.015	-1.21408	0.394805	-0.00214286	0.0135714	-0.00642857	0.544084	-0.0271429	-0.0278571	-0.556643	-0.0342857	0.0104173	1.32666	0.0207143	-0.391219	-1.17386	-0.00928571	-0.00357143	-0.0164286	-1.17113	0.0602985	-0.0292857	-0.0235714	-1.35069	0.00642857	-0.166157	-0.00857143	0.00928571	-0.0178571	-0.0252844	-0.00928571	-0.571705	2.49439	0.0214286	0.516961	0.682551	0.0157143	0.0171429	0.0384462	0.0484729	-0.0135714	-0.0114286	0.0743211	0.00785714	0.73136	-0.408172	0.0228571	-1.24615	-1.39099	0.0107929	0.0171429	-0.0257143	0.0135714	1.07738	0.0328571	-0.0164286	-0.189617	0.025	-1.23589	-0.0212941	0.025	0.0192857	-0.005	-0.196942	-0.03	0.520002	0.005	0.0282673	-0.0221429	0.0271429	-0.0264286	-0.429543	0.0164286	0.00714286	0.27087	-0.00928571	-0.0278571	-0.005	0.0271429	0.333705	-0.0342857	0.172641	-0.238605	0.260811	-0.719342	-0.0214286	0.0438255	-0.02	-0.0321429	1.95552	-0.0271429	0.0422386	0.0128571	-0.0314286	-0.015	0.0273881	0.000714286	0.298957	0.00642857	1.80589	-0.0178571	0.531449	0.0142857	0.0335714	-1.06615	-0.0135714	0.025	0.0307143	0.0681375	0.207797	0.610338	-1.6718	0.0257143	-0.0192857	0.0357143	-0.00642857	0.231698	0.035	-0.0257143	-1.54267	2.0376	-0.0178571	0.0292857	0.0147536	0.0228571	0.0300775	-0.00928571	2.4172	0.00428571	0.0321429	-0.0321429	0.0214286	0.0142857	1.68571	-1.10591	0.000714286	0.00428571	0.331003	-0.005	-0.107236	0.025	0.0314286	-0.00202553	0.163293	0.0128571	-0.0321429	-0.0257143	0.00857143	0.00357143	-0.218849	-0.981563	0.0460951	-0.0335714	-0.0335714	-0.0307143	0.0224348	-0.02	-0.005	0.729445	-1.09551	0.0285714	0.0164286	-0.0292857	0.00642857	0.321768	-0.00928571	-0.0292857	-0.438867	-0.000714286	-0.0328571	-0.0114286	-0.0114286	-0.000714286	-2.16864	0.00357143	-0.0961254	-0.00214286	1.60018	-0.0142857	0.0162052	-0.00214286	0.0278571	0.0342857	4.92018e-44	-0.898032	-0.0328571	-0.0114286	0.01	0.0342857	0.00285714	0.0307143	0.57359	-0.0171429	0.0293154	0.0335714	0.0185714	-0.0660755	0.00571429	-0.0142857	-1.50409	2.72595	-0.677432	-0.02	0.00785714	-0.0321429	-0.015	-0.0157143	0.0450794	-0.000714286	-0.923362	0.0179347	0.0321429	0.0342857	0.0357143	-0.00428571	-1.37078	-0.0335714	-0.015	-0.0938995	0.401084	0.0228571	-0.0462013	-0.00785714	0.00714286	0.00142857	-0.01	-0.0107143	-0.594428	0.0307143	-0.0242857	-0.0157143	-0.0321429	-0.0142857	8.87569e-78	-0.691968	0.0695794	-0.0142857	-0.00428571	-0.01	0.14507	-0.035	-0.00785714	-0.0943017	0.352067	0.046416	0.0231239	0.0278571	0.0307143	0.0328571	-0.00428571	-0.00357143	-0.0142857	0.0292857	-0.101051	-0.00642857	-0.00571429	0.0142857	-0.0164286	-0.0121429	-0.477141	-0.005	0.0082627	-0.0228571	-0.00963005	0.00857143	-0.0563811	-0.0285714	0.0292857	-0.0171429	0.0335714	0.0128571	0.02	-0.0476572	0.0292857	-0.0164286	-0.0178571	0.00571429	-0.025	0.0135714	-0.336502	0.00642857	-0.0264286	0.0722568	-0.035	-0.215846	-0.0164286	0.0321429	-0.222928	-0.0566702	0.0207143	-0.0142857	0.00690902	0.0292857	-0.00142857	0.015	0.00142857	0.0221429	-0.0128571	0.0314286	-0.0252666	-0.0157143	0.0248747	0.0264286	-0.025	0.00428571	0.129175	0.0292857	-0.0264286	0.0214286	-0.290426	0.0142857	-0.432403	0.0178571	0.00428571	-0.00571429	-0.0207143	-0.0114286	0.0271429	0.0278571	-0.00421879	0.061824	0.015	0.025	0.005	-0.0228571	-0.0307143	-0.0269461	1.30627e-53	-0.00857143	-0.0314286	0.00714286	-0.00514005	-0.0221429	-0.00285714	-0.228543	0.109783	0.00642857	0.0171429	-0.00857143	0.0518911	0.0242857	-0.03	0.0207143	0.00571429	-0.025	0.0157143	-0.0142857	-0.035016	0.00714286	-0.0221429	-0.00785714	-0.0171429	0.0278571	0.00654417	-0.0114286	0.00571429	0.0228571	0.0500963	0.0106869	-0.000223666	0.0357143	0.028649	0.000562773	0.0142857	0.01	-0.0192857	0.0321429	0.0171429	-0.00142857	-0.0128571	0.00928571	0.0235714	0.0292857	0.0307143	0.03	0.00571429	-0.0242857	-0.02	0.00571429	0.0178571	0.0275304	0.0427774	0.00142857	-0.0174882	-0.018117	-0.00857143	-0.00642857	0.00357143	-0.0135714	0.035	-0.0171429	0.0228571	-0.0235714	-0.0235714	-0.0335714	-0.0128571	-0.00714286	0.0335714	-0.0321429	-0.00785714	0.0221429	-0.0160595	-0.02	0.015	0.0607918	-0.0246036	0.0214286	0.0199244	0.0257143	-0.00933348	-0.0321429	0.0192857	0.0242857	-0.03	0.00714286	0.00571429	-0.00357143	0.0357143	-0.0271429	-0.0157143	0.000714286	-0.00928571	0.00785714	-0.0221429	-0.0314286	0.01	1.05191e-48	0.00575644	-0.0271429	-0.0314286	-0.0107143	0.03	0.0185714	0.00428571	-0.025	0.0285714	0.0135714	0.0314286	-0.0221429	-0.0314286	0.0235714	-0.0192857	0.0235714	-0.0228571	-0.0135714	0.0314286	0.0555741	-0.0164286	0.0314286	0.0598873	0.00285714	-0.00428571	0.0178571	-0.025	-0.0257143	0.0214286	0.02	0.00928571	0.0185714	0.0278571	-0.0214286	-0.0278571	-0.0121429	0.0321429	-0.0228571	-0.00214286	-0.01	-0.00573251	0.03	0.00285714	-0.00428571	0.0666212	-0.015	-0.0171429	0.03	-0.0278571	-0.0221429	-0.0228571	-0.00928571	0.01	0.00428571	0.0292857	0.00642857	-0.0135714	-0.0321429	0.0157143	0.00857143	-0.0114286	0.0257143	0.0285714	0.0171429	-0.0321429	0.00142857	0.0137913	0.000714286	0.0135714	-0.0243403	0.0257143	-0.0307143	0.0328571	-0.00714286	7.96376e-78	-0.0207143	0.0128571	-0.0164286	0.01	0.02	0.0335714	0.0228571	0.0114286	0.00785714	-0.00928571	0.00428571	0.015	-0.0221429	-0.0271429	-0.005	-0.0121429	0.0335714	0.0372454	-0.02	0.015	0.025	0.0164286	-0.0157143	-0.0107143	-0.00642857	0.0242857	0.0164286	0.035	-0.0135714	0.01	-0.00142857	0.000714286	-0.0135714	0.0171429	-0.025	0.00714286	-0.0192857	-0.00142857	-0.0178571	0.0235714	-0.01	-0.127369	
-0.0321429	0.00357143	-0.00428571	0.035	0.0264286	-0.00642857	0.020295	0.00714286	0.0400107	0.000663994	0.194681	0.0434085	0.0393122	0.0305158	-0.000591241	0.0164286	-0.0192857	0.00335944	-0.01	-0.137903	-0.2329	-0.0222581	-0.00142857	0.0157143	0.0188664	0.0142857	-0.0221429	-0.0342857	-0.0328571	0.00285714	0.0252052	-0.03	0.22067	-1.58419	0.260702	-3.11724	0.255921	0.025	-0.351713	0.494541	-0.161428	0.03	-0.0965328	0.035	-0.40898	-0.00840911	0.0100215	0.0285714	0.00107884	-3.05471	-0.0278571	-0.744421	-0.0178571	-0.0285714	-0.00714286	-0.820096	0.0207143	-2.41194	0.00285714	0.0228571	-1.03419	-0.00785714	0.0285714	-1.07423	0.526852	-0.245679	-0.436496	0.0271429	-0.939008	-0.798429	2.93149	0.0228571	-1.03141	0.000714286	0.0214286	-0.57004	-0.694108	-0.345351	-0.0102332	-0.0257143	-0.683376	0.0321429	0.0228571	0.0228571	-0.0328571	0.412657	-0.0114286	0.0235714	-0.559696	0.0271429	-0.708762	3.61943	-1.21446	-0.0321429	-0.0192857	0.283212	0.420752	0.0342857	2.29403	4.58823	-0.480911	-0.0307143	-0.349653	0.00571429	-0.0718953	0.572243	0.0357143	0.00928571	0.0352337	0.0242857	0.109759	0.00357143	0.02	-0.0285714	-1.02683	-1.51691	0.0235714	2.84124	0.0121429	-0.784191	-0.366255	4.64156	-0.0271429	0.0257143	0.0264286	0.792302	-0.0394714	0.0292857	0.743132	-0.025	-0.856989	-0.0235714	1.01911	0.0764017	-0.0171429	-0.00741064	1.31365	-0.0171429	-0.260306	-0.00928571	0.00785714	-0.0221429	-0.00428571	2.79871	0.11409	0.0235714	-0.02	1.03007	0.00428571	0.0278571	-0.43871	-0.0242857	0.837877	0.861665	-1.00753	-0.0292857	-0.0390067	0.0242857	0.000714286	0.00571429	-1.00184	-0.477453	0.0161888	0.0142857	0.0157143	0.493268	-2.49016e-265	-0.0278571	-0.0149366	1.01422	-0.348836	-0.528257	-0.0278571	0.0314286	0.02	1.34251	-0.0436225	0.0357143	0.00214286	-0.0128571	1.49565	0.02	0.775252	0.00571429	0.239175	0.00214286	-0.0228571	0.594359	-0.01	0.0192028	-0.633736	0.025	-0.595654	0.0192857	-0.0314286	0.855351	-0.0165178	0.00357143	-0.40465	-0.0292857	-1.02337	0.0207143	0.0342857	0.00428571	0.437618	0.0178571	-0.00285714	0.637295	-1.4489	1.29917	-0.644901	-0.0264286	-0.0157143	0.0235714	-0.02	0.0314286	0.0417579	-0.00714286	-0.0107143	-0.02	-0.0142145	-0.0311676	0.00571429	0.00357143	3.02596e-05	1.24617	0.0164286	-0.00571429	0.793474	0.00214286	-0.2563	-0.0688153	0.0235714	0.0357143	-0.578064	0.00357143	0.0171429	-0.0242857	0.380655	0.00142857	-0.754812	0.0292857	-0.959534	-0.011338	0.0164286	-0.00857143	-0.00857143	0.382064	-0.015	0.0157143	-0.197048	0.0271429	0.00188771	0.324753	-0.00571429	0.748765	0.022432	0.0114286	-0.0271429	0.0142857	1.3112	-0.0125598	0.0242857	0.00142857	-0.401908	-0.035	0.885541	-0.00785714	0.0128571	0.0107143	-0.0484392	-0.0121429	0.899677	1.1289	0.0185714	-0.821308	-0.320143	-0.0264286	-0.00785714	-0.00789774	-0.00813174	0.015	0.005	-0.0218092	0.00785714	-0.606405	-0.897855	0.0114286	-0.284689	-0.0653078	0.0248503	0.0242857	-0.00714286	0.0142857	-1.54947	0.00214286	-0.02	0.0262986	0.0292857	-0.282026	-0.257095	-0.0128571	0.0171429	0.0107143	-1.06826	-0.000714286	0.273108	0.02	-0.00859718	-0.0114286	0.035	-3.6521e-58	-0.336132	0.00428571	0.0314286	1.45817	0.005	0.00785714	-0.0114286	-0.0185714	-0.770349	0.0157143	-0.187562	-1.17424	-0.865727	1.22879	0.0228571	0.00506417	0.0292857	-0.0185714	-0.831818	-0.035	-0.0174722	0.0185714	0.0107143	-0.005	0.0098532	0.00714286	-0.67088	0.0285714	-1.15435	0.0142857	0.248415	0.00142857	0.0192857	0.0706455	-0.0214286	-0.0114286	-0.00428571	-0.0545017	-0.878062	-0.787495	0.390571	0.0121429	-0.0271429	0.0128571	-0.0264286	-0.873217	-0.0142857	-0.0335714	0.2149	-0.36651	-0.0335714	0.0178571	0.00674188	-0.0221429	-0.0458425	0.0242857	-1.61955	0.0271429	0.0164286	0.0171429	0.00571429	0.00928571	0.632259	-1.27751	0.0342857	0.0335714	0.707528	-0.00571429	-1.62521	-0.0164286	0.0178571	0.00942907	2.10117	0.0257143	-0.000714286	-0.0314286	-0.0135714	-0.0142857	-1.18395	-0.647372	0.0783659	0.00928571	-0.0178571	-0.0214286	-1.77443	-0.00571429	-0.0335714	-1.84812	-0.432262	-0.0164286	0.0242857	0.0285714	-0.00642857	0.74491	-0.0185714	-0.00785714	-0.398981	0.0314286	-0.0128571	-0.0278571	-0.0207143	-0.0314286	0.238589	-0.0257143	1.43635	-0.00785714	0.995575	-0.02	0.0749209	-0.0142857	0.0157143	0.0221429	-0.00428571	-1.16489	0.0357143	-0.0178571	0.0278571	0.00357143	0.0264286	0.0142857	0.63097	0.0142857	-0.0396064	0.0171429	-0.0135714	-0.378301	0.01	0.0271429	-1.1619	-1.87092	0.93086	0.0357143	0.00142857	-0.00714286	0.0107143	-0.005	0.0507139	0.0264286	1.4762	-0.0222711	-0.0242857	0.0264286	0.0228571	-0.0271429	-0.181507	-0.0114286	0.0271429	0.376681	0.921102	0.0171429	-0.125253	-0.0214286	-0.005	0.00357143	-0.00357143	-0.0178571	1.24618	0.00714286	0.01	-0.0221429	0.00285714	-0.0264286	0.0142857	0.847555	0.0135857	-0.0114286	0.0357143	-0.0107143	-0.161698	-0.0242857	-0.01	0.0318859	-2.32393	0.00656972	0.0965915	0.0271429	-0.0335714	-0.00857143	0.00928571	0.0285714	-0.0278571	-0.0314286	0.811404	-0.0321429	-0.0271429	0.00571429	-0.0142857	-0.0328571	0.89095	0.0307143	-0.0201754	-0.0192857	-0.00875558	-0.00428571	-0.484287	0.00857143	-0.015	0.0207143	-0.00142857	-0.035	-0.00285714	0.0970381	0.0271429	0.0357143	0.00142857	0.0285714	0.0264286	0.00285714	0.257329	-0.000714286	0.0321429	-0.0291018	-0.0307143	0.0975435	0.0307143	-0.0228571	0.381608	-0.987975	-0.0207143	0.0221429	0.0223779	0.0321429	0.00357143	-0.0185714	-0.00857143	-0.0114286	0.025	-0.0228571	0.0187521	-0.0128571	-0.0450405	-0.0285714	0.0114286	0.005	-0.351452	0.0142857	-0.00285714	0.0328571	-0.0225458	0.0157143	-0.396865	0.0142857	0.00714286	-0.0342857	0.0192857	0.00214286	0.0157143	-0.00642857	-0.0170941	-0.0257677	0.0164286	0.03	0.0285714	-0.0157143	0.0121429	0.0578388	-0.0264286	0.000714286	0.0335714	-0.0178571	-0.643749	-0.0257143	0.0264286	0.257077	-0.386959	0.0321429	0.0135714	-0.0242857	-0.0157977	-0.005	-0.00714286	-0.00857143	0.01	0.035	0.0292857	-0.00714286	-0.0335003	-0.0257143	-0.0128571	-0.015	0.00571429	-0.0321429	0.0279861	-0.00214286	0.0242857	-0.00785714	-0.375425	0.0310158	-0.252414	-0.02	-0.00584253	-0.0197605	-0.0107143	0.00642857	-0.0171429	0.005	0.00214286	-0.00285714	0.0164286	-0.00214286	-0.00714286	-0.0271429	0.0242857	-0.0328571	0.00857143	-0.0171429	-0.005	-0.0235714	-0.00714286	0.0236591	-0.022686	0.0335714	-0.0130634	0.012785	0.0321429	-0.0257143	0.00571429	-0.0214286	0.00785714	0.000714286	0.0307143	-0.0121429	0.0192857	0.0214286	0.0292857	0.00285714	-0.01	0.0328571	0.035	-0.03	-0.00834474	-0.00857143	0.015	-0.00298543	-0.0072177	0.025	-0.0341632	0.0242857	-0.0348679	0.0307143	-0.0285714	0.0335714	-0.00642857	-0.00714286	0.01	-0.01	-0.0321429	0.0171429	-0.0307143	0.0107143	-0.0185714	0.00142857	-3.91012e-63	0.00142857	-0.0135714	-0.00714286	-0.0361763	0.0114286	0.0264286	-0.0335714	-0.0171429	0.0214286	0.03	-0.00142857	-0.03	0.025	-0.0128571	0.00857143	-0.0214286	-0.0128571	0.00285714	-0.015	-0.0157143	0.0321429	-0.0214286	-0.0205945	0.0228571	-0.0185714	-0.000896063	0.0271429	-0.00714286	-0.00428571	-0.00785714	0.0278571	0.0321429	-0.0207143	0.0221429	0.035	0.0264286	-0.0221429	0.00214286	0.01	0.035	0.0328571	-0.0278571	-0.0314286	0.0202011	-0.005	0.0121429	0.035	-0.0385372	0.0164286	0.0207143	0.00285714	0.0121429	0.0342857	-0.000714286	-0.00142857	0.0164286	-0.0235714	0.0264286	-0.0264286	0.00714286	0.02	-0.035	0.00285714	0.0342857	-0.0121429	-0.0328571	-0.01	0.00142857	-0.03	0.015447	-2.45179e-53	0.00357143	0.0048888	-0.0307143	-0.0107143	-0.0328571	-0.0171429	0.025	-0.015	0.0342857	0.01	-0.0114286	-0.0242857	0.00785714	0.0228571	-0.025	0.0257143	0.0342857	-0.035	0.0342857	-0.0292857	-0.0142857	-6.49135e-39	-0.0257143	0.0214286	-0.0175535	-0.0235714	-0.025	0.0257143	0.0185714	0.0114286	0.0264286	-0.0135714	-0.0164286	0.0307143	-0.0235714	-0.0142857	0.0142857	0.00214286	-0.0285714	0.0121429	-0.0242857	0.0328571	-0.0114286	-0.015	0.0192857	-0.00142857	-0.0257143	-0.0164286	0.086771	
0.00928571	0.0264286	-0.0142857	0.01	-0.035	-0.0292857	0.0338852	-0.0235714	0.0192929	0.0240908	-0.158341	-0.260989	-0.277329	-0.41347	-0.194565	0.0114286	0.0321429	0.0356646	-0.0107143	0.0462782	0.0687093	0.0166917	0.00928571	-0.0328571	0.0260281	-0.005	-0.0121429	-0.0107143	-0.03	-0.0278571	-0.114392	0.0142857	-0.119675	-0.080955	-0.14077	-1.39909	-0.178395	0.0235714	-0.0896859	0.358301	0.00628045	0.00857143	-0.00981008	-0.00857143	0.0242962	-0.165636	-0.0430381	0.0228571	-0.0151012	-0.732956	0.0214286	0.139045	-0.00571429	0.0314286	-0.0178571	-0.758065	-0.01	0.0918597	0.00928571	-0.005	0.05752	0.0335714	0.01	-0.461686	1.11938	-0.219424	-0.304825	0.0271429	0.54371	0.299282	-2.95953	0.000714286	0.137807	-0.0114286	-0.00714286	-0.00211103	-0.0755239	-0.935462	-0.0260359	0.00357143	-0.919428	-0.00357143	0.0185714	-0.0185714	-0.00785714	-0.187421	0.00142857	0.0171429	-0.244751	0.0114286	0.691039	-1.25657	-0.541493	0.0242857	0.0357143	1.62853	0.080813	-0.025	-2.65978	0.485425	-0.0770992	-0.03	-1.47077	0.03	-0.00369818	0.833307	-0.0185714	0.0271429	0.0056421	-0.00928571	0.524496	-0.00714286	0.0228571	-0.0207143	0.190563	0.05262	0.0157143	-4.29083	0.0335714	0.562102	-0.0253969	-0.0438616	0.0128571	0.0342857	-0.035	-0.274875	-0.345187	-0.01	-0.575119	0.0292857	-0.0596383	-0.0121429	-0.690715	0.299167	-0.0185714	0.081736	0.313643	-0.00142857	0.326384	9.70449e-53	-0.01	-0.0192857	-0.00642857	-2.59796	0.160259	0.00428571	-0.00714286	0.562429	-0.0171429	-0.00928571	0.341764	0.00785714	-0.667355	-0.883014	0.337523	-0.0321429	0.0249459	0.0242857	-0.00642857	-0.02	0.274289	-0.0867043	0.15841	-0.0157143	0.0207143	-1.98676	0.0142857	0.015	-0.0153643	-0.0393906	-0.535793	0.141944	-0.02	0.00785714	0.0242857	-0.129591	-0.166824	-0.0185714	0.0235714	0.0307143	0.50099	-0.01	1.06005	0.01	0.890966	0.00928571	0.0135714	0.342475	0.035	0.733284	0.589741	0.0192857	1.11537	0.0171429	-0.0328571	2.31981	0.000566738	0.0171429	0.0154291	0.0228571	-0.245445	-0.0142857	0.0335714	-0.00357143	-0.106572	0.0221429	-0.0264286	0.532743	1.09382	-1.06564	-0.258651	0.0121429	-0.0107143	0.00714286	0.0228571	-0.005	0.559472	-0.0342857	-0.00785714	0.0157143	-0.0941115	0.171342	0.0357143	-0.0192857	0.0501382	1.22586	0.00857143	0.0292857	0.591158	0.0157143	0.0177688	0.13274	-0.035	-0.0207143	-0.852612	-0.005	0.00214286	-0.0264286	1.18881	-0.03	-0.621972	0.00642857	-0.0808396	1.07715	-0.0228571	0.00642857	-0.00928571	0.360834	0.00785714	-0.0164286	-0.117114	0.0171429	0.101488	-0.147016	-0.000714286	0.0171215	-0.123147	-0.0285714	0.01	-0.035	0.406792	0.0110297	-0.0321429	-0.0114286	1.09121	0.005	1.05149	-0.0278571	0.0135714	-0.0128571	1.73426	-0.015	0.866077	-1.16954	0.0178571	-0.0136222	0.458955	-0.0278571	-0.0342857	-0.00473709	0.12976	0.0128571	0.0292857	-0.029719	-0.0121429	0.50965	1.32849	-0.0314286	-0.0364032	-0.126217	0.00456416	-0.0121429	-0.000714286	0.00857143	0.796979	-0.03	0.0142857	1.55107	0.0142857	-0.66655	-0.939629	-0.00714286	-0.0221429	0.015	-0.494074	0.0307143	-0.0418825	-0.005	0.0880931	-0.0114286	-0.03	-0.00428571	0.999759	0.000714286	-0.02	-0.50038	0.0278571	-0.0207143	0.0292857	-0.00642857	0.0876304	-0.00142857	0.664264	-1.07692	1.31845	-0.0735879	-0.005	-0.0161272	0.03	0.01	-0.613176	-0.0207143	-0.0117636	-0.00785714	-0.005	0.0307143	0.0934696	-0.0192857	2.66963	0.0257143	0.918954	0.0321429	0.509103	-0.0292857	-0.00357143	-0.812638	-0.00285714	0.025	-0.0192857	0.0108494	-0.0969941	2.05565	-0.296224	-0.0335714	0.0307143	-0.000714286	0.0335714	-0.282691	-0.0135714	-0.00642857	0.682859	-0.231585	-0.0264286	0.005	0.432801	0.00357143	-0.0169439	0.0164286	0.230941	0.0235714	0.00571429	0.0278571	0.0192857	-0.00857143	-0.00995174	1.22103	-0.00714286	0.0321429	1.28619	-0.025	0.781437	0.0235714	-0.0185714	0.00502078	0.794336	-0.0242857	-0.0228571	0.025	0.00285714	0.0357143	1.82291	0.323547	0.21969	-0.00928571	-0.0278571	0.0307143	-0.460178	0.00642857	0.0107143	0.58795	0.337098	-0.02	-0.0271429	0.0142857	-0.0278571	1.51607	0.0292857	-0.0335714	0.411928	-0.00142857	-0.0235714	0.0285714	0.0228571	-0.00714286	-0.0562062	-0.0228571	0.873549	0.0185714	0.782689	-0.0271429	0.204725	0.0207143	0.0114286	0.02	0.0121429	0.635261	0.0142857	0.00857143	-0.0107143	-0.0114286	-0.00928571	-0.0157143	0.755271	0.0357143	0.0257236	-0.0235714	0.00785714	0.0591527	0.015	0.0128571	-1.2119	2.15368	3.04237	0.0128571	0.02	0.0121429	-0.00928571	-0.01	0.51197	-0.00857143	1.48936	-0.0376582	0.0128571	-0.0264286	0.0335714	-0.0107143	-0.220218	-0.0228571	0.0328571	0.457611	0.90168	-0.0128571	-0.0377691	-0.0292857	-0.0135714	0.00142857	-0.0171429	-0.005	1.36456	-0.00142857	0.00857143	0.0192857	-0.0107143	0.0142857	0.0328571	0.484139	-0.104598	-0.0128571	0.00142857	0.0221429	0.515415	0.0342857	-0.035	0.319727	2.62587	0.0279486	0.0754705	-0.0342857	-0.025	0.0142857	-0.015	-0.0235714	0.00214286	0.0235714	2.14675	0.0235714	-0.0114286	-0.0335714	0.02	-0.0185714	-0.896594	0.0292857	0.00130078	-0.01	-0.215214	-0.00214286	0.410302	-0.00142857	-0.0142857	-0.0335714	-0.015	9.70449e-53	0.0357143	0.31427	0.0285714	-0.0257143	0.0192857	0.01	0.0121429	0.0292857	0.171655	0.0321429	0.00714286	-0.0237262	0.0192857	-0.202255	0.0157143	-0.0285714	0.678284	0.139463	0.025	-0.00714286	-0.145935	-0.01	0.0185714	0.000714286	0.0228571	-0.0164286	0.000714286	0.00928571	0.703949	0.0207143	-0.00545139	0.0214286	0.00642857	0.00285714	1.32431	-0.0107143	0.0142857	-0.0271429	0.786922	-0.0314286	0.016012	-0.00928571	-0.005	-0.0107143	0.0164286	0.0114286	0.0328571	-0.0278571	0.0253127	-0.0277974	4.68008e-72	-0.03	0.0128571	0.0192857	0.00642857	0.472339	-0.0335714	0.00785714	0.01	0.0235714	1.09136	-0.0157143	-0.025	0.536933	0.525957	0.00642857	-0.0135714	0.00357143	0.00693766	-0.03	0.00714286	-0.0157143	0.0328571	-0.0342857	-0.0257143	0.0128571	-0.0219045	0.00785714	-0.0142857	-0.01	0.0307143	-0.0128571	0.150589	-0.0264286	-0.03	0.00285714	0.221792	0.00794389	0.126243	-0.015	0.0173418	-0.000999478	0.005	-0.0278571	0.0357143	-0.00571429	0.0142857	0.0228571	0.0328571	0.0292857	0.0285714	0.00357143	0.0142857	-0.00928571	-0.0292857	0.0235714	-0.0321429	-0.0164286	0.0328571	0.0782966	-0.0389293	0.0271429	0.0473287	0.0067364	0.00142857	-0.0178571	-0.0278571	0.0107143	-0.00785714	-0.0185714	0.0314286	-0.0107143	-0.0164286	-0.0342857	-0.00285714	-0.0171429	0.0321429	0.0121429	-0.0307143	0.0285714	0.00308312	-0.00142857	0.0328571	-0.0326582	0.0244249	-0.0328571	0.0084301	-0.00642857	0.0236314	0.00428571	0.0171429	-0.000714286	0.0328571	0.0292857	-0.0314286	-0.00214286	0.0121429	0.0128571	0.01	-0.0321429	0.0292857	-0.0292857	0.0292857	0.0135714	0.00857143	-0.01	0.0284894	0.00428571	-0.0342857	0.00142857	-0.00357143	-0.0278571	0.00142857	0.03	0.0278571	-0.01	-0.00142857	-0.000714286	0.0185714	0.0228571	0.005	-0.035	-0.0142857	0.00142857	-0.005	-0.022599	1.68162e-57	0.00785714	-0.0448285	0.0107143	0.0107143	-0.00428571	0.0164286	0.00428571	-0.0271429	-0.0114286	-0.005	0.005	-0.00642857	0.0335714	0.00714286	-0.00928571	0.00642857	-0.0278571	-0.015	-0.00214286	0.0333912	0.0185714	0.0321429	-0.0178571	-0.0105906	0.000714286	-0.0171429	0.0257143	0.00285714	-0.0214286	0.0157143	0.00428571	0.0221429	-0.0178571	-0.0214286	0.0335714	0.0128571	-0.00357143	-0.0328571	-0.0135714	-0.0142857	-0.00214286	0.0264286	0.015	0.0321429	-0.00285714	-0.00782024	0.00214286	-0.0292857	0.023745	0.035	-0.0314286	-0.0257143	-0.00357143	-0.0135714	-0.02	-0.00142857	-0.03	0.00642857	-0.035	0.0207143	-0.0142857	-0.03	0.00642857	0.00285714	0.0214286	-0.03	0.0164286	0.0185714	-0.0278571	-0.0335714	-0.0321429	-0.0342696	-0.00642857	-0.0164286	-0.0335714	0.0264286	0.0257143	-0.0307143	-0.00214286	-0.0185714	-0.0321429	0.00142857	-0.00857143	-0.0342857	-0.0114286	-0.0278571	-0.000714286	0.0307143	0.0142857	-0.035	0.0157143	0.000714286	-0.0292857	0.0228571	0.005	-0.467612	
0.0278571	-0.015	0.00928571	0.00142857	0.0242857	-0.0221429	0.00696493	-0.0185714	0.0142812	0.0367189	0.0842866	0.0252643	0.065029	0.119516	0.160267	-0.0142857	-0.0271429	0.0337127	-0.0135714	0.000259849	0.0134681	0.021809	-0.00857143	-0.0164286	0.0205364	0.00785714	-0.015	0.0264286	-0.00571429	0.025	0.0578839	0.0235714	0.582036	0.016071	0.679182	0.137228	0.739608	-0.00357143	0.0851367	0.585983	0.0406311	0.0257143	-0.0328621	0.0242857	-0.0520506	0.485811	-0.0498476	0.00428571	0.0286508	0.880109	-0.035	-0.514328	-0.0207143	0.0285714	-0.015	1.55281	0	-0.909313	-0.00857143	-0.005	-0.115926	-0.025	-0.0178571	0.17555	-1.11497	-0.262409	0.474064	0.0107143	-0.335759	0.100189	0.0357089	-0.0235714	-0.11872	0.00785714	0.0357143	0.0379409	-0.354656	0.0865992	-0.0240205	0.0357143	-1.47162	0.015	-0.0342857	0.02	-0.0271429	2.04086	-0.015	-0.0264286	-1.63713	-0.0228571	2.25755	-0.655916	-0.474518	0.0214286	0.0285714	0.259634	-0.00542535	-0.00142857	1.32702	0.37279	1.12084	-0.0178571	2.97704	0.0357143	0.11617	2.2387	-0.025	-0.00428571	-0.0152259	0.025	0.250654	-0.0121429	-0.03	0.0335714	-0.862851	0.0835205	-0.0171429	-2.07737	-0.0128571	2.50341	0.276729	-0.412835	0.0321429	0.0321429	-0.0228571	1.58391	0.603527	0.00642857	1.73051	-0.00857143	0.157526	-0.0242857	-1.31499	-0.578807	-0.025	0.119898	1.20978	0.0221429	0.467113	-0.0307143	0.0107143	-0.01	-0.00785714	-1.29145	-0.440003	0.00214286	-0.005	1.17512	-0.00285714	-0.0171429	0.432093	0.005	1.15033	2.98787	-1.476	0.0221429	0.148822	0.0257143	0.03	0.0285714	-1.6966	-0.155255	0.10277	0.0278571	0.00857143	-1.16797	-0.00785714	-0.00571429	-0.0340266	-4.62437	0.476663	1.57614	0.0121429	-0.00785714	-0.005	-0.662269	1.01981	0.025	0.00714286	0.0278571	-0.546431	-0.01	-0.474207	-0.0178571	-0.278528	0.035	0.005	1.52762	-0.01	0.416933	1.56301	0.00928571	-0.240616	-0.0278571	-0.0335714	-3.71978	0.0462681	-0.00642857	-0.363476	0.0264286	1.09369	0.0357143	-0.0321429	0.0285714	-1.06825	-0.00214286	-0.00714286	0.861851	-0.741743	2.15836	-0.131453	-0.00428571	0.0264286	0.0135714	-0.0214286	0.0307143	1.12167	0.0192857	0.00571429	0.00285714	0.299099	-1.78955	-0.0242857	-0.0214286	0.135774	-0.383323	0.02	-0.0285714	2.48722	0.0221429	-0.212977	-0.231205	-0.0128571	-0.035	0.124228	-0.0207143	-0.00214286	-0.0257143	-0.849051	-0.0142857	-0.20478	-0.015	0.113282	0.791639	-0.000714286	-0.00357143	0.0321429	0.627763	0.0164286	-0.0321429	-0.29291	-0.00142857	0.182831	0.310793	-0.0214286	0.822472	-0.957085	-0.000714286	0.00357143	0.015	-0.463626	-0.0895082	0.00428571	0.00714286	0.37164	-0.0142857	0.692838	-0.000714286	-0.005	0.0278571	0.582294	-0.0307143	0.166543	0.512552	-0.0292857	1.01813	-0.157297	-0.0328571	0.0271429	-0.0797149	0.567131	-0.0271429	0.0142857	-0.094297	-0.0328571	0.348019	0.655626	0.0107143	-0.323837	0.830197	0.01969	-0.0235714	0.0192857	-0.00571429	0.640509	0.0207143	-0.0192857	1.13305	-0.0164286	-0.647016	-0.18661	-0.0321429	-0.0185714	0.0128571	0.101072	-0.0121429	0.0804964	-0.0292857	0.501857	0.0192857	-0.0135714	0.0321429	-0.970386	0.00142857	0.0164286	0.339529	0.0307143	-0.00357143	-0.0307143	0.0221429	0.36617	0.0314286	0.364208	-0.866648	0.915063	-0.286864	0.0192857	-0.0435461	0.0271429	-0.0335714	-0.881552	-0.00785714	-0.0834195	3.447e-72	0.00642857	0.0135714	0.01658	-0.00214286	0.804292	-0.0207143	-0.000273146	0.00642857	1.39784	-0.025	0.00928571	0.732129	0.005	0.00357143	-0.01	-0.119749	0.252907	2.01026	0.0370537	-0.01	-0.03	-0.00214286	0.0107143	0.824169	0.00428571	-0.0328571	-1.98977	-0.57167	-0.005	-0.000714286	0.144908	-0.035	-0.0815179	-0.0235714	-0.785304	1.57498e-67	-0.00857143	-0.02	0.00714286	-0.0328571	-0.0590901	-0.008667	-0.005	-0.00428571	2.14455	0.02	0.842207	0.00928571	0.0264286	-0.0392832	0.783329	0.0314286	-0.0228571	0.00857143	-0.015	-0.0178571	0.568638	1.83317	0.296324	0.00714286	0.0121429	0.0314286	0.0406476	0.0264286	-0.0285714	-2.28034	0.79572	-0.00214286	-0.0135714	0.0328571	-0.0335714	1.43673	-0.0235714	0.0335714	-0.868283	0.0307143	0.0178571	-0.0185714	-0.0307143	0.00785714	-1.36746	-0.0328571	0.54153	0.01	1.51657	-0.0107143	0.140714	-0.0107143	0.00214286	3.66704e-77	0.0314286	1.19084	-0.005	-0.0321429	-0.0314286	-0.0321429	-0.0257143	0.0307143	0.34215	-0.00357143	-0.0230223	-0.0321429	0.00857143	0.17531	-0.0342857	-0.0164286	-0.575588	1.81584	1.29539	0.00357143	-0.00714286	0.0335714	-0.0285714	-0.00285714	0.0605127	-0.0164286	-1.44099	-0.128661	-0.0264286	-0.0121429	0.00214286	0.00571429	-0.0666097	-0.00214286	0.00857143	0.178736	1.66168	-0.0157143	1.08287	0.00285714	0.0157143	-0.00642857	0.00571429	0.025	0.0653803	-0.0278571	-0.0271429	-0.000714286	-0.00857143	-0.0257143	0.00357143	-0.55517	0.154102	0.01	0.0178571	-0.0178571	0.165593	0.00357143	-0.0164286	-0.526308	0.499527	-0.01223	0.282451	-0.005	-0.0171429	0.02	-0.0335714	-0.0157143	-0.0321429	0.00357143	0.120863	0.0185714	-0.00214286	0.0292857	0.00785714	0.0321429	-0.0920421	-0.0185714	-0.00574873	0.0292857	0.0869657	0.0335714	1.15343	7.18582e-58	-0.0264286	0.0314286	-0.0171429	0.00357143	-0.000714286	0.290339	0.00785714	0.0271429	0.0235714	-0.0178571	-0.0142857	0.00714286	0.212107	0.0242857	0.0264286	-0.115321	-0.00857143	0.63637	-0.0107143	-0.00928571	1.06588	1.64657	-0.0135714	-0.0285714	0.116126	-0.0171429	0.00142857	0.00571429	0.0171429	0.015	0.00642857	0.0257143	0.18506	0.0242857	-0.101858	0.0107143	0.0264286	0.00214286	0.268179	0.0135714	0.0192857	-0.0121429	0.18773	-0.0135714	1.06921	0.0121429	-0.00857143	-0.0321429	-0.0114286	0.0157143	0.0307143	0.0321429	0.0145213	-0.0731485	0.00428571	-0.00785714	-0.035	-0.03	-0.00142857	0.0943389	0.02	0.00571429	0.00714286	0.0314286	0.326822	0.000714286	0.00571429	0.132505	0.310381	0.00785714	-0.00142857	-0.0128571	-0.0466237	-0.0164286	0.00857143	-0.0271429	0.0307143	0.035	0.0135714	0.02	-0.0202895	0.00785714	0.0157143	0.0292857	0.0271429	0.0214286	0.0902149	0.0271429	0.0264286	0.0214286	-0.000258762	0.00213829	0.030182	-0.0178571	-0.123661	-0.029226	0.0178571	0.0121429	0.00714286	-0.0142857	-0.0157143	0.00642857	0.00785714	0.0157143	0.025	0.0171429	-0.01	-0.0142857	-0.0178571	-0.0328571	0.00642857	-0.00285714	-0.0242857	0.0282006	-0.0537549	-0.0328571	-0.0138596	0.0138291	-0.005	-0.00142857	-0.035	0.00428571	0.00928571	-0.00928571	-0.0128571	0.0157143	-0.0228571	0.00642857	-0.00785714	0.0192857	0.0271429	-0.0228571	-0.0107143	0.0357143	-0.0176596	0.015	0.0164286	-0.110804	-0.00194073	0.0335714	0.0222952	-0.0278571	0.0304136	0.035	0.0307143	0.0235714	0.00285714	0.00285714	-0.0335714	-0.00142857	0.00214286	0.00357143	0.00428571	-0.025	0.03	0.0264286	-0.00785714	0.00785714	-0.00357143	-0.015	0.0106362	0.0242857	-0.00285714	-0.0192857	-0.0107143	-0.00857143	-0.00357143	-0.03	0.0114286	0.0335714	0.00428571	-0.00142857	-0.0307143	-9.07514e-44	0.0342857	0.000714286	0.0242857	-0.0335714	-0.0328571	-0.0774894	0.000714286	0.00428571	-0.0310563	-0.0314286	-0.02	-0.01	0.03	-0.0271429	0.0328571	0.0278571	-0.00714286	0.0242857	-0.0185714	-0.00928571	0.00571429	0.00642857	-0.0164286	-0.0335714	0.0114286	0.03	-0.00452685	-0.0207143	0.0292857	-0.0292857	-0.110631	0.0278571	0.00642857	0.00571429	0.0292857	0.00857143	0.0328571	-0.00642857	0.0135714	-0.00642857	0.0342857	-0.00571429	0.0185714	-0.00571429	0.00285714	-0.0185714	-0.0142857	-0.00357143	0.00642857	0.00214286	-0.0114286	-0.0235714	-0.111341	0.00714286	0.015	-0.0314377	0.000714286	0.0164286	-0.035	-0.00642857	0.0221429	0.0178571	0.0221429	-0.00785714	-0.0128571	0.0157143	0.0357143	0.0214286	0.01	-0.0214286	-0.0214286	0.00857143	-0.0264286	-0.00214286	0.00357143	-0.0228571	0.0142857	0.0242857	-0.0199149	-0.015	0.0271429	0.0328571	0.0335714	0.000714286	0.00357143	0.0121429	-0.0142857	0.005	-0.00785714	-0.0142857	0.0335714	-0.0221429	0.00428571	-0.0142857	-0.0292857	0.0271429	-0.035	-0.03	-0.0221429	-0.0242857	0.0207143	-0.00857143	-0.181961	
0.0292857	-0.01	0.0235714	-0.0292857	-0.0314286	-0.0228571	-0.0189378	0.0257143	0.00463226	0.0452081	0.0239499	-0.0125787	-0.00385148	0.0430163	-0.0132587	0.0214286	0.0285714	-0.0457048	-0.0157143	-0.041149	-0.00542051	0.00181458	-0.0242857	-0.0264286	-0.0289378	0.0178571	-0.0135714	0.0192857	-0.0321429	-0.0214286	0.0392707	-0.00214286	-0.104139	1.87525	-0.121864	0.830674	-0.0949924	-0.015	0.0802798	0.75253	0.084196	-0.0135714	0.0842283	0.0164286	0.298044	-0.153678	-0.0613469	-0.0221429	0.0157228	0.360024	0.02	0.913372	0.03	-0.00357143	0.0142857	0.89424	0.015	1.62059	-0.015	-0.0164286	0.712299	0.025	0.0164286	-0.104744	-0.482278	-0.362574	-0.436669	0.025	-0.147322	-0.200101	0.0589237	-0.0285714	0.209831	0.0178571	0.0228571	0.131244	-0.458287	-1.31478	0.0172095	0.0121429	-0.21724	-0.0342857	0.0178571	-0.0271429	-0.00285714	-0.731125	-0.0242857	0.0128571	0.271899	-0.00428571	-0.0975896	-0.0526242	0.167088	-0.0228571	-0.0321429	0.60157	0.0172918	0.035	0.650987	-1.47137	-0.360576	0.0314286	0.502292	0.00928571	0.0522875	-0.094436	-0.0235714	0.00357143	0.0356504	-0.00642857	-1.09092	0.00714286	-0.00571429	-0.00214286	-0.637683	0.363774	-0.005	0.181641	-0.0314286	-0.0189936	0.901452	-1.01766	0.01	-0.025	0.0128571	1.13923	-0.573299	-0.0235714	-0.0162321	0.0114286	0.427462	-0.0307143	0.557969	-0.49839	-0.0207143	0.0329355	-0.565868	0.0278571	-0.966972	-0.0128571	-0.015	0.00142857	0.0292857	0.0427489	-0.228086	-0.0257143	0.00714286	-0.741171	0.00214286	-0.0235714	0.23347	0.0264286	-0.793554	0.195501	0.116968	0.0257143	0.564597	0.0171429	-0.0342857	0.0214286	0.326801	-0.337091	0.125378	0.0335714	-0.0221429	-2.23203	0.0171429	0.00928571	-3.04225e-05	1.06974	0.378881	-0.443036	-0.03	-0.01	-0.00214286	-0.428593	0.62087	-0.0314286	-0.000714286	0.00285714	-0.709605	0.0228571	0.507802	-0.00714286	-0.292996	0.03	0.02	-0.858217	0.0107143	0.350554	-0.369044	0.00428571	0.636436	0.00785714	0.00142857	1.67489	0.0787538	0.02	0.401396	-0.0242857	0.690659	-0.0114286	0.0307143	0.0285714	0.10335	-0.00714286	-0.00214286	0.207132	0.4211	0.254908	-0.825177	0.015	0.0185714	-0.025	0.00857143	-0.0321429	0.0283163	-0.00785714	0.0328571	-0.02	-0.191203	0.919275	0.0192857	0.02	0.137291	-1.16313	0.00428571	0.0357143	-1.02092	0.0335714	-0.631193	-0.108531	0.0228571	0.00642857	0.723056	-0.0335714	3.66173e-87	-0.0171429	0.394741	-0.00214286	-0.330169	-0.00142857	0.836146	0.105308	0.00857143	0.02	0.00142857	0.973302	-0.0235714	0.035	-0.224862	-0.00857143	0.126575	-0.327667	0.0121429	0.684843	1.81734	-0.02	-0.000714286	-0.0314286	0.851079	0.0217274	0.0335714	0.00142857	-0.169023	0.0185714	-0.371335	-0.0164286	0.00285714	-0.0135714	-0.161017	-0.0171429	-1.14697	0.116166	0.0164286	0.0104094	-0.0554796	0.0192857	0.00857143	0.0364904	0.108607	-0.0342857	-0.0185714	0.040415	0.015	0.260107	0.264127	-0.0221429	0.019212	0.533636	-0.0171412	-0.0121429	0.01	-0.0207143	0.427537	-0.00642857	-0.00142857	0.476655	-0.0221429	-0.244239	0.669745	-0.00428571	-0.0171429	-0.0321429	0.387377	0.000714286	0.632815	-0.0342857	0.146466	-0.0292857	0.0271429	-0.0321429	-0.674384	0.00928571	0.00142857	0.868383	0.00142857	-0.00142857	-0.0335714	0.0121429	0.218793	-0.0164286	0.0473319	-1.11355	0.819768	-0.426095	0.000714286	0.0365908	-0.0142857	0.0142857	0.521491	-0.0321429	-0.0168838	0.0192857	-0.0292857	-0.00142857	0.0470534	0.00428571	-0.31486	-0.0292857	0.969096	-0.00928571	0.0510442	0.02	0.00142857	-0.00810552	-0.0285714	0.00357143	-0.025	-0.0162873	-0.480219	0.891878	-0.634474	0.015	0.0135714	-0.00571429	-0.03	0.716527	-0.00714286	0.0285714	-0.471928	-0.206742	0.0314286	-0.0321429	0.210206	0.00285714	0.0115301	-0.00142857	0.539345	0.00214286	0.00428571	-0.0185714	-0.00571429	0.0164286	-0.0735272	0.0220027	-0.00714286	0.00928571	1.27978	0.00357143	0.0766116	-0.0214286	-0.0235714	0.0200523	-0.715016	0.025	-0.0278571	9.75543e-44	0.00428571	-0.0342857	0.376905	0.59637	0.330287	0.0242857	-0.0328571	-0.0264286	0.188211	-0.03	-0.0271429	1.00596	0.137639	-0.0214286	0.0157143	0.00214286	0.03	0.902713	0.0335714	-0.0135714	0.49394	-0.00428571	-0.00928571	0.0114286	0.00928571	0.00214286	-0.736455	-0.0328571	0.344427	0.0335714	-0.463246	0.0335714	0.141875	0.0321429	0.0335714	0.0307143	-0.0142857	0.224387	0.005	-0.0228571	0.00642857	0.0128571	0.0114286	-0.0192857	0.326485	-0.00857143	0.0231863	0.02	0.00857143	0.458742	-0.0292857	-0.035	1.32709	-0.332235	-0.0250687	0.0221429	9.38904e-73	-0.035	-0.01	-0.00785714	0.0297938	-0.00642857	0.0551156	0.00795869	0.0264286	-0.0135714	0.0292857	-0.0235714	0.579176	-0.00214286	0.0257143	0.315022	0.156093	0.00142857	-0.721921	0.00214286	-0.00642857	-0.00571429	-0.0135714	0.00285714	0.902858	0.0292857	0.00357143	-0.0135714	0.0264286	0.0164286	0.00928571	0.421232	0.0830524	0.0342857	-0.0171429	-0.02	-0.496889	0.00785714	-0.0207143	0.0254875	0.716984	-0.0243573	0.272622	-0.0178571	-0.0285714	-0.0142857	0.0142857	0.0185714	0.0221429	0.0242857	0.363036	-0.0207143	-0.0178571	-0.0285714	0.0178571	0.0278571	-0.0654963	0.0221429	0.0150795	-0.00785714	0.118541	-0.0121429	1.245	0.0192857	0.0235714	0.00142857	0.035	0.0157143	0.01	0.234106	-0.00142857	0.00571429	-0.0121429	0.03	-0.0107143	-0.00571429	0.297097	-0.0328571	-0.0235714	0.0118451	-0.00785714	-0.238091	-0.0164286	0.01	0.0839349	0.200047	-0.0328571	0.00571429	0.152585	-0.0164286	0.0328571	-0.00928571	0.00642857	-0.0207143	-0.0264286	0.0307143	0.110154	0.00928571	0.0207761	-0.00785714	-0.0121429	0.01	0.439068	0.0114286	-0.03	0.0235714	0.255789	-0.015	0.478075	-0.0157143	-0.0114286	0.0185714	-0.0185714	0.00714286	0.0292857	-0.015	0.000412347	0.00760077	0.0257143	0.0328571	0.0164286	-0.0121429	-0.0128571	0.155378	-0.0314286	0.0335714	0.0185714	-0.015	0.11209	-0.00714286	-0.0214286	0.134593	0.0823517	0.0128571	0.00785714	0.00857143	-0.0297122	0.015	-0.00571429	-0.00785714	0.0342857	0.0185714	-0.0257143	-0.0207143	0.0264056	0.005	-0.0342857	0.035	-0.0335714	-0.00785714	0.00278616	0.0178571	-0.0185714	-0.0142857	-0.057828	-0.0141648	-0.0577612	-0.0128571	-0.0191841	-0.00848874	-0.0192857	0.0214286	-0.0135714	0.02	-0.00214286	0.0292857	0.0292857	-0.00142857	-0.0257143	-0.0121429	-0.00857143	-0.0278571	-0.03	0.00142857	0.0242857	0.0314286	-0.03	-0.00648677	0.00438413	-0.0285714	-0.0238437	0.028554	-0.01	4.87977e-39	-0.0221429	0.03	0.02	0.0328571	-0.0185714	-0.00785714	-0.0135714	0.0342857	-0.0228571	-0.0257143	0.0178571	-0.0235714	0.00428571	0.0114286	-0.0230926	0.0135714	0	0.0129587	0.0217865	0.005	0.00483233	-0.025	-0.0342842	-0.0242857	0.000714286	0.0342857	0.0192857	0.0192857	-0.00785714	-0.0271429	-0.0164286	-0.0292857	-0.0335714	0.00428571	-0.0328571	0.02	0.0314286	0.0257143	0.0185714	-0.0271429	0.0368294	-0.0342857	-0.0157143	-0.0307143	-0.0221429	-0.005	0.0178571	0.0128571	-0.00142857	0.00285714	-0.0185714	-0.0328571	0.0128571	0.02	-0.0221429	0.0142857	-0.0164286	0.0321429	-0.00214286	0.0181115	-0.0314286	-0.0178571	0.0229906	0.00785714	0.0214286	-0.0157143	-0.00857143	-0.0171429	0.0107143	0.0107143	-0.00928571	-0.0242857	0.0121429	-0.0242857	-0.02	0.025	-0.0285714	0.0328571	0.00214286	0.00571429	-0.0337289	-0.0157143	0.00785714	-0.0207143	0.0147039	-0.0128571	0.0292857	0.0235714	-0.0171429	0.0278571	-0.00214286	0.0242857	-0.0264286	0.015	-0.00428571	0.03	6.28241e-63	-0.0121429	-0.0235714	0.0121429	0.0342857	-0.0321429	0.0228571	0.01	0.0157143	0.00357143	0.044583	0.0228571	-0.0342857	0.00309891	0.0292857	-0.0335714	-0.0128571	-0.0335714	0.0185714	0.0271429	-0.0114286	0.0114286	0.015	-0.0271429	-0.0314286	0.0135714	-0.00214286	-0.0228571	0.03	0.0285714	0.00785714	0.0307143	0.0171429	-0.0142857	0.00642857	0.015	-0.00832655	0.03	0.0257143	0.00571429	0.0342857	-0.00857143	0.0292857	0.0357143	0.0278571	0.0221429	0.00285714	0.0157143	-0.0107143	-0.015	0.00714286	-0.0207143	-0.00285714	0.0228571	0.0242857	0.000714286	-0.0342857	-0.0142857	-0.0214286	0.0307143	-0.0976665	
0.0221429	-0.00857143	-0.00428571	-0.0285714	-0.00142857	0.0121429	0.0321685	-0.00714286	-0.0356808	-0.0595493	0.0887882	0.155393	-0.0248139	-0.231556	-0.344445	-0.0171429	-0.00571429	0.0031852	-0.0264286	-0.0444022	-0.0393854	-0.019115	0.0128571	-0.00357143	-0.0242601	0.0142857	-0.00214286	-0.00357143	0.0285714	0.0292857	-0.131574	-0.02	-0.0184628	-1.65287	-0.0420694	-0.764392	-0.0145147	0.0192857	-0.0257121	-0.462843	-0.0187916	0.00357143	0.0192734	-0.0171429	0.00381636	0.770627	-0.0294732	-0.01	0.059969	0.151439	0.005	0.222488	-0.00142857	0.0185714	-0.0228571	-0.996984	-0.00285714	-0.255463	0.00642857	0.0264286	-0.0728234	-0.0178571	-0.03	0.00708772	-2.06685	-0.228283	0.00699474	0.00857143	-0.45569	-0.0239376	-1.0407	-2.56443e-87	-0.0884985	-0.0242857	0.0185714	-0.072344	0.544143	-0.404777	0.00545044	0.0228571	0.195645	0.0121429	0.00285714	0.0307143	-0.00571429	-1.34173	0.00642857	-0.00785714	0.0696612	-0.0235714	0.268554	0.563818	0.404827	0.0242857	0.0164286	0.839445	1.48926	-0.0121429	-1.07849	-0.0815563	-0.0960493	0.0235714	0.409664	0.0264286	-0.52629	0.529379	-0.0285714	-0.0192857	-0.0382145	-0.0221429	0.836173	-0.00285714	0.025	-0.0292857	0.769832	-0.386588	0.0214286	0.270495	-0.0235714	1.79953	0.278895	-0.715401	0.00428571	-0.03	0.0192857	0.0671067	-0.638844	-0.0342857	-0.567202	0.0185714	0.168083	0.0142857	0.210368	0.00198959	0.005	-0.494173	-0.460871	-0.0228571	0.0541321	0.00571429	-0.01	-0.00571429	-0.0328571	1.3432	1.08021	0.0307143	0.000714286	1.29491	-0.00642857	-0.0221429	-0.786286	0.00428571	-2.25477	0.170733	0.486298	-0.00642857	0.565131	-0.035	0.0314286	-0.00142857	2.93742	0.694012	-0.1575	-0.00857143	0.0178571	1.46335	-0.0342857	0.0242857	0.0291327	1.17544	1.14943	1.24971	-0.015	0.0335714	-0.0342857	-0.367872	1.61205	-0.0328571	-0.0278571	0.0221429	1.63965	0.00714286	-1.59558	0.0257143	0.565704	-0.0328571	0.02	-0.278413	0.00428571	-0.644256	-0.980789	0.0235714	-0.205106	0.0107143	0.0164286	0.301177	-0.136781	0.0171429	0.542987	0.0214286	1.03883	0.00857143	-0.0285714	0.0285714	-0.281169	-0.0278571	-0.0214286	0.237667	-1.59677	-0.135196	0.0142283	0.0278571	-0.00571429	0.0121429	-0.0171429	0.00571429	-0.674939	-0.0328571	0.00571429	-0.0178571	1.09586	0.427824	-0.03	0.025	-0.349445	-0.740622	0.0142857	0.00714286	-0.913868	0.0285714	-0.331749	1.24761	0.00142857	0.00142857	0.188949	-0.0292857	0.00928571	0.0207143	0.0841203	-0.015	-0.0930974	0.0257143	-0.350107	-1.40829	0.00142857	-0.00285714	-0.0271429	-0.42414	-0.035	0.0142857	0.331685	-0.0164286	-0.319784	0.465374	0.00928571	0.297861	-1.94064	-0.0128571	-0.0307143	-0.00642857	-0.935932	-0.075164	0.00571429	-0.0185714	0.501708	-0.0235714	-0.623629	-0.025	0.0328571	0.0292857	0.0274607	-0.03	-0.0702847	0.126424	-0.0257143	-0.284069	0.23572	0.02	-0.035	-0.0710494	-0.265732	0.0342857	-0.00785714	-0.0827289	0.00357143	-0.0207079	0.526827	0.0285714	1.23982	-1.72636	0.0172432	-0.0321429	0.0214286	0.03	0.201081	0.0214286	-0.03	-0.893002	0.0321429	-0.880378	-0.837603	0.0278571	-0.025	-0.0142857	-0.729365	0.0214286	-0.355017	0.01	-0.361172	0.00785714	0.0185714	0.00357143	-0.203068	-0.025	0.0207143	0.203841	-0.025	0.000714286	0.00285714	0.035	0.236847	0.0271429	1.28933	0.813198	0.289977	1.41936	-0.00785714	-0.0210468	-0.00285714	0.025	-0.114266	0.0357143	-0.0577092	0.00642857	-0.015	-0.015	-0.0137932	0.0285714	-2.22718	-0.00214286	-0.286295	-0.0221429	-0.325943	0.00714286	-0.0121429	0.193343	-0.0185714	0.0357143	-0.0142857	-0.093816	-1.35465	-0.434257	-0.124425	-0.0328571	-0.0207143	-0.00214286	-0.00928571	1.66812	0.0242857	-0.0114286	0.659465	0.012139	-0.0121429	-0.0207143	-0.281269	-0.0257143	-0.0799327	-0.0157143	0.805222	0.03	0.0171429	-0.0328571	-0.0285714	-0.0171429	-0.250467	0.312853	-0.0321429	-0.00785714	-1.8161	0.0257143	0.891085	-0.005	-0.00214286	-0.0180802	0.902359	0.0121429	-0.0114286	0.0228571	0.02	0.0142857	-0.368757	-0.112286	-0.261834	0.0357143	0.0307143	-0.00785714	0.0116236	-0.00642857	0.0114286	0.370939	-0.0293755	0.0292857	0.015	0.0307143	-0.0242857	-3.08778	0.0264286	0.0164286	0.290059	0.0214286	0.00571429	0.0328571	-0.02	-0.0321429	0.688194	-0.0221429	-1.92103	0.0135714	0.00219479	0.0357143	-0.145539	-0.0214286	0.0157143	0.0285714	-0.0221429	1.22981	-0.0157143	0.0242857	0.00428571	-0.00357143	-2.18121e-58	-0.00785714	-1.28976	-0.0214286	-0.0175067	-0.0335714	-0.0321429	1.57706	0.0178571	-0.015	0.858033	1.70193	-1.46313	-0.0192857	-0.00714286	0.00571429	0.0314286	0.00928571	-0.117597	-0.00285714	-0.964599	-0.0670756	0.0107143	-0.00857143	0.005	-0.0107143	0.196042	0.0242857	-0.0228571	-1.09853	0.683613	0.0128571	0.797577	0.0121429	0.0264286	-0.0114286	0.0135714	0.03	1.60962	0.0321429	0.0157143	-0.0321429	0.0207143	-0.00214286	0.0207143	-0.32824	-0.0522986	0.0157143	0.0214286	-0.0114286	1.15462	0.0314286	0.0357143	-0.120035	0.207325	-0.0231601	-0.952023	-0.0107143	0.03	0.0278571	0.0321429	0.0157143	-0.03	0.0342857	-2.32305	0.0321429	-0.0135714	0.00642857	-0.00857143	0.0257143	-1.03867	0.00785714	0.0279476	0.0235714	-0.0705456	-0.0207143	0.473992	-0.0257143	0.03	-0.0128571	-0.00214286	-0.0264286	0.0192857	-0.796127	0.0335714	0.00642857	0.00285714	0.0128571	-0.00285714	-0.00357143	-0.558728	0.03	0.0128571	-0.0604857	0.0278571	0.238072	-0.0285714	-0.0214286	0.539727	-0.167334	0.005	-0.0185714	-0.234701	0.035	-0.0307143	-0.0235714	-0.0221429	0.00642857	0.0235714	0.00857143	-0.926234	-0.015	-0.0617637	-0.0221429	-0.0164286	0.015	-1.38752	0.0221429	-0.00857143	0.0171429	-0.612776	-0.00285714	0.513417	0.0335714	-0.0285714	0.00285714	-0.0314286	0.015	-0.0178571	-0.0178571	-0.0392617	-0.0878401	-0.00142857	-0.0157143	-0.0128571	-0.0314286	0.0335714	-0.835286	0.01	0.0207143	-0.0278571	0.00571429	-0.5817	-0.00928571	0.0185714	-0.886375	0.358924	-0.0328571	0.0114286	-0.00142857	-0.0501523	-0.00571429	0.0314286	0.0321429	-0.00857143	0.00357143	0.0357143	0.0321429	-0.0184056	0.0192857	-0.0221429	-0.00285714	-0.0285714	-0.0221429	-0.224611	0.0307143	-0.0185714	-0.02	-0.650992	-0.0136924	0.0513624	-0.0328571	-0.0456471	-0.040423	0.03	-0.0185714	0.0321429	5.57497e-77	0.0207143	-0.0271429	0.0342857	0.00714286	0.00285714	0.0292857	0.00285714	-0.005	0.0335714	-0.0314286	0.0285714	0.0164286	-0.0114286	-0.140985	-0.0901335	0.0321429	0.000822139	-0.00447287	0.0264286	0.00285714	-0.0235714	0.0214286	0.0307143	0.0128571	0.0235714	-0.00642857	-0.015	0.0178571	-0.0242857	-0.0185714	0.0185714	-0.00285714	-0.0107143	0.0164286	-0.0407851	-0.00714286	-0.025	-0.107076	-0.0135213	-0.0278571	-0.024441	-0.0185714	-0.00883519	-0.035	0.0235714	0.00285714	0.0321429	0.00785714	0.0335714	-0.0121429	-0.0257143	-0.0264286	-0.0271429	0.00571429	-0.0128571	0.0321429	1.98306e-62	0.00714286	-0.0207143	-0.0235714	-0.0250609	0.0328571	0.00857143	-0.02	-0.0207143	0.0121429	-0.0264286	0.0264286	0.02	-0.00214286	6.97116e-48	-0.00357143	-0.02	0.025	-0.00285714	0.005	-0.00857143	0.03	-0.0235714	-0.0322961	-0.0178571	0.0228571	-0.0514608	0.0271429	0.0292857	0.0221429	0.0228571	0.03	0.03	0.00285714	-0.03	-0.0164286	-0.0342857	0.0135714	-0.00142857	0.0171429	0.0271429	-0.0271429	0.00714286	0.0107143	-0.0322235	-0.0292857	0.00785714	-0.0128571	-0.079671	0.00571429	0.0271429	-0.0114286	-2.16286e-78	0.00428571	-0.0221429	-0.0171429	0.0278571	0.0128571	-0.0264286	0.0207143	0.0357143	-0.00214286	0.0142857	0.03	0.00142857	-0.015	0.0142857	-0.0321429	0.0342857	0.0135714	-0.0495501	0.025	0.0214286	0.0154723	-0.035	0.0285714	9.04356e-53	0.00785714	0.0171429	0.0321429	-0.0221429	-0.0264286	-0.0157143	-0.0214286	-0.0207143	-0.00214286	0.0335714	-0.0292857	0.0114286	0.00785714	-0.00714286	-0.0228571	-0.0307143	0.00785714	-0.0292857	-0.0278571	0.00424447	-0.0142857	-0.025	-0.00785714	0.0342857	0.0307143	0.0178571	-0.015	0.0228571	0.0178571	-0.0221429	-0.0135714	0.0264286	-0.00428571	0.0192857	0.005	0.00428571	-0.0321429	-0.0157143	-0.0157143	-0.0335714	0.0185714	-0.00928571	-0.0214286	-0.433935	
-0.0157143	-0.00928571	0.0321429	0.0271429	-0.00357143	-0.0321429	0.0200517	0.0171429	-0.0197214	0.0384871	0.0595824	0.0975715	0.0587708	0.191495	0.153051	0.0121429	-0.02	0.0253133	-0.0314286	-0.0531648	-0.124993	-0.00967975	0.0157143	-0.0271429	-0.0049483	0.0357143	-0.0257143	-0.0235714	0.0271429	-0.0121429	-0.00743756	-0.025	-0.0425343	-0.612656	0.122879	1.80404	0.274839	-0.0135714	0.162485	-0.191852	0.028559	0.0114286	0.062845	-0.00857143	0.0916023	-0.713259	-0.0162883	0.0285714	0.0182604	-0.326646	-0.0314286	-0.113851	-0.0192857	0.02	0.0264286	0.0883483	-0.015	0.549203	0.0242857	-0.0242857	0.331333	0.0278571	-0.0142857	1.42734	1.49657	0.639746	1.00956	0.0321429	1.437	0.0140526	0.757028	-0.0285714	0.137368	0.00928571	-0.00214286	0.047652	-0.200303	0.576594	-0.00521168	0.0135714	-1.2282	-0.00214286	-0.00428571	-0.00928571	0.0185714	0.344368	-0.0328571	-0.0328571	0.117877	0.0264286	0.730174	-0.163436	-0.172026	0.0357143	0.0164286	-0.200468	0.00303296	-0.00214286	1.17384	0.179892	-0.0408218	0.0228571	0.27027	-0.00285714	0.070568	0.903041	0.0335714	0.0328571	0.00794361	0.0285714	-0.173522	0.0135714	-0.01	0.00642857	-0.2246	-0.603895	0.0271429	1.53186	0.0114286	-0.00698453	0.518805	0.205363	0.0242857	0.0164286	-0.0107143	-0.339592	0.346845	-0.0242857	-0.210257	0.000714286	0.178487	-0.0235714	-0.62856	0.0739461	0.00857143	-0.0152584	-0.113479	-0.0278571	0.290807	-0.0178571	0.0357143	0.0285714	-0.00357143	1.27925	-0.62627	-0.0342857	0.0335714	-0.166958	0.00785714	0.00857143	-0.106777	0.00642857	0.575301	0.962116	0.174313	-0.0135714	0.107627	-0.02	0.0342857	0.000714286	0.0439679	0.372418	-0.614368	-0.0307143	0.0185714	0.608236	0.025	-0.00285714	-0.00579587	0.748078	-1.00184	0.321129	-0.035	0.0114286	-0.0164286	-0.198843	-0.127479	0.0178571	-0.01	-0.0157143	-0.671712	-0.005	1.18055	0.0242857	-0.645145	0.0135714	0.0114286	-0.505452	-0.00571429	-0.431723	0.237663	0.0107143	-0.179872	-4.19302e-67	0.015	-1.13646	0.0193674	-0.03	-0.929006	-0.0192857	0.695241	-0.0242857	-0.0242857	-0.0228571	0.0276126	0.0314286	-0.0228571	-0.280186	2.28145	-0.13238	-0.12717	0.00428571	-0.00142857	0.0107143	0.03	-0.0121429	0.0552303	0.005	0.00857143	0.0207143	-0.223849	-0.69857	-0.005	-0.00285714	0.0560151	0.345743	0.0328571	-0.0157143	-0.519857	0.0285714	0.738976	-0.44323	-0.0314286	-0.0228571	0.207621	0.0264286	-0.0278571	-0.015	-0.837648	-0.0135714	0.631202	0.0107143	-0.0511183	0.325876	0.0221429	0.02	-0.0228571	-0.770305	0.0257143	-0.0135714	0.846133	-0.0285714	-0.0402597	0.0271525	0.00357143	-0.66208	-0.0854582	-0.0342857	-2.20198e-62	-0.0164286	0.204037	0.00511235	0.0128571	-0.000714286	0.12819	-0.0164286	0.100942	0.0242857	-0.03	0.0157143	-0.102743	0.0307143	0.552572	0.543312	-0.0142857	-0.241331	-0.00857175	-0.00214286	-0.0121429	0.0160101	0.16555	-0.0164286	-0.0157143	-0.0289635	0.01	-0.333203	0.873311	-0.0228571	0.0965149	-0.263839	-0.00401057	0.0207143	-0.0128571	-0.0271429	0.197052	-0.0321429	0.0285714	0.745073	0.0271429	0.312231	0.0323851	0.00214286	-0.00571429	0.0185714	-0.156516	0.015	0.346432	0.025	-0.0197858	0.0178571	-0.0335714	-0.00214286	0.843994	-0.0142857	0.000714286	0.397582	0.01	-0.0142857	0.0264286	0.035	0.452936	-0.0142857	-0.501416	0.0790968	0.612212	-0.429281	0.0307143	-0.01296	-0.0221429	-0.0128571	-0.714109	-0.0314286	0.0286685	-0.0214286	0.0221429	-0.00642857	-0.0281376	-0.0185714	0.786603	0.00714286	-0.376352	-0.0128571	-0.218969	-0.0335714	0.00785714	0.940851	0.0157143	0.0185714	0.0278571	0.00961207	1.30249	0.412819	-0.144605	-0.0342857	0.0264286	-0.0128571	0.00428571	0.0779237	-0.0257143	0.0171429	0.370722	0.341784	0.0214286	0.035	-0.0210075	0.00714286	0.0331682	-0.0314286	-0.35541	0.0121429	-0.0235714	0.025	0.0342857	0.0171429	0.19295	-0.531449	0.025	-0.0285714	1.12205	0.0171429	-0.448742	-0.0271429	0.015	0.00793067	0.93692	-0.0292857	0.0278571	0.0135714	-0.00714286	-0.0342857	0.65635	-0.715528	0.00851323	-0.0178571	0.00142857	0.00714286	0.477197	0.0314286	0.0107143	-0.0875357	-0.308167	-0.0121429	-0.0335714	-0.0285714	0.00571429	0.0894577	-0.0214286	-0.005	0.79208	0.005	-0.0242857	-0.02	0.0128571	-0.00857143	-0.504355	-0.0121429	1.06165	-0.0221429	-0.00801695	0.0257143	0.0293823	-0.00285714	0.0292857	0.0128571	0.015	-0.543469	-0.0157143	-0.0307143	0.0264286	-0.00428571	0.0192857	-0.00285714	0.847343	0.0214286	-0.0286661	0.0257143	0.0164286	0.292761	-0.0157143	0.0178571	-0.105334	-0.418649	1.22753	0.00285714	-0.0121429	0.02	-0.00857143	-0.0135714	0.00485703	0.0285714	0.850218	0.0188825	0.0271429	-0.0314286	-0.00785714	-0.0285714	0.0369723	-0.0228571	-0.0242857	0.830466	0.0616055	0.03	0.00633835	-0.00642857	-0.0192857	-0.00642857	-0.0164286	-0.00214286	0.887401	-0.0314286	-0.02	0.00428571	-0.035	0.0135714	-0.0285714	0.291058	0.0326152	0.035	-0.025	-0.00285714	-0.867301	0.0228571	-0.0235714	-0.0846542	-0.508129	-0.0293692	0.171996	0.0278571	0.0185714	-0.0328571	-0.0178571	0.0271429	-0.00214286	0.00571429	0.450331	0.0142857	0.0342857	0.00357143	0.0128571	0.0128571	0.808535	0.0278571	-0.0192551	-0.0271429	-0.0149585	0.0242857	0.258107	-0.03	0.0235714	-0.0257143	-0.0321429	-0.0192857	0.0321429	-0.0861201	-0.0342857	0.025	0.0207143	-0.00857143	0.0164286	0.00285714	0.427035	0.0335714	-0.00571429	-0.00440264	0.00357143	0.870699	0.00714286	0.00142857	0.45522	0.192249	0.015	-0.00785714	0.000582135	0.0314286	-0.0335714	-0.015	-0.015	-1.53542e-57	-0.01	-0.0278571	-0.0526519	0.0307143	0.0288672	-0.0285714	0.0107143	0.0257143	0.513432	-0.00428571	0.0178571	-0.0221429	0.426826	0.0121429	0.263548	-0.00571429	0.00571429	-0.02	0.00928571	0.0135714	-0.0178571	-0.00571429	0.0276892	0.036602	0.0221429	-0.0242857	-0.00642857	0.0235714	-0.00428571	0.102301	0.0242857	-0.0128571	-0.0128571	0.035	-0.247905	0.0128571	0.00785714	0.191346	-0.176247	-0.0307143	0.0235714	-0.0157143	-0.0160993	-0.0128571	-0.00214286	0.03	-0.0178571	-0.0328571	0.0107143	0.0271429	-0.0185595	0.0285714	-0.015	0.0157143	-0.00928571	0.00785714	0.0821676	0.0192857	-0.005	0.0228571	-0.250422	0.0210353	-0.0653083	0.0214286	0.0231682	-0.00656201	-0.00142857	-0.00928571	0.0214286	0.00214286	0.0321429	0.00857143	-0.0128571	-0.0214286	-0.00357143	0.02	0.00928571	0.0142857	-0.0121429	-0.0157143	-0.0292857	0.005	0.0135714	0.101209	-0.0123821	-0.0321429	0.0409795	0.0111246	-0.0121429	-0.00428571	-0.00214286	0.0221429	0.0171429	-0.0271429	0.00785714	0.000714286	0.000714286	0.00714286	-0.00785714	-0.0142857	-0.0271429	-0.0114286	-0.00428571	0.0321429	-0.0316843	-0.00714286	-0.0178571	-0.0182604	0.00799471	0.005	0.0353708	0.0135714	0.0132086	0.0114286	-0.0285714	-0.00428571	0.0142857	0.00642857	0.00785714	-0.0342857	0.00285714	0.00714286	-0.0107143	-0.0157143	-0.0192857	-0.00214286	-0.0142857	-0.0178571	-0.0314286	-0.0214286	0.00427456	0.0135714	-0.0321429	-1.74544e-33	0.00928571	0.00785714	-0.00642857	0.0264286	0.0214286	-0.0342857	0.0328571	0.0192857	0.0142857	-0.0271429	-0.005	-0.0135714	-0.03	0.01	-0.00642857	0.0157002	-0.0228571	0.0321429	0.0232364	0.00142857	0.0171429	-0.035	0.0342857	-0.0335714	-0.0171429	-0.0335714	0.0171429	-0.0128571	-0.0192857	0.0207143	0.0221429	-0.00928571	-0.00785714	-0.0207143	-0.0185714	-0.0228571	-0.019786	0.015	-0.00214286	-0.00428571	-0.00769896	-0.00642857	-0.0171429	-0.00642857	-0.0328571	0.0121429	0.00785714	-0.0207143	-0.0264286	-0.00785714	-0.0185714	0.0257143	-0.00714286	-0.0207143	-0.00714286	-0.0235714	0.0178571	-0.0264286	-0.00142857	0.0335714	0.0292857	-0.0157143	0.0291229	0.0228571	0.0357143	0.00849913	0.000714286	0.0171429	-0.0135714	0.0335714	0.0135714	-0.0242857	-0.00928571	0.0314286	0.005	0.0307143	-0.0271429	0.0135714	0.0107143	-0.0185714	0.00642857	0.0278571	-0.0292857	2.91932e-69	-0.0292857	0.0357143	0.0114286	-0.01	0.0119066	-0.0264286	0.0242857	0.00357143	0.03	0.0135714	0.0271429	-0.00428571	-0.015	-0.00785714	-0.0235714	-0.0278571	-0.0107143	-0.00928571	-0.0164286	-0.0185714	0.0228571	-0.0107143	-0.0242857	0.0314286	-0.0335714	0.0214286	-0.0235714	0.00785714	0.568798	
0.02	0.00928571	-0.015	0.0192857	-0.0157143	0.01	-0.00639781	-0.00642857	0.0348839	-0.00243397	-0.0502263	-0.0435827	-0.0921501	-0.0449926	0.0241535	-0.0178571	-0.005	0.00642541	0.00714286	-0.00651024	0.0392904	-0.00869683	-0.0264286	-0.0221429	3.07555e-05	0.00571429	0.0164286	0.0221429	0.0171429	0.025	0.0821684	-0.0335714	-0.00189887	-0.350737	0.0766337	-2.46062	0.153443	-0.0185714	0.0586413	-0.054712	0.00223098	0.0342857	0.0277344	0.00571429	0.0535748	0.11337	0.0495872	-0.0221429	-0.0705018	-1.61488	0	-0.784033	-0.0164286	-0.0257143	0.0164286	0.14714	0.015	0.609124	0.00785714	0.0328571	0.456366	0.00785714	0.000714286	0.422838	-1.72157	0.141403	0.231509	0.0271429	-0.992504	0.0617815	-1.30391	-0.0157143	0.270699	0.0314286	-0.00928571	0.145455	0.206993	-0.949514	0.0121991	0.0157143	0.120289	0.0107143	0.0171429	0.0307143	-0.0142857	-1.35059	-0.0207143	0.00142857	0.863058	0.0221429	-1.03882	1.59056	0.158722	-0.000714286	-0.000714286	-1.21195	0.684517	-0.0342857	-0.00928742	0.522913	1.0508	-0.0328571	0.404264	-0.00571429	-0.0029074	1.93215	0.0257143	-3.43117e-76	0.0128507	-0.035	0.161008	0.0278571	0.0107143	-0.00285714	1.03849	0.732574	-0.005	0.354585	0.0335714	-1.95581	-0.34388	1.42077	0.00571429	0.02	-0.00428571	0.249806	0.650066	-0.0171429	-1.9415	0.025	-0.096306	-0.0128571	0.961673	-0.345301	-0.0178571	-0.0112197	0.21864	-0.0278571	0.883567	-0.03	-0.0278571	-0.0278571	0.0335714	1.05754	-2.17331	-0.0142857	0.0164286	0.893228	-0.0107143	0.0142857	0.333732	-0.0214286	0.623386	1.36409	1.20697	-0.03	1.15103	0.00857143	-0.0121429	-0.0271429	-0.618715	0.0906161	0.280626	0.025	0.0185714	-1.79657	-0.0207143	-0.0292857	-0.0143187	-0.403703	-0.00653315	0.818078	-0.0207143	0.0107143	-0.0221429	-0.06338	2.67438	0.03	-0.0142857	0.0214286	0.30689	0.0128571	2.97617	0.0192857	-0.266558	0.035	0.0242857	-0.91182	0.00714286	0.445205	0.514766	-0.0321429	0.674548	-0.0185714	-0.00642857	-2.08957	-0.0231978	0.00857143	1.45206	-0.0185714	-0.298554	0.0157143	0.0121429	-0.00714286	-0.662896	0.0257143	-0.0221429	-0.223922	3.34045	-0.80419	0.908062	-0.00642857	0.0128571	-0.0257143	0.0135714	0.0221429	-0.233743	-0.0328571	-0.00214286	-0.0192857	-0.123447	-1.07487	0.0207143	-0.00714286	0.00333185	0.587469	0.0235714	-0.00714286	-1.36215	-0.00857143	1.32656	1.65087	-0.0285714	0.0228571	0.893983	0.0335714	-0.0221429	-0.0264286	-0.0149442	0.035	-0.747389	-0.00357143	0.153348	-0.373759	-0.0278571	0.00642857	-0.0264286	-2.18819	-0.0257143	-0.0278571	1.79412	0.0257143	-0.0289164	1.19147	0.0192857	-1.50441	-0.741722	-0.0278571	0.0171429	0.0228571	0.808832	-0.0640122	0.025	0.005	1.07746	0.0207143	-1.35161	0.03	0.03	0.0264286	2.00395	-0.0328571	-0.305299	2.60446	-0.01	-0.396923	1.87694	-0.00142857	0.015	-0.0568794	-0.0326316	0.015	0.03	-0.0182701	-0.000714286	0.56328	2.20986	0.035	-0.0888066	-1.27342	0.0171277	0.02	0.0314286	-0.0235714	-0.317262	0.0121429	0.0321429	2.48791	0.00571429	1.46522	0.887038	0.000714286	0.0285714	0.00714286	0.106001	0.0192857	0.351695	-0.0164286	-0.106458	0.0171429	-0.0121429	-0.0121429	0.632597	-0.0178571	-0.0171429	0.0129117	-0.00428571	0.00285714	0.0321429	-0.0171429	0.854081	-0.0171429	1.39501	-0.384979	0.857728	0.844296	0.0114286	-0.0188432	-0.0135714	0.0178571	0.448926	0.00642857	-0.0752018	0.00928571	0.0142857	-0.0285714	-0.00951224	0.0171429	1.60769	-0.0257143	0.652003	0.0128571	1.40224	0.0321429	-0.00428571	1.24694	0.0292857	0.0271429	-0.015	-0.0359288	1.25721	1.95442	0.555593	-0.0221429	0.0257143	0.00142857	0.00571429	1.65299	0.0271429	-0.00714286	0.0208725	0.395845	0.035	0.00214286	0.857933	-0.0214286	-0.0521184	0.00857143	0.927849	-0.000714286	0.0185714	-0.00428571	-0.0242857	0.0164286	0.227519	0.351534	-0.00142857	0.0214286	2.05169	0.0185714	2.09001	0.00928571	0.00857143	-0.0525029	-0.721525	-0.00214286	-0.0157143	0.0285714	-0.000714286	0.0121429	2.14422	1.59704	0.115625	-0.0128571	0.0221429	0.000714286	-1.17642	0.0314286	0.01	0.890723	1.02669	0.0292857	0.0292857	-0.0285714	-0.0242857	0.860898	0.0135714	0.00928571	-1.58838	-0.0221429	0.0292857	-0.0171429	0.0221429	0.00142857	2.09413	-0.0264286	-0.426492	0.0228571	0.849837	0.035	0.230673	0.0264286	-0.0157143	0.0178571	-0.0228571	1.7976	0.0192857	-0.0207143	-0.0342857	0.0307143	-0.0242857	0.0321429	2.25281	-0.0314286	-0.0648746	-6.5194e-264	-0.00928571	-0.413082	-0.0264286	0.035	2.45008	1.20287	1.04619	0.0171429	-0.0314286	-0.015	-0.00857143	-0.0328571	0.988247	0.03	0.680658	-0.0549755	0.02	0.0228571	0.0242857	-0.00142857	0.696844	0.00785714	0.0128571	1.38415	1.20414	-0.0107143	1.09897	0.0264286	0.03	-0.00428571	-0.00928571	-0.0157143	-0.612348	-0.035	-0.0171429	0.00785714	0.00357143	0.00214286	-0.0107143	0.955157	0.0864395	0.0157143	-0.0242857	0.0292857	-0.880717	-0.02	0.0357143	1.00338	1.95454	0.00254501	1.36536	0.0321429	-0.005	-0.0278571	-0.00642857	-0.00214286	-0.00357143	0.0221429	0.758063	-0.01	0.0185714	0.0171429	-0.025	-0.005	1.10289	0.03	0.00380784	-0.0157143	-0.0138212	0.0285714	0.121504	-0.0185714	0.00785714	0.00285714	0.0114286	-0.0157143	-0.0164286	0.771607	0.0157143	0.0221429	-0.00142857	0.00928571	0.0185714	-0.00571429	0.653209	0.0128571	-0.00642857	-0.0404282	-0.00142857	-0.049057	-0.0328571	-0.0192857	1.00985	0.793606	-0.0228571	-0.0185714	0.00186741	0.0164286	-0.0335714	0.00428571	-0.0257143	-0.00642857	0.0207143	-0.0171429	0.69461	0.0335714	-0.058308	0.0164286	0.00785714	-0.0185714	0.861041	-0.03	-0.00857143	0.0221429	1.5821	0.00857143	0.647223	-0.00571429	-0.0142857	-0.00214286	0.0121429	0.025	-0.0207143	-0.0235714	0.00169445	-0.029968	-0.00714286	0.0114286	-0.0257143	-0.00571429	-0.0207143	0.437539	0.0228571	0.00142857	-0.0321429	0.0214286	1.0813	0.005	0.00214286	1.2041	0.342583	0.00571429	0.0128571	0.0142857	0.00109373	0.0135714	-0.0128571	-0.00928571	-0.0285714	0.00785714	-0.0107143	-0.0157143	0.0343764	0.00357143	-0.00428571	0.000714286	-0.00357143	0.0235714	0.106742	0.00571429	-0.0185714	0.0278571	0.681819	-1.76618e-05	0.468964	-0.00642857	-0.0699755	-0.0169367	0.0335714	-0.00642857	0.035	-0.015	0.0342857	0.0114286	0.000714286	-0.00785714	-0.0114286	0.0228571	-0.0164286	0.0321429	0.0314286	0.00785714	-0.02	0.0292857	0.0121429	0.0400556	-0.0206595	-0.0278571	0.131885	0.00967673	-0.0207143	-0.02	-0.0342857	-0.0292857	-0.0142857	0.0314286	-0.000714286	0.0114286	-0.0128571	0.0335714	0.00571429	-0.0142857	0.02	-0.0307143	-0.00214286	-0.0157143	-0.0107395	-0.0128571	0.00785714	-0.0456898	-0.0192933	0.00285714	-0.0127184	0.035	0.00110069	-3.21845e-47	-0.025	0.0285714	-0.0271429	-0.0264286	0.000714286	-0.0128571	0.0257143	-0.0328571	-0.00714286	-0.0242857	0.0335714	-0.00714286	-0.0121429	0.0221429	-0.00928571	-0.005	-0.00241964	-0.0257143	-0.000714286	-0.0292857	0.0307143	0.0314286	0.03	0.00214286	-0.0242857	-0.0228571	-0.0314286	0.035	0.0128571	-0.0342857	-0.00142857	-0.0107143	0.0292857	0.00642857	-0.00214286	-0.0137278	-0.005	0.025	-0.00585309	-0.0114286	0.00142857	-0.00357143	0.0171429	-0.01	-0.0178571	-0.0285714	0.02	0.0264286	0.0178571	-0.0164286	-0.00214286	0.0121429	0.0157143	0.0285714	-0.0221429	0.0264286	0.00308346	-0.0185714	-0.00928571	-0.0164286	-0.0383005	0.0242857	0.00785714	0.0128571	0.0321429	0.00642857	-0.0264286	-0.00928571	-0.005	-0.0292857	0.0142857	-0.00285714	0.00214286	-0.005	0.0228571	-0.0142857	-0.0328571	0.00642857	0.0128571	0.02	-0.00928571	0.0114286	-0.0204257	-0.03	0.00357143	-0.0357496	-0.00214286	-0.0257143	0.0285714	0.0235714	-0.00714286	0.0121429	-0.0221429	0.00142857	0.0257143	-0.0264286	-0.0285714	-1.96462e-87	-0.035	-0.0321429	0.00571429	0.0142857	-3.56726e-76	0.00928571	0.0107143	-0.0135714	0.03	-0.0214286	-0.0243513	-0.0278571	-5.83511e-264	0.02	0.0185714	-0.00357143	-0.00857143	-0.0142857	-0.0278571	-0.01	-0.005	0.0357143	0.0142857	-0.0114286	-0.0228571	0.0271429	0.025	0.00357143	0.00142857	-0.00214286	-0.0321429	0.00142857	0.000714286	-0.0257143	2.81469	
0.00142857	0.0185714	-0.00857143	-0.0107143	-0.0221429	0.005	0.0184519	-0.015	-0.0133835	0.023086	0.042214	-0.0186382	-0.0396365	0.00516191	-0.0495962	0.0192857	-0.0157143	-0.0340655	0.035	-0.0257458	0.0220791	0.0257053	0.0342857	0.0264286	0.0284519	0.0328571	0.0292857	-0.00642857	-0.00285714	0.005	0.436478	0.0342857	0.0256106	-1.20634	-0.0248404	0.954868	-0.0122714	0.00642857	-0.197762	0.01429	-0.0226612	-0.00785714	-0.03477	-0.0321429	-0.0272604	0.598253	-0.0300233	-0.0335714	0.030088	-0.905481	-0.0242857	-0.347706	0.0135714	0.0114286	0.0107143	-0.915893	0.00785714	-0.353387	4.03789e-53	-0.0307143	-0.260551	-0.0242857	0.00428571	0.0272819	-0.529535	0.532243	-0.330447	0.0192857	-0.79635	-0.055937	0.802872	-0.0278571	-0.0110462	-0.0242857	0.0121429	-0.0111367	-1.40465	0.882218	-0.00490838	-0.00428571	-1.02239	0.00857143	-0.02	-0.0342857	0.0207143	1.39497	-0.0278571	-0.00714286	-0.564211	-0.0264286	0.740067	-0.299368	-0.185575	0.00214286	-0.035	-0.417585	-0.381777	-0.035	-0.630776	0.562043	-0.379036	0.015	2.00008	0.00428571	-0.0455663	-0.849701	0.000714286	0.0242857	-0.0380746	0.0335714	-0.803976	0.00142857	-0.0278571	-0.035	-0.340208	-0.31462	0.0257143	-0.661811	0.0214286	-0.056231	-0.0643442	-0.459878	0.0235714	0.00642857	-0.015	0.552424	0.0347421	-0.0192857	0.0870457	-0.015	-0.47768	-0.02	0.624397	1.78088	0.0192857	-0.0741092	1.65305	0.0207143	-1.52445	0.035	0.0185714	0.000714286	-0.0342857	-0.842839	-1.17846	-0.0307143	0.02	-0.507024	-0.0164286	0.00571429	-1.25672	-0.0314286	3.64354	1.69727	-0.219291	-0.025	0.156936	-0.0214286	-0.00928571	-0.0214286	-2.18312	-1.11178	0.703924	2.08358e-77	0.00928571	0.302612	0.025	0.0321429	0.0354376	0.65192	-1.08898	5.50494	0.00571429	-0.00285714	0.00928571	0.319389	-0.982474	0.0307143	-0.00214286	-0.0135714	-2.80236	0.00928571	-1.4686	-0.0107143	-1.01257	-0.0328571	-0.000714286	1.82102	0.0178571	0.222648	4.34901	0.0171429	-0.949516	-0.03	-0.0192857	1.8124	-0.0569568	0.00714286	-0.703014	-0.0164286	-0.260758	-0.005	0.00142857	-0.0178571	-0.248704	0.0121429	0.0242857	0.342072	-1.39528	3.71839	-2.39973	0.00714286	0.0307143	-0.0257143	0.0314286	-0.0321429	0.067229	0.0321429	-0.000714286	0.03	0.723403	-0.18535	-0.0235714	0.0142857	-0.163959	1.02938	0.0171429	-0.0328571	3.61852	-0.0214286	-0.419022	-0.965895	-0.0257143	0.025	-1.32582	-0.035	0.000714286	-0.0178571	0.0239973	0.00785714	-0.999762	-0.02	-0.952645	0.13087	-0.0107143	0.0114286	-0.0335714	2.11437	0.00714286	-0.0335714	-0.880196	-0.005	-0.20561	0.0514294	0.01	1.12545	0.567395	-0.00928571	0.0342857	-0.0328571	-0.340306	-0.0673056	-0.0207143	-0.0207143	0.343553	-0.0264286	1.38082	0.0114286	-0.00928571	0.0135714	0.263022	-0.005	0.213234	-0.441045	-0.00642857	0.235659	0.0341042	0.0321429	0.0214286	-0.0752597	-0.369724	-0.0171429	0.0128571	-0.0631103	0.0278571	0.505323	-1.52804	-0.00571429	-0.777395	0.652114	-0.00943124	-0.0171429	-0.00642857	-0.0228571	0.457993	-0.0328571	-0.0142857	0.625004	-0.0207143	-1.47751	0.721732	0.0342857	-0.0292857	-0.0121429	0.41016	-0.0342857	0.212783	0.00785714	-0.353492	-0.00642857	-0.0114286	-0.00357143	-0.318964	-0.035	-0.0264286	0.441112	0.0235714	-0.0171429	-0.00142857	-0.035	0.569977	-0.00357143	0.0728518	-0.924839	-1.1221	-0.378345	-0.0128571	0.0146766	-0.00357143	-0.0328571	-0.65119	0.0264286	-0.12194	0.0142857	-0.0221429	0.0357143	-0.475355	0.0207143	-0.192398	0.0114286	1.32193	-0.00285714	-0.305662	0.0278571	-0.00214286	0.0367391	-0.00285714	0.0221429	0.0357143	-0.0624188	-0.730152	-0.616794	-1.1244	-0.0278571	-0.0235714	-6.97539e-68	0.0257143	0.818677	0.0307143	0.0228571	-1.23918	0.72277	0.0128571	0.005	-0.240595	-0.00857143	-0.0884821	0.03	0.298374	-0.0242857	0.00571429	-0.00785714	0.00857143	0.0128571	-0.65564	0.576881	-0.00571429	-0.0185714	-0.585185	0.0307143	-0.909705	0.0164286	0.0221429	-0.047958	0.176851	0.0335714	0.00642857	-0.0207143	0.0328571	-0.0335714	0.171439	0.309138	-0.0745804	-0.0207143	0.00357143	0.0192857	-0.313119	0.00928571	0.0128571	1.06349	0.0788045	0.0192857	0.00928571	0.0292857	0.0328571	0.500247	-0.0342857	0.0278571	-1.50947	0.0314286	0.0228571	0.025	0.0114286	0.00857143	-0.263551	-0.035	-0.0924173	-0.0335714	0.174049	-0.0321429	-0.178536	-0.0171429	-0.0328571	0.00714286	-0.00285714	0.849838	0.0271429	-0.0335714	0.0157143	0.00357143	-0.0157143	-0.0342857	-0.282307	-0.00571429	-0.0532262	0.0207143	0.0235714	0.109586	0.0128571	0.000714286	0.28442	1.15063	0.46393	0.00428571	0.00857143	0.0207143	-0.0292857	0.015	-0.0835875	0.0221429	-0.707778	-0.101339	-0.0307143	-0.0142857	0.0335714	-0.0328571	-0.337565	-0.01	0.00642857	-0.590646	-1.78159	0.0257143	0.123329	-0.0171429	-0.0164286	0.00714286	-0.0328571	0.00785714	0.533767	-0.0192857	-0.0278571	-0.005	0.015	0.0335714	0.0342857	-0.388427	-0.245843	-0.0314286	0.00285714	-0.0292857	0.642088	-0.015	-0.00285714	0.599162	-0.00939375	2.85915e-06	-0.126558	-0.000714286	-0.0142857	0.00571429	0.01	0.0157143	0.0321429	0.0207143	-0.207637	0.0171429	0.0285714	0.00214286	-0.0114286	0.0314286	-0.0748965	0.0335714	0.0264124	0.0342857	-0.11413	-0.00857143	-0.365338	0.0157143	0.0321429	-0.0107143	0.0214286	-0.0121429	-0.025	-0.494704	-0.015	-0.0185714	-0.0185714	0.0221429	-0.0178571	-0.0321429	-0.273216	0.0271429	0.0192857	-0.0575415	-0.0228571	0.0381513	0.00571429	-0.03	-0.38311	-0.138703	0.00214286	-0.0328571	-0.260088	-0.00642857	-0.035	-0.01	0.02	0.0221429	-0.0307143	0.0157143	-0.0860347	-0.00785714	-0.0874026	0.0221429	0.0128571	-0.00928571	-0.133355	0.0292857	0.0135714	0.0221429	-0.17468	0.00642857	0.0151016	-0.0192857	0.0321429	0.0278571	-0.00142857	-0.0328571	0.0328571	0.0185714	-0.0124322	-0.124481	0.0207143	0.0278571	0.0307143	-0.0135714	-0.0185714	0.608296	0.01	0.0228571	0.0307143	-0.0142857	-0.295533	-0.035	-0.0278571	0.102202	0.042239	0.0121429	-0.015	0.00571429	-0.00700119	-0.0185714	-0.0242857	-0.0228571	0.0342857	0.00857143	-0.0314286	0.0335714	0.0107509	0.00285714	0.0164286	0.00928571	-0.0314286	-0.0335714	-0.193551	0.0342857	0.0257143	-0.0171429	-0.00658929	-0.00838407	-0.0196643	0.00928571	-0.0727678	0.00683565	0.01	-0.00714286	-0.0235714	0.00214286	0.00571429	-0.00285714	0.00857143	0.00428571	-0.0207143	0.02	-0.0178571	-0.0228571	0.0292857	0.0235714	-0.025	0.00428571	0.0271429	-0.0252717	-0.102477	0.0307143	0.103875	-0.0214504	-0.00571429	0.02	0.0335714	0.00714286	-0.0171429	-0.0335714	0.0171429	0.00428571	-0.0121429	-0.00928571	0.0321429	2.31903e-48	-0.00642857	-0.0321429	0.0321429	-0.0335714	-0.00381397	-0.025	-0.0128571	-0.102054	0.0209987	-0.02	0.0182532	0.0342857	-0.0149524	0.00571429	0.0271429	0.0342857	-0.0342857	0.0221429	0.0135714	0.0321429	0.00571429	0.0107143	0.00285714	-0.01	-0.0214286	-0.0164286	0.0292857	0.00142857	-0.0242857	-0.00928571	-0.0146576	-0.03	-0.00642857	-0.00214286	0.00857143	0.00214286	-0.0264286	-0.00357143	0.0278571	0.0335714	-0.0221429	-0.0278571	-0.00285714	-0.00214286	-0.0214286	-0.0114286	0.0335714	-0.0207143	0.0114286	-0.0572181	0.0121429	-0.0192857	-0.0745483	-0.0214286	-0.0285714	-0.000714286	0.0342857	0.00142857	0.00142857	0.0107143	0.0278571	-0.0321429	0.0164286	-0.015	-0.0335714	0.0257143	-0.0121429	-0.0242857	-0.0135714	0.0164286	0.00488681	-0.000714286	0.0235714	0.00785714	-0.0912584	-0.0342857	-0.00285714	-0.005	0.0171429	-0.0278571	-0.03	-0.00714286	0.0257143	-0.00928571	-0.0278571	0.0321429	-0.00928571	0.00785714	-0.00214286	-0.00714286	-0.0178571	0.0264286	-0.00428571	-0.000714286	0.0121429	0.035	-0.0921601	0.0357143	-0.0257143	-0.038911	0.0157143	-0.015	0.0107143	-0.0307143	0.0278571	-0.0278571	-0.03	-0.0107143	-0.0314286	-0.0114286	-0.00357143	-0.0264286	0.0164286	0.0228571	-0.035	-0.01	0.0192857	0.0278571	0.0328571	0.0178571	-0.0157143	0.0157143	-0.0206306	-0.0185714	-0.0207143	-0.0164286	0.0171429	-0.0307143	-0.0171429	0.0264286	-0.0192857	-7.79049e-78	0.0121429	-0.00785714	0.00428571	-0.0307143	-0.035	-0.025	0.0307143	-0.0314286	-0.00142857	0.0285714	0.0142857	0.0164286	0.015	-0.02	-0.0967084	
-0.00214286	-0.0285714	0.00357143	-0.0207143	0.0285714	-0.0171429	-0.0120927	0.0107143	0.035506	0.0122472	0.00139223	0.00727953	0.0484881	0.0206825	-0.0120303	-0.0114286	0.0314286	0.0267788	-0.00642857	0.0359734	-0.02019	0.00435973	0.0307143	-0.0171429	-0.0335212	-0.0114286	-0.00142857	-0.0164286	-0.0328571	0.0135714	0.131647	-0.0335714	0.00437685	2.39048	-0.245222	1.06429	-0.306499	-0.03	-0.0671523	0.252352	0.0315234	0.0164286	0.0221761	-0.0335714	0.0797399	0.119908	0.0316466	0.0307143	0.00749546	0.0329549	0.03	-0.0268193	-0.01	-0.01	0.0135714	2.53128	0.0135714	-0.541742	0.0107143	0.0164286	-0.35399	0.000714286	-0.0164286	-0.255995	-1.88827	-1.68534	-0.257088	0.00642857	-0.014232	-0.185317	-0.26385	-0.0171429	-0.0330253	-0.00142857	-0.015	-0.0184219	-0.0740443	0.57144	-0.00981824	-0.02	0.352886	0.0207143	-0.0264286	-0.0121429	-0.025	1.43002	-0.0192857	-0.0107143	0.107426	-0.00785714	1.28221	-1.53384	0.233622	0.025	-0.0335714	0.0748071	-0.197447	-0.00714286	-0.391173	-0.0336904	-0.36034	-0.0228571	0.21387	-0.03	0.00205426	1.37855	-0.0335714	0.0128571	0.0128579	0.0285714	1.4705	-0.025	0.0135714	0.00285714	-0.498782	0.579877	0.0264286	-2.34959	0.0135714	-2.10066	1.08646	1.02134	-0.0185714	0.00142857	0.01	0.679729	0.486093	-0.000714286	-1.62117	-0.0164286	0.893974	0.0192857	0.618767	0.353372	0.025	0.0745242	-1.14425	-0.00785714	0.546202	0.0214286	-0.015	0.0157143	-0.00285714	-2.04016	1.40873	-0.00357143	-0.0135714	1.43341	0.0107143	0.000714286	0.771189	0.0185714	-0.0719216	-0.528376	1.36131	0.0314286	1.32682	-0.0264286	0.0314286	-0.0221429	0.188754	0.164642	0.509565	0.0264286	-0.0342857	-3.51033	0.000714286	-0.025	-0.0198715	-0.254802	-1.78034	-0.876577	0.005	-0.00428571	-0.00285714	-0.172328	1.72386	-0.0157143	0.00142857	0.00142857	0.474889	-0.0321429	0.400444	-0.0271429	0.645029	0.00642857	-0.0321429	-0.216927	0.015	0.692115	0.799676	0.00857143	0.975696	-0.0328571	0.0357143	-3.0661	0.257825	-0.0342857	1.54174	-0.0292857	0.207085	0.00357143	-0.0285714	0.0321429	-1.68682	-0.03	0.0214286	0.673889	0.12667	0.166912	0.440015	-0.0235714	-0.00714286	-0.0221429	-0.015	0.0164286	1.27591	0.025	0.00642857	-0.00142857	0.464472	0.378967	0.00785714	-0.0185714	0.738955	0.320227	0.0114286	0.005	0.292779	-0.02	1.1504	1.40321	-0.0157143	-0.0164286	-0.726135	0.0192857	0.0257143	-0.015	-0.544913	0.0157143	-0.379453	-0.035	0.882597	0.368317	0.015	-0.0207143	0.0178571	-0.090469	-0.0321429	0.025	0.744747	0.03	0.773885	0.712454	0.0121429	-0.141169	-1.51269	-0.0128571	-0.0142857	-0.0114286	0.560389	-0.017684	-0.01	-0.0121429	1.29153	0.0242857	-0.97652	-0.0285714	-0.0271429	-0.02	1.36731	0.0178571	0.142648	2.45427	0.02	-0.448201	0.0659815	-0.0328571	-0.005	0.0179708	1.41642	0.0278571	-0.00642857	0.0165869	0.0321429	0.41666	0.321968	-0.0242857	1.76891	-1.15671	-0.00187503	0.0314286	-0.00714286	-0.01	0.739475	-0.0242857	-0.0214286	-1.05527	0.0192857	0.611158	-0.369286	-0.0285714	0.00571429	0.025	-1.75607	0.0264286	1.29872	-0.0164286	1.29444	-0.0192857	0.0185714	0.02	0.412225	-0.0242857	0.0135714	0.147337	0.0171429	-0.0121429	0.0164286	0.00928571	0.899077	0.0171429	1.23696	-0.24124	0.0364907	1.37968	-0.0114286	0.0188492	-0.0185714	0.00857143	0.544785	0.0235714	-0.000476621	0.0157143	0.0121429	-0.0321429	0.564306	-0.00285714	-0.0544987	0.035	-0.668672	-0.0314286	0.970666	0.0207143	0.0164286	0.455613	0.0271429	-0.00285714	0.0228571	-0.00930105	0.38599	0.376796	-0.0876323	0.0121429	0.0192857	-0.00285714	0.00142857	-0.369177	-0.0178571	0.0178571	2.97877	-1.06977	0.005	0.0314286	-0.807222	0.0178571	-0.0163794	0.015	1.25857	0.0214286	-0.02	0.03	-0.00928571	-4.87398e-67	0.687075	0.302718	0.0342857	-0.0292857	1.92663	-0.0135714	0.585431	0.0107143	0.0285714	-0.0072076	1.02155	0.0121429	0.0342857	0.0235714	-0.0157143	0.0178571	-0.153724	-0.142674	-0.290089	-0.0228571	0.0335714	0.0207143	0.421479	-0.00285714	-0.035	0.818887	-0.775749	-0.02	-0.03	-0.0257143	-0.0192857	0.756628	0.0178571	-0.0207143	2.77925	0.0214286	-0.0335714	0.00571429	0.0335714	0.0307143	0.761157	-0.0157143	1.23227	0.00714286	-1.51534	-0.00857143	0.223938	0.015	0.0278571	-0.0335714	-0.00642857	-0.735805	0.0221429	-0.0121429	-0.0142857	0.0221429	-0.035	-0.0307143	1.23895	-0.03	0.00778749	0.0192857	-0.00928571	1.96019	-0.000714286	0.0178571	-0.169537	-1.06024	-0.162233	0.0171429	0.0328571	0.0314286	-0.035	-0.0314286	0.205002	-0.025	0.227697	-0.0213794	-0.00928571	0.0235714	-0.00357143	0.0192857	1.63782	-0.0178571	0.00785714	1.41844	1.16056	0.00785714	1.51033	-0.0271429	0.0135714	-0.0135714	-0.00714286	0.005	-0.136103	0.0278571	-0.0135714	0.00357143	0.03	-0.025	-0.0157143	0.628277	0.808658	0.0221429	-0.00428571	-0.0235714	-0.255916	0.0257143	0.00714286	1.43895	-0.129982	-0.0385319	2.26705	-0.00785714	0.0221429	0.0157143	-0.00785714	0.0285714	0.025	0.0342857	-1.02014	-0.0321429	-0.0157143	0.03	0.00785714	-0.0321429	-0.134676	0.03	-0.0279861	0.0178571	1.34723	0.0285714	0.634971	-0.0235714	0.0142857	0.00428571	0.0257143	-0.0242857	0.0314286	1.16283	0.000714286	-0.0257143	0.0357143	0.00857143	-0.0328571	-0.0128571	0.0253537	-0.005	-0.0207143	-0.00100242	0.03	-0.578746	0.0164286	-0.0221429	-0.100938	-0.0394869	0.0178571	-0.00142857	1.32761	-0.00928571	-0.0192857	-0.0114286	-0.0164286	-0.0107143	-0.0342857	0.0328571	0.699527	0.0264286	-0.00631494	0.0271429	0.0235714	-0.0257143	-0.961477	-0.0107143	0.0178571	0.00428571	-0.233251	0.00642857	-0.106991	-0.00785714	-0.0157143	-0.00642857	0.00928571	0.00142857	0.00714286	0.0207143	0.0806329	0.00991525	0.0207143	0.00785714	-0.0192857	-0.035	-0.00285714	-0.118681	0.0264286	-0.00142857	0.0328571	0.0221429	-0.662476	0.00642857	0.0128571	-0.123004	0.0131136	-0.0214286	-0.0307143	0.0342857	0.0111555	-0.0185714	-0.0292857	-0.0178571	-0.0257143	0.0271429	0.0114286	0.0192857	-0.00785534	0.0192857	-0.0307143	-0.0185714	-0.0257143	0.025	0.0845775	-0.01	-0.00928571	0.0228571	-0.394496	0.0172172	0.00748871	-0.0128571	-0.0120937	-0.0253076	-0.00571429	-0.0185714	-0.00857143	0.0114286	0.0321429	0.0328571	0.00928571	0.0142857	-0.0214286	-0.0192857	-0.00214286	-0.0121429	-0.0285714	0.01	0.00785714	-0.000714286	-0.00714286	-0.02305	-0.0326293	0.00214286	-0.0591946	0.0069588	-0.00642857	-0.00642857	-0.00714286	0.0185714	0.0128571	-0.0214286	-0.0307143	-0.0192857	-0.00857143	-0.000714286	0.0342857	-0.0164286	0.0114286	-0.00357143	-0.0192857	-0.0157143	-0.0276489	0.0314286	-0.0335714	-0.0435223	-0.0177233	-0.0271429	0.0122312	-0.00785714	-0.0299919	-0.0257143	0.00571429	-0.0107143	-0.0221429	-0.0264286	0.0314286	-0.0278571	-0.0321429	0.025	0.0257143	0.0157143	0.005	-0.00357143	-0.00214286	0.0314286	-0.00357143	-0.00428571	0.0127479	-0.0285714	-0.00714286	-0.00285714	0.0278571	0.00285714	-0.00785714	0.0292857	0.0107143	-0.0235714	0.00357143	0.03	0.00357143	0.0114286	-0.0321429	0.01	-0.035	0.0178571	0.0185714	-0.0148515	0.025	0.0221429	-0.0249259	-0.0192857	0.00142857	0.0257143	0.0121429	0.0342857	-0.0135714	0.00928571	0.0314286	0.00357143	0.0157143	-0.0121429	0.0357143	-0.0271429	-0.00857143	-0.00785714	-0.0335714	0.00357143	-0.0316171	-0.0292857	-0.00285714	-0.0264286	0.00140834	-0.0342857	0.0185714	-0.0171429	-0.015	-0.0335714	0.015	0.0107143	0.0235714	-0.035	0.0264286	0.0264286	-0.00857143	-0.0321429	-0.01	0.0135714	0.0121429	0.0221429	-0.0192857	0.0285714	0.0114286	0.0171429	-0.0486661	0.00357143	0.01	0.0015773	-0.0292857	0.0142857	0.01	-0.0314286	0.0228571	0.0278571	0.00714286	-0.0292857	-0.025	-0.00714286	0.01	0.025	-0.0328571	-0.00285714	-0.00928571	0.0292857	0.0242857	0.0178571	-0.00214286	0.0157143	0.0321429	-0.0257143	-0.00360133	0.0135714	0.00357143	0.0135714	0.0314286	0.00428571	-0.0185714	0.00571429	0.00928571	0.0242857	0.0207143	0.02	-0.00571429	-0.0264286	0.0121429	-0.035	-0.0207143	0.0221429	-0.00714286	0.0242857	-0.0235714	0.0321429	0.0228571	-0.0314286	0.563043	
1.27591	-2.93679	-5.246	8.41788	-10.4507	1.19515	5.44353	-1.65431	-3.5088	4.54661	6.9099	
5.1154	-1.88568	2.3484	-7.02868	0.281539	-0.649861	-3.23589	-10.4085	0.439073	6.51511	5.42115	
1.20229	-6.3963	6.96708	6.88038	-5.67895	0.742821	-11.2979	1.88184	2.11596	-2.63473	3.99126	
-1.3297	-10.3534	0.593636	-7.05893	4.03839	4.11178	3.62536	-0.187703	-4.07244	-3.06304	0.790003	
-10.4965	0.826456	-5.78261	0.484108	2.38003	4.04151	1.68471	-8.29475	1.75662	-3.83678	1.69711	
2.61424	8.79902	0.948333	-10.3732	-3.10798	4.49922	-0.491767	-0.694012	-9.46152	-2.41797	4.73469	
9.69792	0.787943	-10.7212	1.41051	2.77259	-3.68958	-6.87751	2.38208	2.43193	-3.59426	6.42703	
-3.94286	-0.419589	-0.575658	3.84144	0.579152	-11.6457	-2.72497	-1.45954	-4.01332	9.38425	0.419479	
-6.68756	2.6834	-1.967	-7.58402	-2.3831	1.33216	-6.89745	6.31327	10.1191	5.08736	12.0054	
-5.23787	2.44067	4.44111	-1.25871	-0.503918	-5.62215	1.08595	6.89515	2.25245	-10.2845	6.95448	
