784
10
10
0.0242857	0.0264286	0.02	-0.0242857	0.0314286	-0.01	0.0264286	0.0307143	0	-0.02	0.00928571	-0.0157143	0.0292857	0.00714286	0.01	-0.0164286	-0.00642857	-0.0164286	0.0164286	-0.00928571	-0.0271429	0.0135714	0.0128571	-0.0142857	0.0235714	-0.0135714	0.00928571	-0.0185714	0.0128571	-0.01	-0.0142857	-0.0335714	-0.0192857	0.00642857	0.0142857	0.0128571	0.0314286	0.005	-0.0271429	-0.005	-0.0142857	0.0171429	-0.02	-0.0214286	0.025	-0.00857143	0.035	-0.0178571	-0.0242857	0.015	-0.0257143	-0.0164286	0.03	0.0221429	0.005	0.0171429	0.00928571	0.015	0.0335714	0.0228571	-0.0314286	-0.0171429	0.025	-0.0157143	-0.00928571	-0.0314286	-0.00214286	-0.0142857	-0.0257143	0.00571429	-0.0178571	0.0328571	0.0235714	-0.00285714	-0.025	0.0128571	-0.0107143	0.0107143	-0.00428571	0.000714286	0.0271429	-0.0292857	0.0192857	0.0207143	0.0278571	0.025	-0.0328571	0.00142857	0.00357143	0.0357143	-0.0121429	0.00785714	0.0192857	0.0135714	-0.00714286	-0.0264286	-0.0164286	0.0264286	0.0321429	-0.00714286	0.0328571	0.015	-0.0107143	0.0207143	0.0128571	-0.0342857	0.0342857	-0.0335714	-0.0228571	0.0307143	0.00214286	0.005	-0.0342857	0.0221429	0.0264286	-0.00571429	0.0114286	0.0285714	-0.00357143	-0.0214286	-0.00642857	-0.0142857	-0.0128571	-0.0228571	0.0342857	0.0157143	0.0228571	0.0185714	-0.0285714	-0.0157143	0.0128571	0.005	0.0342857	0.00285714	0.0264286	0.0114286	-0.0307143	0.0242857	-0.0214286	-0.0178571	-0.015	0.0157143	-0.0121429	-0.0142857	-0.0328571	-0.0214286	0.015	0.0135714	-0.0292857	-0.0242857	-0.00642857	0	0.0335714	-0.0185714	-0.0221429	-0.00285714	-0.00214286	0.00142857	-0.02	0.00428571	0.0214286	0.0278571	0.0107143	-0.015	-0.00571429	0.000714286	0.0314286	-0.035	-0.0107143	0.0107143	-0.0178571	-0.025	0.0271429	0.005	-0.00428571	0.03	-0.0157143	0.0114286	0.00714286	-0.00928571	-0.0121429	0.00142857	-0.00857143	-0.015	0.0185714	-0.03	0.0178571	-0.02	0.00642857	0.0328571	-0.0142857	-0.00857143	-0.01	0.0314286	-0.0221429	-0.015	-0.00428571	-0.0271429	-0.015	-0.0142857	0.0192857	-0.0321429	-0.00428571	0.01	-0.0257143	-0.00785714	-0.0307143	-0.00642857	-0.0321429	-0.0221429	-0.015	0.0278571	0.0142857	-0.0228571	-0.0228571	0.0335714	-0.0178571	-0.00428571	0.015	0.0242857	0.0292857	0.0357143	0.0164286	-0.0171429	-0.00357143	0.0292857	-0.0314286	-0.00714286	0.00357143	0.0264286	0.0142857	0.0235714	-0.005	0.0107143	0.0342857	-0.03	0.00428571	-0.0321429	-0.000714286	-0.0271429	-0.0192857	-0.015	0.0357143	-0.00428571	-0.00214286	0.0135714	-0.00642857	-0.0192857	-0.0271429	-0.0278571	-0.0314286	-0.0342857	0.00857143	-0.0135714	0.0207143	-0.0314286	-0.0207143	-0.00928571	-0.00357143	-0.0164286	-0.0192857	0.0114286	-0.0292857	-0.0235714	0.0235714	0.00642857	-0.0178571	-0.00857143	0.00928571	-0.0178571	-0.035	-0.00928571	0.00214286	0.0357143	0.0214286	0.000714286	0.0135714	0.0157143	0.0171429	-0.0128571	0.0228571	-0.0135714	-0.0114286	0.0321429	0.00785714	0.01	0.0357143	0.0228571	0.0357143	0.0335714	0.00714286	0.0171429	-0.0257143	0.0135714	0.0292857	0.0328571	-0.0164286	0.0121429	0.025	-0.00642857	0.0292857	0.025	0.0192857	-0.005	-0.00928571	-0.03	-0.00285714	0.005	0.0214286	-0.0221429	0.0271429	-0.0264286	-0.000714286	0.0164286	0.00714286	-0.0285714	-0.00928571	-0.0278571	-0.005	0.0271429	-0.0307143	-0.0342857	-0.0257143	0.0164286	-0.02	0.00428571	-0.0214286	0.0357143	-0.02	-0.0321429	-0.00714286	-0.0271429	-0.00642857	0.0128571	-0.0314286	-0.015	-0.0157143	0.000714286	0.025	0.00642857	-0.0207143	-0.0178571	-0.0192857	0.0142857	0.0335714	0.0228571	-0.0135714	0.025	0.0307143	0.0164286	0.0164286	0.000714286	-0.0171429	0.0257143	-0.0192857	0.0357143	-0.00642857	-0.005	0.035	-0.0257143	0.035	0.0292857	-0.0178571	0.0292857	-0.0285714	0.0228571	-0.0214286	-0.00928571	-0.0121429	0.00428571	0.0321429	-0.0321429	0.0214286	0.0142857	0.0171429	0.0192857	0.000714286	0.00428571	0.00785714	-0.005	0.0214286	0.025	0.0314286	-0.0314286	-0.02	0.0128571	-0.0321429	-0.0257143	0.00857143	0.00357143	-0.0164286	0.00714286	-0.00357143	-0.0335714	-0.0335714	-0.0307143	0.025	-0.02	-0.005	0.0135714	-0.015	0.0285714	0.0164286	-0.0292857	0.00642857	0.035	-0.00928571	-0.0292857	0.00285714	-0.000714286	-0.0328571	-0.0114286	-0.0114286	-0.000714286	0.0292857	0.00357143	0.0128571	-0.00214286	0.0135714	-0.0142857	-0.035	-0.00214286	0.0278571	0.0342857	0	0.0292857	-0.0328571	-0.0114286	0.01	0.0342857	0.00285714	0.0307143	0.0264286	-0.0171429	0.00214286	0.0335714	0.0185714	0.0278571	0.00571429	-0.0142857	-0.00928571	0.00785714	-0.025	-0.02	0.00785714	-0.0321429	-0.015	-0.0157143	0.000714286	-0.000714286	0.005	-0.0335714	0.0321429	0.0342857	0.0357143	-0.00428571	-0.00714286	-0.0335714	-0.015	-0.0328571	-0.035	0.0228571	-0.00142857	-0.00785714	0.00714286	0.00142857	-0.01	-0.0107143	-0.00714286	0.0307143	-0.0242857	-0.0157143	-0.0321429	-0.0142857	0	0.0107143	0.0257143	-0.0142857	-0.00428571	-0.01	0.02	-0.035	-0.00785714	0.0157143	0	0.0285714	0.0128571	0.0278571	0.0307143	0.0328571	-0.00428571	-0.00357143	-0.0142857	0.0292857	0.0235714	-0.00642857	-0.00571429	0.0142857	-0.0164286	-0.0121429	0.00857143	-0.005	0.00785714	-0.0228571	-0.0185714	0.00857143	0.0228571	-0.0285714	0.0292857	-0.0171429	0.0335714	0.0128571	0.02	-0.0107143	0.0292857	-0.0164286	-0.0178571	0.00571429	-0.025	0.0135714	-0.0314286	0.00642857	-0.0264286	0.0264286	-0.035	-0.00214286	-0.0164286	0.0321429	-0.0235714	0.00214286	0.0207143	-0.0142857	-0.00214286	0.0292857	-0.00142857	0.015	0.00142857	0.0221429	-0.0128571	0.0314286	0.00571429	-0.0157143	-0.0264286	0.0264286	-0.025	0.00428571	-0.0264286	0.0292857	-0.0264286	0.0214286	-0.0278571	0.0142857	0.0285714	0.0178571	0.00428571	-0.00571429	-0.0207143	-0.0114286	0.0271429	0.0278571	-0.00785714	0.0121429	0.015	0.025	0.005	-0.0228571	-0.0307143	0.00785714	0	-0.00857143	-0.0314286	0.00714286	-0.0228571	-0.0221429	-0.00285714	0.0242857	0.0171429	0.00642857	0.0171429	-0.00857143	0.0285714	0.0242857	-0.03	0.0207143	0.00571429	-0.025	0.0157143	-0.0142857	-0.035	0.00714286	-0.0221429	-0.00785714	-0.0171429	0.0278571	0.0178571	-0.0114286	0.00571429	0.0228571	0.0314286	0.00642857	0.015	0.0357143	-0.0228571	-0.00714286	0.0142857	0.01	-0.0192857	0.0321429	0.0171429	-0.00142857	-0.0128571	0.00928571	0.0235714	0.0292857	0.0307143	0.03	0.00571429	-0.0242857	-0.02	0.00571429	0.0178571	0.03	-0.00142857	0.00142857	-0.0128571	-0.02	-0.00857143	-0.00642857	0.00357143	-0.0135714	0.035	-0.0171429	0.0228571	-0.0235714	-0.0235714	-0.0335714	-0.0128571	-0.00714286	0.0335714	-0.0321429	-0.00785714	0.0221429	-0.0221429	-0.02	0.015	0.00928571	-0.0264286	0.0214286	0.02	0.0257143	-0.00928571	-0.0321429	0.0192857	0.0242857	-0.03	0.00714286	0.00571429	-0.00357143	0.0357143	-0.0271429	-0.0157143	0.000714286	-0.00928571	0.00785714	-0.0221429	-0.0314286	0.01	0	-0.00357143	-0.0271429	-0.0314286	-0.0107143	0.03	0.0185714	0.00428571	-0.025	0.0285714	0.0135714	0.0314286	-0.0221429	-0.0314286	0.0235714	-0.0192857	0.0235714	-0.0228571	-0.0135714	0.0314286	0.0178571	-0.0164286	0.0314286	0.0264286	0.00285714	-0.00428571	0.0178571	-0.025	-0.0257143	0.0214286	0.02	0.00928571	0.0185714	0.0278571	-0.0214286	-0.0278571	-0.0121429	0.0321429	-0.0228571	-0.00214286	-0.01	-0.00857143	0.03	0.00285714	-0.00428571	0.0171429	-0.015	-0.0171429	0.03	-0.0278571	-0.0221429	-0.0228571	-0.00928571	0.01	0.00428571	0.0292857	0.00642857	-0.0135714	-0.0321429	0.0157143	0.00857143	-0.0114286	0.0257143	0.0285714	0.0171429	-0.0321429	0.00142857	-0.0314286	0.000714286	0.0135714	-0.0328571	0.0257143	-0.0307143	0.0328571	-0.00714286	0	-0.0207143	0.0128571	-0.0164286	0.01	0.02	0.0335714	0.0228571	0.0114286	0.00785714	-0.00928571	0.00428571	0.015	-0.0221429	-0.0271429	-0.005	-0.0121429	0.0335714	0.0214286	-0.02	0.015	0.025	0.0164286	-0.0157143	-0.0107143	-0.00642857	0.0242857	0.0164286	0.035	-0.0135714	0.01	-0.00142857	0.000714286	-0.0135714	0.0171429	-0.025	0.00714286	-0.0192857	-0.00142857	-0.0178571	0.0235714	-0.01	-0.0121429	
-0.0321429	0.00357143	-0.00428571	0.035	0.0264286	-0.00642857	0.0207143	0.00714286	0.00928571	0.00928571	0.0242857	-0.00571429	-0.000714286	-0.0185714	-0.0178571	0.0164286	-0.0192857	0.00357143	-0.01	-0.02	0.00571429	0.0114286	-0.00142857	0.0157143	0.0192857	0.0142857	-0.0221429	-0.0342857	-0.0328571	0.00285714	-0.0114286	-0.03	0.00714286	-0.015	-0.0307143	0.0342857	-0.0207143	0.025	-0.0292857	-0.0107143	0.035	0.03	0.0192857	0.035	-0.0242857	0.00214286	0.0157143	0.0285714	0.00714286	-0.0307143	-0.0278571	-0.0235714	-0.0178571	-0.0285714	-0.00714286	-0.035	0.0207143	-0.0285714	0.00285714	0.0228571	-0.025	-0.00785714	0.0285714	-0.0164286	0.0128571	-0.00142857	-0.0185714	0.0271429	-0.0128571	-0.0121429	-0.0192857	0.0228571	0.0185714	0.000714286	0.0214286	0.0292857	0.00357143	0.000714286	-0.0128571	-0.0257143	0.00571429	0.0321429	0.0228571	0.0228571	-0.0328571	-0.0207143	-0.0114286	0.0235714	0.0228571	0.0271429	-0.0242857	0.0335714	-0.0171429	-0.0321429	-0.0192857	0.0307143	0.00142857	0.0342857	-0.0121429	-0.0107143	0.0228571	-0.0307143	-0.0242857	0.00571429	-0.0292857	0.0328571	0.0357143	0.00928571	0.0342857	0.0242857	0.0192857	0.00357143	0.02	-0.0285714	0.0271429	-0.0121429	0.0235714	-0.02	0.0121429	0.01	0.00785714	0.0235714	-0.0271429	0.0257143	0.0264286	0.0257143	-0.0135714	0.0292857	0.0242857	-0.025	0.0192857	-0.0235714	-0.0207143	0.0307143	-0.0171429	-0.015	-0.00714286	-0.0171429	0.0292857	-0.00928571	0.00785714	-0.0221429	-0.00428571	-0.00857143	-0.015	0.0235714	-0.02	-0.0278571	0.00428571	0.0278571	-0.0171429	-0.0242857	0.015	-0.00857143	0.00285714	-0.0292857	-0.0192857	0.0242857	0.000714286	0.00571429	0.0342857	-0.0157143	-0.0164286	0.0142857	0.0157143	0.00142857	0	-0.0278571	-0.015	-0.00714286	0.035	0.0278571	-0.0278571	0.0314286	0.02	0.0292857	0.0192857	0.0357143	0.00214286	-0.0128571	0.0271429	0.02	0.0357143	0.00571429	0.0121429	0.00214286	-0.0228571	-0.00571429	-0.01	0.0135714	0.035	0.025	0.0328571	0.0192857	-0.0314286	0.0121429	-0.015	0.00357143	-0.015	-0.0292857	0.0314286	0.0207143	0.0342857	0.00428571	0.0164286	0.0178571	-0.00285714	-0.035	-0.0171429	0.0342857	0.0242857	-0.0264286	-0.0157143	0.0235714	-0.02	0.0314286	-0.0107143	-0.00714286	-0.0107143	-0.02	0.00714286	0.0257143	0.00571429	0.00357143	0.00857143	0.00928571	0.0164286	-0.00571429	-0.0235714	0.00214286	0.000714286	0.00928571	0.0235714	0.0357143	-0.0228571	0.00357143	0.0171429	-0.0242857	-0.0307143	0.00142857	0.0107143	0.0292857	0.01	0.03	0.0164286	-0.00857143	-0.00857143	0.00714286	-0.015	0.0157143	0.0221429	0.0271429	0.005	0.0292857	-0.00571429	0.015	0.00214286	0.0114286	-0.0271429	0.0142857	-0.0228571	0.00857143	0.0242857	0.00142857	-0.0264286	-0.035	-0.0307143	-0.00785714	0.0128571	0.0107143	0.0285714	-0.0121429	0.00357143	-0.0321429	0.0185714	0.0214286	-0.00571429	-0.0264286	-0.00785714	0.0142857	-0.00928571	0.015	0.005	-0.00357143	0.00785714	0	-0.025	0.0114286	-0.025	-0.0164286	0.0264286	0.0242857	-0.00714286	0.0142857	-0.01	0.00214286	-0.02	0.0314286	0.0292857	0.0285714	-0.0285714	-0.0128571	0.0171429	0.0107143	-0.01	-0.000714286	0.0328571	0.02	-0.0257143	-0.0114286	0.035	0	0.00428571	0.00428571	0.0314286	0.0135714	0.005	0.00785714	-0.0114286	-0.0185714	0.0264286	0.0157143	0.00642857	0.02	-0.00642857	-0.00285714	0.0228571	0.00857143	0.0292857	-0.0185714	0.000714286	-0.035	0.00357143	0.0185714	0.0107143	-0.005	-0.0178571	0.00714286	-0.0214286	0.0285714	-0.00357143	0.0142857	-0.00785714	0.00142857	0.0192857	0.0242857	-0.0214286	-0.0114286	-0.00428571	-0.0321429	0.005	0.0228571	0.0185714	0.0121429	-0.0271429	0.0128571	-0.0264286	0.0307143	-0.0142857	-0.0335714	0.0135714	-0.0128571	-0.0335714	0.0178571	-0.03	-0.0221429	-0.0235714	0.0242857	0.02	0.0271429	0.0164286	0.0171429	0.00571429	0.00928571	-0.0171429	-0.0114286	0.0342857	0.0335714	-0.0221429	-0.00571429	0.00285714	-0.0164286	0.0178571	0.0221429	0.0314286	0.0257143	-0.000714286	-0.0314286	-0.0135714	-0.0142857	0.00714286	0.035	0.00785714	0.00928571	-0.0178571	-0.0214286	0.0221429	-0.00571429	-0.0335714	-0.0278571	0.0221429	-0.0164286	0.0242857	0.0285714	-0.00642857	-0.0292857	-0.0185714	-0.00785714	0.00571429	0.0314286	-0.0128571	-0.0278571	-0.0207143	-0.0314286	0.0292857	-0.0257143	0.03	-0.00785714	0.015	-0.02	0.0128571	-0.0142857	0.0157143	0.0221429	-0.00428571	0.0328571	0.0357143	-0.0178571	0.0278571	0.00357143	0.0264286	0.0142857	-0.0121429	0.0142857	-0.0278571	0.0171429	-0.0135714	-0.0114286	0.01	0.0271429	0.0214286	0.0321429	0	0.0357143	0.00142857	-0.00714286	0.0107143	-0.005	-0.0135714	0.0264286	-0.0242857	0	-0.0242857	0.0264286	0.0228571	-0.0271429	-0.0107143	-0.0114286	0.0271429	-0.0192857	0.0271429	0.0171429	-0.00428571	-0.0214286	-0.005	0.00357143	-0.00357143	-0.0178571	-0.00714286	0.00714286	0.01	-0.0221429	0.00285714	-0.0264286	0.0142857	-0.0314286	-0.0321429	-0.0114286	0.0357143	-0.0107143	-0.0214286	-0.0242857	-0.01	0.0271429	0.00285714	0.0142857	0.000714286	0.0271429	-0.0335714	-0.00857143	0.00928571	0.0285714	-0.0278571	-0.0314286	0.00785714	-0.0321429	-0.0271429	0.00571429	-0.0142857	-0.0328571	-0.0235714	0.0307143	-0.02	-0.0192857	-0.0314286	-0.00428571	0.0214286	0.00857143	-0.015	0.0207143	-0.00142857	-0.035	-0.00285714	0.0235714	0.0271429	0.0357143	0.00142857	0.0285714	0.0264286	0.00285714	-0.0164286	-0.000714286	0.0321429	-0.00928571	-0.0307143	-0.03	0.0307143	-0.0228571	0.0107143	-0.02	-0.0207143	0.0221429	0.0121429	0.0321429	0.00357143	-0.0185714	-0.00857143	-0.0114286	0.025	-0.0228571	-0.0264286	-0.0128571	-0.0228571	-0.0285714	0.0114286	0.005	-0.0292857	0.0142857	-0.00285714	0.0328571	-0.0192857	0.0157143	0.0328571	0.0142857	0.00714286	-0.0342857	0.0192857	0.00214286	0.0157143	-0.00642857	-0.0171429	-0.00428571	0.0164286	0.03	0.0285714	-0.0157143	0.0121429	0.0207143	-0.0264286	0.000714286	0.0335714	-0.0178571	-0.0114286	-0.0257143	0.0264286	0.0357143	0.015	0.0321429	0.0135714	-0.0242857	-0.00571429	-0.005	-0.00714286	-0.00857143	0.01	0.035	0.0292857	-0.00714286	-0.0335714	-0.0257143	-0.0128571	-0.015	0.00571429	-0.0321429	0.0157143	-0.00214286	0.0242857	-0.00785714	-0.0171429	0.0328571	-0.00642857	-0.02	0.0164286	-0.0164286	-0.0107143	0.00642857	-0.0171429	0.005	0.00214286	-0.00285714	0.0164286	-0.00214286	-0.00714286	-0.0271429	0.0242857	-0.0328571	0.00857143	-0.0171429	-0.005	-0.0235714	-0.00714286	0.0178571	-0.00357143	0.0335714	-0.0135714	0.0128571	0.0321429	-0.0257143	0.00571429	-0.0214286	0.00785714	0.000714286	0.0307143	-0.0121429	0.0192857	0.0214286	0.0292857	0.00285714	-0.01	0.0328571	0.035	-0.03	-0.00571429	-0.00857143	0.015	0.0192857	-0.00642857	0.025	-0.0342857	0.0242857	-0.035	0.0307143	-0.0285714	0.0335714	-0.00642857	-0.00714286	0.01	-0.01	-0.0321429	0.0171429	-0.0307143	0.0107143	-0.0185714	0.00142857	0	0.00142857	-0.0135714	-0.00714286	-0.0321429	0.0114286	0.0264286	-0.0335714	-0.0171429	0.0214286	0.03	-0.00142857	-0.03	0.025	-0.0128571	0.00857143	-0.0214286	-0.0128571	0.00285714	-0.015	-0.0157143	0.0321429	-0.0214286	-0.00428571	0.0228571	-0.0185714	0.0135714	0.0271429	-0.00714286	-0.00428571	-0.00785714	0.0278571	0.0321429	-0.0207143	0.0221429	0.035	0.0264286	-0.0221429	0.00214286	0.01	0.035	0.0328571	-0.0278571	-0.0314286	0.0214286	-0.005	0.0121429	0.035	-0.0171429	0.0164286	0.0207143	0.00285714	0.0121429	0.0342857	-0.000714286	-0.00142857	0.0164286	-0.0235714	0.0264286	-0.0264286	0.00714286	0.02	-0.035	0.00285714	0.0342857	-0.0121429	-0.0328571	-0.01	0.00142857	-0.03	0.035	0	0.00357143	0.00857143	-0.0307143	-0.0107143	-0.0328571	-0.0171429	0.025	-0.015	0.0342857	0.01	-0.0114286	-0.0242857	0.00785714	0.0228571	-0.025	0.0257143	0.0342857	-0.035	0.0342857	-0.0292857	-0.0142857	0	-0.0257143	0.0214286	-0.0107143	-0.0235714	-0.025	0.0257143	0.0185714	0.0114286	0.0264286	-0.0135714	-0.0164286	0.0307143	-0.0235714	-0.0142857	0.0142857	0.00214286	-0.0285714	0.0121429	-0.0242857	0.0328571	-0.0114286	-0.015	0.0192857	-0.00142857	-0.0257143	-0.0164286	-0.035	
0.00928571	0.0264286	-0.0142857	0.01	-0.035	-0.0292857	0.0342857	-0.0235714	0.0185714	0.0235714	-0.00357143	-0.00642857	-0.0207143	-0.0164286	-0.0221429	0.0114286	0.0321429	0.0357143	-0.0107143	-0.00214286	-0.0292857	0.00285714	0.00928571	-0.0328571	0.0264286	-0.005	-0.0121429	-0.0107143	-0.03	-0.0278571	-0.0107143	0.0142857	0.0335714	-0.0242857	0.025	0.0335714	-0.0178571	0.0235714	0.0114286	0.00142857	-0.0235714	0.00857143	-0.00428571	-0.00857143	0.0271429	0.00857143	-0.0335714	0.0228571	0.00785714	0.0278571	0.0214286	-0.0207143	-0.00571429	0.0314286	-0.0178571	-0.015	-0.01	-0.0292857	0.00928571	-0.005	0.015	0.0335714	0.01	0.0121429	-0.0271429	-0.035	-0.0242857	0.0271429	-0.0107143	-0.0121429	0.0292857	0.000714286	0.0314286	-0.0114286	-0.00714286	0.0221429	0.0321429	0.0314286	-0.0257143	0.00357143	0.0235714	-0.00357143	0.0185714	-0.0185714	-0.00785714	0.00142857	0.00142857	0.0171429	-0.0271429	0.0114286	0.0135714	0.0228571	-0.0257143	0.0242857	0.0357143	0.02	-0.01	-0.025	0.0107143	0.0142857	-0.00214286	-0.03	0.0164286	0.03	-0.00642857	-0.0271429	-0.0185714	0.0271429	0.00571429	-0.00928571	0.0314286	-0.00714286	0.0228571	-0.0207143	-0.025	0.0157143	0.0157143	-0.0221429	0.0335714	-0.0107143	0.0242857	0.0107143	0.0128571	0.0342857	-0.035	0.0128571	0.0178571	-0.01	-0.0114286	0.0292857	0.00571429	-0.0121429	0	-0.0142857	-0.0185714	0.0292857	0.0307143	-0.00142857	-0.0142857	0	-0.01	-0.0192857	-0.00642857	0.0135714	-0.00428571	0.00428571	-0.00714286	0.0121429	-0.0171429	-0.00928571	0.00285714	0.00785714	0.00214286	-0.0207143	0.00571429	-0.0321429	0.0271429	0.0242857	-0.00642857	-0.02	-0.0164286	0.0342857	-0.0314286	-0.0157143	0.0207143	-0.015	0.0142857	0.015	-0.0157143	0.035	-0.0207143	0.01	-0.02	0.00785714	0.0242857	-0.0235714	0.0128571	-0.0185714	0.0235714	0.0307143	-0.0271429	-0.01	0.00285714	0.01	-0.0292857	0.00928571	0.0135714	0.0328571	0.035	0.00785714	0.0135714	0.0192857	-0.0285714	0.0171429	-0.0328571	0.0271429	0.00357143	0.0171429	0.00571429	0.0228571	-0.0185714	-0.0142857	0.0335714	-0.00357143	-0.005	0.0221429	-0.0264286	-0.0285714	0.00428571	-0.00142857	0.00357143	0.0121429	-0.0107143	0.00714286	0.0228571	-0.005	0.0171429	-0.0342857	-0.00785714	0.0157143	-0.0257143	0.00642857	0.0357143	-0.0192857	0.025	0.00428571	0.00857143	0.0292857	0.0221429	0.0157143	-0.0185714	-0.0328571	-0.035	-0.0207143	-0.035	-0.005	0.00214286	-0.0264286	-0.0321429	-0.03	0.00714286	0.00642857	-0.0171429	0.0321429	-0.0228571	0.00642857	-0.00928571	0.0292857	0.00785714	-0.0164286	-0.025	0.0171429	-0.00857143	0.0114286	-0.000714286	-0.02	-0.0207143	-0.0285714	0.01	-0.035	-0.0121429	0.0264286	-0.0321429	-0.0114286	0.00642857	0.005	-0.0157143	-0.0278571	0.0135714	-0.0128571	0.0142857	-0.015	-0.00571429	-0.00214286	0.0178571	0.00642857	-0.0314286	-0.0278571	-0.0342857	0.0114286	0.0285714	0.0128571	0.0292857	-0.0164286	-0.0121429	-0.00785714	0.0357143	-0.0314286	-0.035	0.00928571	0.00571429	-0.0121429	-0.000714286	0.00857143	-0.0228571	-0.03	0.0142857	0.0342857	0.0142857	-0.00785714	-0.015	-0.00714286	-0.0221429	0.015	0.0257143	0.0307143	0.0221429	-0.005	0.00357143	-0.0114286	-0.03	-0.00428571	-0.035	0.000714286	-0.02	0.0257143	0.0278571	-0.0207143	0.0292857	-0.00642857	-0.0107143	-0.00142857	-0.0171429	0.0242857	0.00857143	0.0321429	-0.005	-0.0135714	0.03	0.01	-0.0207143	-0.0207143	0.00357143	-0.00785714	-0.005	0.0307143	-0.0135714	-0.0192857	-0.0107143	0.0257143	-0.0292857	0.0321429	0.0221429	-0.0292857	-0.00357143	-0.0335714	-0.00285714	0.025	-0.0192857	0.0271429	-0.0171429	0.00571429	-0.01	-0.0335714	0.0307143	-0.000714286	0.0335714	0.0264286	-0.0135714	-0.00642857	0	0.00142857	-0.0264286	0.005	0.0285714	0.00357143	-0.000714286	0.0164286	-0.015	0.0235714	0.00571429	0.0278571	0.0192857	-0.00857143	0.0342857	-0.0207143	-0.00714286	0.0321429	-0.0314286	-0.025	0.0235714	0.0235714	-0.0185714	0.0142857	-0.00928571	-0.0242857	-0.0228571	0.025	0.00285714	0.0357143	-0.0178571	0.00357143	0.000714286	-0.00928571	-0.0278571	0.0307143	-0.005	0.00642857	0.0107143	-0.0185714	-0.00571429	-0.02	-0.0271429	0.0142857	-0.0278571	0.00785714	0.0292857	-0.0335714	0.00428571	-0.00142857	-0.0235714	0.0285714	0.0228571	-0.00714286	0.00642857	-0.0228571	-0.0307143	0.0185714	-0.0342857	-0.0271429	0.0178571	0.0207143	0.0114286	0.02	0.0121429	0.0192857	0.0142857	0.00857143	-0.0107143	-0.0114286	-0.00928571	-0.0157143	-0.0307143	0.0357143	0.0342857	-0.0235714	0.00785714	-0.00714286	0.015	0.0128571	0.0264286	0.0264286	-0.0292857	0.0128571	0.02	0.0121429	-0.00928571	-0.01	0.0314286	-0.00857143	-0.00214286	-0.0214286	0.0128571	-0.0264286	0.0335714	-0.0107143	-0.00642857	-0.0228571	0.0328571	0.0178571	0.000714286	-0.0128571	-0.0335714	-0.0292857	-0.0135714	0.00142857	-0.0171429	-0.005	0.0292857	-0.00142857	0.00857143	0.0192857	-0.0107143	0.0142857	0.0328571	0.01	-0.01	-0.0128571	0.00142857	0.0221429	-0.0207143	0.0342857	-0.035	0.0278571	0.00857143	0.0335714	0.0178571	-0.0342857	-0.025	0.0142857	-0.015	-0.0235714	0.00214286	0.0235714	-0.0171429	0.0235714	-0.0114286	-0.0335714	0.02	-0.0185714	0	0.0292857	0.00142857	-0.01	0.00785714	-0.00214286	0.0357143	-0.00142857	-0.0142857	-0.0335714	-0.015	0	0.0357143	-0.015	0.0285714	-0.0257143	0.0192857	0.01	0.0121429	0.0292857	0.025	0.0321429	0.00714286	-0.00928571	0.0192857	0.025	0.0157143	-0.0285714	-0.00785714	-0.035	0.025	-0.00714286	0.0292857	-0.01	0.0185714	0.000714286	0.0228571	-0.0164286	0.000714286	0.00928571	-0.015	0.0207143	0.0107143	0.0214286	0.00642857	0.00285714	-0.00357143	-0.0107143	0.0142857	-0.0271429	0.02	-0.0314286	0.00571429	-0.00928571	-0.005	-0.0107143	0.0164286	0.0114286	0.0328571	-0.0278571	0.0114286	-0.0121429	0	-0.03	0.0128571	0.0192857	0.00642857	-0.0342857	-0.0335714	0.00785714	0.01	0.0235714	-0.00785714	-0.0157143	-0.025	0.0335714	-0.0114286	0.00642857	-0.0135714	0.00357143	0.0142857	-0.03	0.00714286	-0.0157143	0.0328571	-0.0342857	-0.0257143	0.0128571	-0.0221429	0.00785714	-0.0142857	-0.01	0.0307143	-0.0128571	-0.00428571	-0.0264286	-0.03	0.00285714	-0.0257143	0.00928571	-0.0257143	-0.015	0.0335714	0.00142857	0.005	-0.0278571	0.0357143	-0.00571429	0.0142857	0.0228571	0.0328571	0.0292857	0.0285714	0.00357143	0.0142857	-0.00928571	-0.0292857	0.0235714	-0.0321429	-0.0164286	0.0328571	-0.0114286	-0.025	0.0271429	0.0107143	0.00571429	0.00142857	-0.0178571	-0.0278571	0.0107143	-0.00785714	-0.0185714	0.0314286	-0.0107143	-0.0164286	-0.0342857	-0.00285714	-0.0171429	0.0321429	0.0121429	-0.0307143	0.0285714	0.005	-0.00142857	0.0328571	-0.0164286	0.025	-0.0328571	0.00785714	-0.00642857	0.0235714	0.00428571	0.0171429	-0.000714286	0.0328571	0.0292857	-0.0314286	-0.00214286	0.0121429	0.0128571	0.01	-0.0321429	0.0292857	-0.0292857	0.0292857	0.0135714	0.00857143	-0.01	0.0314286	0.00428571	-0.0342857	0.00142857	-0.00357143	-0.0278571	0.00142857	0.03	0.0278571	-0.01	-0.00142857	-0.000714286	0.0185714	0.0228571	0.005	-0.035	-0.0142857	0.00142857	-0.005	-0.0107143	0	0.00785714	-0.0342857	0.0107143	0.0107143	-0.00428571	0.0164286	0.00428571	-0.0271429	-0.0114286	-0.005	0.005	-0.00642857	0.0335714	0.00714286	-0.00928571	0.00642857	-0.0278571	-0.015	-0.00214286	0.0342857	0.0185714	0.0321429	-0.0178571	0.005	0.000714286	-0.0171429	0.0257143	0.00285714	-0.0214286	0.0157143	0.00428571	0.0221429	-0.0178571	-0.0214286	0.0335714	0.0128571	-0.00357143	-0.0328571	-0.0135714	-0.0142857	-0.00214286	0.0264286	0.015	0.0321429	-0.00285714	0.00642857	0.00214286	-0.0292857	0.0264286	0.035	-0.0314286	-0.0257143	-0.00357143	-0.0135714	-0.02	-0.00142857	-0.03	0.00642857	-0.035	0.0207143	-0.0142857	-0.03	0.00642857	0.00285714	0.0214286	-0.03	0.0164286	0.0185714	-0.0278571	-0.0335714	-0.0321429	-0.0292857	-0.00642857	-0.0164286	-0.0335714	0.0264286	0.0257143	-0.0307143	-0.00214286	-0.0185714	-0.0321429	0.00142857	-0.00857143	-0.0342857	-0.0114286	-0.0278571	-0.000714286	0.0307143	0.0142857	-0.035	0.0157143	0.000714286	-0.0292857	0.0228571	0.005	0.0271429	
0.0278571	-0.015	0.00928571	0.00142857	0.0242857	-0.0221429	0.00714286	-0.0185714	-0.00285714	-0.025	0.00857143	0.0235714	0.0164286	-0.03	0.00571429	-0.0142857	-0.0271429	0.0321429	-0.0135714	-0.00357143	0.00571429	0.0207143	-0.00857143	-0.0164286	0.0207143	0.00785714	-0.015	0.0264286	-0.00571429	0.025	-0.0171429	0.0235714	0.0114286	-0.00714286	-0.0114286	-0.000714286	0.00642857	-0.00357143	-0.0185714	0.00428571	-0.0278571	0.0257143	0.0285714	0.0242857	-0.00357143	-0.00214286	-0.0264286	0.00428571	0.0314286	-0.005	-0.035	0.000714286	-0.0207143	0.0285714	-0.015	0.000714286	0	0.005	-0.00857143	-0.005	-0.00571429	-0.025	-0.0178571	0.00642857	0.00357143	-0.0285714	0.00642857	0.0107143	0.00357143	0.0228571	-0.0214286	-0.0235714	-0.0221429	0.00785714	0.0357143	0.01	-0.0307143	0.01	-0.0221429	0.0357143	-0.0314286	0.015	-0.0342857	0.02	-0.0271429	-0.0142857	-0.015	-0.0264286	0.0264286	-0.0228571	0.00428571	0.0214286	0.0242857	0.0214286	0.0285714	-0.00857143	0.0285714	-0.00142857	0.00285714	0.0328571	0.0221429	-0.0178571	-0.0271429	0.0357143	0.025	-0.0271429	-0.025	-0.00428571	-0.0164286	0.025	-0.005	-0.0121429	-0.03	0.0335714	0.00857143	-0.0221429	-0.0171429	-0.00571429	-0.0128571	0.01	-0.0278571	0.0264286	0.0321429	0.0321429	-0.0228571	-0.01	0.0242857	0.00642857	0.0235714	-0.00857143	0.00285714	-0.0242857	-0.0257143	-0.0228571	-0.025	0.035	0.0221429	0.0221429	-0.00571429	-0.0307143	0.0107143	-0.01	-0.00785714	-0.0185714	-0.0128571	0.00214286	-0.005	-0.0285714	-0.00285714	-0.0171429	-0.0178571	0.005	0.01	0.0157143	-0.0335714	0.0221429	-0.0307143	0.0257143	0.03	0.0285714	0.0178571	-0.00357143	0.005	0.0278571	0.00857143	0.015	-0.00785714	-0.00571429	-0.0335714	0.0214286	-0.000714286	-0.0221429	0.0121429	-0.00785714	-0.005	0.000714286	-0.005	0.025	0.00714286	0.0278571	0.00857143	-0.01	0.0335714	-0.0178571	-0.0307143	0.035	0.005	-0.0257143	-0.01	-0.00142857	0.00357143	0.00928571	-0.00357143	-0.0278571	-0.0335714	0.00571429	-0.0121429	-0.00642857	0.00142857	0.0264286	0.0157143	0.0357143	-0.0321429	0.0285714	0.0285714	-0.00214286	-0.00714286	0.025	0.0235714	0.000714286	0.0164286	-0.00428571	0.0264286	0.0135714	-0.0214286	0.0307143	-0.0221429	0.0192857	0.00571429	0.00285714	0.0185714	0.01	-0.0242857	-0.0214286	-0.0171429	0.0142857	0.02	-0.0285714	-0.0285714	0.0221429	0.0328571	-0.0121429	-0.0128571	-0.035	-0.0192857	-0.0207143	-0.00214286	-0.0257143	0.005	-0.0142857	0.0107143	-0.015	-0.0178571	0.000714286	-0.000714286	-0.00357143	0.0321429	-0.0221429	0.0164286	-0.0321429	0.0164286	-0.00142857	0.0128571	-0.00714286	-0.0214286	0.0314286	-0.0285714	-0.000714286	0.00357143	0.015	-0.015	0.000714286	0.00428571	0.00714286	0.000714286	-0.0142857	-0.0128571	-0.000714286	-0.005	0.0278571	0.02	-0.0307143	0.0135714	0.00357143	-0.0292857	0.0142857	0.035	-0.0328571	0.0271429	0.015	-0.03	-0.0271429	0.0142857	-0.0164286	-0.0328571	-0.00642857	0.0157143	0.0107143	0.0278571	-0.0164286	0.0264286	-0.0235714	0.0192857	-0.00571429	-0.0157143	0.0207143	-0.0192857	0.00714286	-0.0164286	0.0114286	0.0357143	-0.0321429	-0.0185714	0.0128571	0.00642857	-0.0121429	0.0278571	-0.0292857	0.0271429	0.0192857	-0.0135714	0.0321429	-0.00714286	0.00142857	0.0164286	-0.005	0.0307143	-0.00357143	-0.0307143	0.0221429	-0.0192857	0.0314286	0	0.035	0.0264286	-0.015	0.0192857	-0.0285714	0.0271429	-0.0335714	-0.0164286	-0.00785714	0.00642857	0	0.00642857	0.0135714	0.0228571	-0.00214286	-0.015	-0.0207143	0.0178571	0.00642857	-0.025	-0.025	0.00928571	-0.00714286	0.005	0.00357143	-0.01	-0.0242857	-0.0107143	0.00571429	0.00785714	-0.01	-0.03	-0.00214286	0.0107143	0.0242857	0.00428571	-0.0328571	-0.00857143	-0.0114286	-0.005	-0.000714286	0.0242857	-0.035	0.0135714	-0.0235714	-0.00214286	0	-0.00857143	-0.02	0.00714286	-0.0328571	0.0271429	-0.02	-0.005	-0.00428571	0.0185714	0.02	-0.0278571	0.00928571	0.0264286	0.015	0.0342857	0.0314286	-0.0228571	0.00857143	-0.015	-0.0178571	-0.0228571	0.0121429	0.00642857	0.00714286	0.0121429	0.0314286	0.00714286	0.0264286	-0.0285714	0.00571429	-0.01	-0.00214286	-0.0135714	0.0328571	-0.0335714	-0.0228571	-0.0235714	0.0335714	-0.0257143	0.0307143	0.0178571	-0.0185714	-0.0307143	0.00785714	0.0321429	-0.0328571	-0.0307143	0.01	-0.0228571	-0.0107143	-0.00714286	-0.0107143	0.00214286	0	0.0314286	-0.0221429	-0.005	-0.0321429	-0.0314286	-0.0321429	-0.0257143	0.0307143	-0.0335714	-0.00357143	0.0271429	-0.0321429	0.00857143	0.005	-0.0342857	-0.0164286	-0.000714286	-0.0157143	0.000714286	0.00357143	-0.00714286	0.0335714	-0.0285714	-0.00285714	-0.0271429	-0.0164286	0.0221429	-0.0335714	-0.0264286	-0.0121429	0.00214286	0.00571429	-0.0328571	-0.00214286	0.00857143	0.00785714	0.000714286	-0.0157143	0.00214286	0.00285714	0.0157143	-0.00642857	0.00571429	0.025	-0.000714286	-0.0278571	-0.0271429	-0.000714286	-0.00857143	-0.0257143	0.00357143	0.02	0.00857143	0.01	0.0178571	-0.0178571	-0.005	0.00357143	-0.0164286	0.00357143	-0.00714286	0.0207143	0.0107143	-0.005	-0.0171429	0.02	-0.0335714	-0.0157143	-0.0321429	0.00357143	0.0221429	0.0185714	-0.00214286	0.0292857	0.00785714	0.0321429	-0.035	-0.0185714	-0.005	0.0292857	0.0278571	0.0335714	-0.0214286	0	-0.0264286	0.0314286	-0.0171429	0.00357143	-0.000714286	0.00142857	0.00785714	0.0271429	0.0235714	-0.0178571	-0.0142857	0.00714286	-0.0335714	0.0242857	0.0264286	-0.0307143	-0.00857143	0.0128571	-0.0107143	-0.00928571	-0.0285714	-0.00214286	-0.0135714	-0.0285714	0.0142857	-0.0171429	0.00142857	0.00571429	0.0171429	0.015	0.00642857	0.0257143	0.0107143	0.0242857	-0.00714286	0.0107143	0.0264286	0.00214286	-0.0328571	0.0135714	0.0192857	-0.0121429	-0.0157143	-0.0135714	0.0128571	0.0121429	-0.00857143	-0.0321429	-0.0114286	0.0157143	0.0307143	0.0321429	-0.0228571	0.0185714	0.00428571	-0.00785714	-0.035	-0.03	-0.00142857	0.0171429	0.02	0.00571429	0.00714286	0.0314286	0.0307143	0.000714286	0.00571429	0.0207143	-0.0335714	0.00785714	-0.00142857	-0.0128571	-0.00357143	-0.0164286	0.00857143	-0.0271429	0.0307143	0.035	0.0135714	0.02	-0.02	0.00785714	0.0157143	0.0292857	0.0271429	0.0214286	0.0221429	0.0271429	0.0264286	0.0214286	-0.0257143	0.01	-0.00928571	-0.0178571	-0.0285714	-0.015	0.0178571	0.0121429	0.00714286	-0.0142857	-0.0157143	0.00642857	0.00785714	0.0157143	0.025	0.0171429	-0.01	-0.0142857	-0.0178571	-0.0328571	0.00642857	-0.00285714	-0.0242857	0.0235714	0.0278571	-0.0328571	0.00857143	0.0135714	-0.005	-0.00142857	-0.035	0.00428571	0.00928571	-0.00928571	-0.0128571	0.0157143	-0.0228571	0.00642857	-0.00785714	0.0192857	0.0271429	-0.0228571	-0.0107143	0.0357143	-0.00642857	0.015	0.0164286	-0.0157143	0.00142857	0.0335714	0.0235714	-0.0278571	0.0321429	0.035	0.0307143	0.0235714	0.00285714	0.00285714	-0.0335714	-0.00142857	0.00214286	0.00357143	0.00428571	-0.025	0.03	0.0264286	-0.00785714	0.00785714	-0.00357143	-0.015	0.0278571	0.0242857	-0.00285714	-0.0192857	-0.0107143	-0.00857143	-0.00357143	-0.03	0.0114286	0.0335714	0.00428571	-0.00142857	-0.0307143	0	0.0342857	0.000714286	0.0242857	-0.0335714	-0.0328571	-0.00785714	0.000714286	0.00428571	0.0307143	-0.0314286	-0.02	-0.01	0.03	-0.0271429	0.0328571	0.0278571	-0.00714286	0.0242857	-0.0185714	-0.00928571	0.00571429	0.00642857	-0.0164286	-0.0335714	0.0114286	0.03	0.000714286	-0.0207143	0.0292857	-0.0292857	-0.0192857	0.0278571	0.00642857	0.00571429	0.0292857	0.00857143	0.0328571	-0.00642857	0.0135714	-0.00642857	0.0342857	-0.00571429	0.0185714	-0.00571429	0.00285714	-0.0185714	-0.0142857	-0.00357143	0.00642857	0.00214286	-0.0114286	-0.0235714	-0.0278571	0.00714286	0.015	-0.0157143	0.000714286	0.0164286	-0.035	-0.00642857	0.0221429	0.0178571	0.0221429	-0.00785714	-0.0128571	0.0157143	0.0357143	0.0214286	0.01	-0.0214286	-0.0214286	0.00857143	-0.0264286	-0.00214286	0.00357143	-0.0228571	0.0142857	0.0242857	0.00928571	-0.015	0.0271429	0.0328571	0.0335714	0.000714286	0.00357143	0.0121429	-0.0142857	0.005	-0.00785714	-0.0142857	0.0335714	-0.0221429	0.00428571	-0.0142857	-0.0292857	0.0271429	-0.035	-0.03	-0.0221429	-0.0242857	0.0207143	-0.00857143	-0.015	
0.0292857	-0.01	0.0235714	-0.0292857	-0.0314286	-0.0228571	-0.0192857	0.0257143	0.00571429	0.0142857	0.0228571	-0.03	-0.0185714	0.0357143	-0.00928571	0.0214286	0.0285714	-0.0221429	-0.0157143	-0.03	0.0171429	0.005	-0.0242857	-0.0264286	-0.0292857	0.0178571	-0.0135714	0.0192857	-0.0321429	-0.0214286	0.005	-0.00214286	0.00428571	-0.00714286	-0.0307143	-0.0264286	-0.0292857	-0.015	0.0342857	0.0114286	0.0342857	-0.0135714	0.0164286	0.0164286	-0.0142857	0.00857143	-0.0328571	-0.0221429	-0.0128571	0.0242857	0.02	0.005	0.03	-0.00357143	0.0142857	0.00214286	0.015	0.00142857	-0.015	-0.0164286	-0.0185714	0.025	0.0164286	-0.0135714	0.0185714	0.0214286	0.0321429	0.025	0.00714286	0.03	0	-0.0285714	0.0171429	0.0178571	0.0228571	-0.0335714	-0.01	-0.00857143	0.0164286	0.0121429	-0.0207143	-0.0342857	0.0178571	-0.0271429	-0.00285714	-0.00428571	-0.0242857	0.0128571	-0.00142857	-0.00428571	0.0314286	-0.0192857	0.0221429	-0.0228571	-0.0321429	-0.03	0.0335714	0.035	0.03	-0.0292857	0.0285714	0.0314286	-0.0228571	0.00928571	0.0128571	0.000714286	-0.0235714	0.00357143	0.0271429	-0.00642857	0.0164286	0.00714286	-0.00571429	-0.00214286	-0.0185714	-0.00785714	-0.005	-0.00785714	-0.0314286	0.0285714	0.0235714	0.000714286	0.01	-0.025	0.0128571	0.0128571	-0.02	-0.0235714	0.0114286	0.0114286	-0.0178571	-0.0307143	0.00642857	-0.00571429	-0.0207143	-0.0171429	0.03	0.0278571	0.0214286	-0.0128571	-0.015	0.00142857	0.0292857	0.0142857	0.0342857	-0.0257143	0.00714286	0.03	0.00214286	-0.0235714	-0.0121429	0.0264286	0.0121429	0.0328571	-0.035	0.0257143	-0.025	0.0171429	-0.0342857	0.0214286	-0.00785714	0.02	-0.00857143	0.0335714	-0.0221429	0.00571429	0.0171429	0.00928571	-0.00285714	-0.0321429	0.0314286	-0.0171429	-0.03	-0.01	-0.00214286	-0.0314286	0	-0.0314286	-0.000714286	0.00285714	0.0171429	0.0228571	-0.00714286	-0.00714286	0.0192857	0.03	0.02	0.03	0.0107143	-0.0135714	-0.0192857	0.00428571	-0.0292857	0.00785714	0.00142857	-0.0164286	0.0142857	0.02	-0.00642857	-0.0242857	0.0228571	-0.0114286	0.0307143	0.0285714	0.0142857	-0.00714286	-0.00214286	0.015	0.0335714	0.0321429	-0.0185714	0.015	0.0185714	-0.025	0.00857143	-0.0321429	-0.0314286	-0.00785714	0.0328571	-0.02	0.0142857	0.0142857	0.0192857	0.02	-0.0142857	0.0221429	0.00428571	0.0357143	0.00571429	0.0335714	0.0121429	-0.00785714	0.0228571	0.00642857	0.0214286	-0.0335714	0	-0.0171429	-0.0178571	-0.00214286	0.0164286	-0.00142857	-0.0235714	-0.00142857	0.00857143	0.02	0.00142857	-0.0221429	-0.0235714	0.035	-0.00642857	-0.00857143	0.0135714	-0.0235714	0.0121429	0	0.0335714	-0.02	-0.000714286	-0.0314286	0.0142857	0.0121429	0.0335714	0.00142857	0.02	0.0185714	-0.0314286	-0.0164286	0.00285714	-0.0135714	0.0164286	-0.0171429	-0.0142857	0.0278571	0.0164286	-0.00428571	-0.0221429	0.0192857	0.00857143	0.0264286	-0.0164286	-0.0342857	-0.0185714	0.0321429	0.015	0.0285714	0.0335714	-0.0221429	0.00928571	0.0335714	-0.0178571	-0.0121429	0.01	-0.0207143	-0.01	-0.00642857	-0.00142857	0.0307143	-0.0221429	-0.035	-0.0192857	-0.00428571	-0.0171429	-0.0321429	0.0242857	0.000714286	-0.00142857	-0.0342857	0.0207143	-0.0292857	0.0271429	-0.0321429	0.00928571	0.00928571	0.00142857	-0.0121429	0.00142857	-0.00142857	-0.0335714	0.0121429	-0.00428571	-0.0164286	0.000714286	0.00642857	0.035	-0.00857143	0.000714286	0.035	-0.0142857	0.0142857	0.035	-0.0321429	-0.0264286	0.0192857	-0.0292857	-0.00142857	0.0207143	0.00428571	0	-0.0292857	0.01	-0.00928571	0.0107143	0.02	0.00142857	-0.0242857	-0.0285714	0.00357143	-0.025	-0.0264286	-0.0207143	-0.0278571	0.0292857	0.015	0.0135714	-0.00571429	-0.03	0.0157143	-0.00714286	0.0285714	-0.00642857	0.0285714	0.0314286	-0.0321429	-0.0228571	0.00285714	0.00142857	-0.00142857	-0.0292857	0.00214286	0.00428571	-0.0185714	-0.00571429	0.0164286	-0.0342857	0.0307143	-0.00714286	0.00928571	-0.00214286	0.00357143	-0.0164286	-0.0214286	-0.0235714	0.0142857	0.0285714	0.025	-0.0278571	0	0.00428571	-0.0342857	0.0292857	-0.00142857	-0.005	0.0242857	-0.0328571	-0.0264286	0.0278571	-0.03	-0.0271429	0.0335714	-0.0271429	-0.0214286	0.0157143	0.00214286	0.03	-0.0178571	0.0335714	-0.0135714	0.0271429	-0.00428571	-0.00928571	0.0114286	0.00928571	0.00214286	-0.0107143	-0.0328571	0.0285714	0.0335714	-0.0321429	0.0335714	0.0342857	0.0321429	0.0335714	0.0307143	-0.0142857	0.0357143	0.005	-0.0228571	0.00642857	0.0128571	0.0114286	-0.0192857	0.0264286	-0.00857143	0.0178571	0.02	0.00857143	0.0157143	-0.0292857	-0.035	0.0121429	0.0335714	0.0121429	0.0221429	0	-0.035	-0.01	-0.00785714	0.0342857	-0.00642857	-0.0107143	-0.00214286	0.0264286	-0.0135714	0.0292857	-0.0235714	0.0235714	-0.00214286	0.0257143	0.0307143	-0.025	0.00142857	-0.025	0.00214286	-0.00642857	-0.00571429	-0.0135714	0.00285714	0.0107143	0.0292857	0.00357143	-0.0135714	0.0264286	0.0164286	0.00928571	0.0271429	0.0164286	0.0342857	-0.0171429	-0.02	0.0285714	0.00785714	-0.0207143	0.0192857	-0.005	-0.0278571	0.0307143	-0.0178571	-0.0285714	-0.0142857	0.0142857	0.0185714	0.0221429	0.0242857	-0.0157143	-0.0207143	-0.0178571	-0.0285714	0.0178571	0.0278571	0.0357143	0.0221429	0.015	-0.00785714	0.00214286	-0.0121429	-0.0171429	0.0192857	0.0235714	0.00142857	0.035	0.0157143	0.01	0.015	-0.00142857	0.00571429	-0.0121429	0.03	-0.0107143	-0.00571429	-0.02	-0.0328571	-0.0235714	0.00285714	-0.00785714	0.0335714	-0.0164286	0.01	-0.0314286	0.00214286	-0.0328571	0.00571429	-0.0121429	-0.0164286	0.0328571	-0.00928571	0.00642857	-0.0207143	-0.0264286	0.0307143	-0.0185714	0.00928571	0.0107143	-0.00785714	-0.0121429	0.01	-0.000714286	0.0114286	-0.03	0.0235714	0.00642857	-0.015	-0.00857143	-0.0157143	-0.0114286	0.0185714	-0.0185714	0.00714286	0.0292857	-0.015	-0.0271429	-0.00214286	0.0257143	0.0328571	0.0164286	-0.0121429	-0.0128571	0.0235714	-0.0314286	0.0335714	0.0185714	-0.015	0.00642857	-0.00714286	-0.0214286	-0.00428571	0.00357143	0.0128571	0.00785714	0.00857143	-0.0342857	0.015	-0.00571429	-0.00785714	0.0342857	0.0185714	-0.0257143	-0.0207143	0.0264286	0.005	-0.0342857	0.035	-0.0335714	-0.00785714	-0.00285714	0.0178571	-0.0185714	-0.0142857	0.005	-0.015	-0.0171429	-0.0128571	-0.0292857	-0.01	-0.0192857	0.0214286	-0.0135714	0.02	-0.00214286	0.0292857	0.0292857	-0.00142857	-0.0257143	-0.0121429	-0.00857143	-0.0278571	-0.03	0.00142857	0.0242857	0.0314286	-0.03	-0.00928571	-0.00428571	-0.0285714	-0.0164286	0.0285714	-0.01	0	-0.0221429	0.03	0.02	0.0328571	-0.0185714	-0.00785714	-0.0135714	0.0342857	-0.0228571	-0.0257143	0.0178571	-0.0235714	0.00428571	0.0114286	-0.0242857	0.0135714	0	0.00285714	0.0214286	0.005	0.005	-0.025	-0.0342857	-0.0242857	0.000714286	0.0342857	0.0192857	0.0192857	-0.00785714	-0.0271429	-0.0164286	-0.0292857	-0.0335714	0.00428571	-0.0328571	0.02	0.0314286	0.0257143	0.0185714	-0.0271429	0.035	-0.0342857	-0.0157143	-0.0307143	-0.0221429	-0.005	0.0178571	0.0128571	-0.00142857	0.00285714	-0.0185714	-0.0328571	0.0128571	0.02	-0.0221429	0.0142857	-0.0164286	0.0321429	-0.00214286	0.0107143	-0.0314286	-0.0178571	0.0164286	0.00785714	0.0214286	-0.0157143	-0.00857143	-0.0171429	0.0107143	0.0107143	-0.00928571	-0.0242857	0.0121429	-0.0242857	-0.02	0.025	-0.0285714	0.0328571	0.00214286	0.00571429	-0.0342857	-0.0157143	0.00785714	-0.0207143	0.005	-0.0128571	0.0292857	0.0235714	-0.0171429	0.0278571	-0.00214286	0.0242857	-0.0264286	0.015	-0.00428571	0.03	0	-0.0121429	-0.0235714	0.0121429	0.0342857	-0.0321429	0.0228571	0.01	0.0157143	0.00357143	0.0357143	0.0228571	-0.0342857	0.00142857	0.0292857	-0.0335714	-0.0128571	-0.0335714	0.0185714	0.0271429	-0.0114286	0.0114286	0.015	-0.0271429	-0.0314286	0.0135714	-0.00214286	-0.0228571	0.03	0.0285714	0.00785714	0.0307143	0.0171429	-0.0142857	0.00642857	0.015	-0.0114286	0.03	0.0257143	0.00571429	0.0342857	-0.00857143	0.0292857	0.0357143	0.0278571	0.0221429	0.00285714	0.0157143	-0.0107143	-0.015	0.00714286	-0.0207143	-0.00285714	0.0228571	0.0242857	0.000714286	-0.0342857	-0.0142857	-0.0214286	0.0307143	0.015	
0.0221429	-0.00857143	-0.00428571	-0.0285714	-0.00142857	0.0121429	0.0321429	-0.00714286	-0.0328571	-0.0328571	0.0278571	-0.00642857	0.0314286	0.0271429	0.0228571	-0.0171429	-0.00571429	0.00214286	-0.0264286	-0.02	0.01	-0.0121429	0.0128571	-0.00357143	-0.0242857	0.0142857	-0.00214286	-0.00357143	0.0285714	0.0292857	-0.025	-0.02	-0.0157143	-0.0285714	-0.0135714	0.0185714	0.0185714	0.0192857	0.0121429	-0.0128571	0.0221429	0.00357143	0.0157143	-0.0171429	-0.005	-0.0321429	-0.0328571	-0.01	0.00571429	-0.0242857	0.005	0.0164286	-0.00142857	0.0185714	-0.0228571	-0.025	-0.00285714	0.01	0.00642857	0.0264286	0.00285714	-0.0178571	-0.03	0.0228571	-0.0114286	0.0285714	-0.0292857	0.00857143	-0.0228571	0.0178571	0.0307143	0	-0.015	-0.0242857	0.0185714	-0.0192857	0.0164286	-0.0135714	0.00571429	0.0228571	-0.00285714	0.0121429	0.00285714	0.0307143	-0.00571429	0.015	0.00642857	-0.00785714	0.0257143	-0.0235714	-0.0178571	-0.00714286	0.0307143	0.0242857	0.0164286	0.02	0.0164286	-0.0121429	-0.00785714	-0.005	-0.0307143	0.0235714	0.03	0.0264286	0.000714286	-0.0221429	-0.0285714	-0.0192857	-0.000714286	-0.0221429	0.00428571	-0.00285714	0.025	-0.0292857	0.0285714	0.0207143	0.0214286	-0.00142857	-0.0235714	0.0107143	-0.0242857	0.0314286	0.00428571	-0.03	0.0192857	0.0214286	0.0257143	-0.0342857	-0.0271429	0.0185714	0.0328571	0.0142857	-0.0278571	0.0264286	0.005	-0.0264286	0.00571429	-0.0228571	0.0264286	0.00571429	-0.01	-0.00571429	-0.0328571	0.0164286	0	0.0307143	0.000714286	0.0221429	-0.00642857	-0.0221429	0.0342857	0.00428571	-0.0271429	-0.0321429	-0.0242857	-0.00642857	0.025	-0.035	0.0314286	-0.00142857	-0.0157143	0.0278571	-0.0228571	-0.00857143	0.0178571	0.0171429	-0.0342857	0.0242857	0.0292857	0.0271429	-0.00571429	0.02	-0.015	0.0335714	-0.0342857	-0.0135714	0.0278571	-0.0328571	-0.0278571	0.0221429	-0.0192857	0.00714286	-0.00928571	0.0257143	0.0107143	-0.0328571	0.02	-0.035	0.00428571	0.015	-0.00142857	0.0235714	0.00642857	0.0107143	0.0164286	0.0257143	-0.00857143	0.0171429	0.0135714	0.0214286	0.00857143	0.00857143	-0.0285714	0.0285714	0.00571429	-0.0278571	-0.0214286	-0.00214286	0.0121429	0.0235714	0.0207143	0.0278571	-0.00571429	0.0121429	-0.0171429	0.00571429	0.0142857	-0.0328571	0.00571429	-0.0178571	-0.0171429	-0.0314286	-0.03	0.025	0.0142857	-0.0128571	0.0142857	0.00714286	-0.0321429	0.0285714	0.0292857	0.0114286	0.00142857	0.00142857	-0.03	-0.0292857	0.00928571	0.0207143	-0.0307143	-0.015	0.00785714	0.0257143	0.0135714	0.00357143	0.00142857	-0.00285714	-0.0271429	-0.02	-0.035	0.0142857	-0.00285714	-0.0164286	-0.0164286	-0.0321429	0.00928571	0.0328571	-0.01	-0.0128571	-0.0307143	-0.00642857	-0.0207143	0	0.00571429	-0.0185714	-0.035	-0.0235714	-0.0121429	-0.025	0.0328571	0.0292857	-0.005	-0.03	0.0185714	0.00928571	-0.0257143	0.0214286	0.00785714	0.02	-0.035	0.00785714	-0.00214286	0.0342857	-0.00785714	-0.0178571	0.00357143	-0.035	0.0157143	0.0285714	-0.0128571	0.0207143	0.0228571	-0.0321429	0.0214286	0.03	-0.0157143	0.0214286	-0.03	-0.0271429	0.0321429	0.00357143	-0.0335714	0.0278571	-0.025	-0.0142857	-0.0328571	0.0214286	-0.0292857	0.01	0.005	0.00785714	0.0185714	0.00357143	-0.0278571	-0.025	0.0207143	0.0107143	-0.025	0.000714286	0.00285714	0.035	0.0221429	0.0271429	0.00357143	0.00714286	0.0207143	-0.0114286	-0.00785714	-0.00857143	-0.00285714	0.025	-0.00357143	0.0357143	0.0171429	0.00642857	-0.015	-0.015	-0.00857143	0.0285714	0.03	-0.00214286	0	-0.0221429	-0.035	0.00714286	-0.0121429	0.0214286	-0.0185714	0.0357143	-0.0142857	-0.0142857	0.0342857	-0.0285714	-0.0235714	-0.0328571	-0.0207143	-0.00214286	-0.00928571	0.00642857	0.0242857	-0.0114286	0.0328571	-0.0157143	-0.0121429	-0.0207143	-0.00857143	-0.0257143	-0.000714286	-0.0157143	-0.0335714	0.03	0.0171429	-0.0328571	-0.0285714	-0.0171429	0.01	-0.005	-0.0321429	-0.00785714	0.0314286	0.0257143	-0.0214286	-0.005	-0.00214286	0.0271429	-0.00285714	0.0121429	-0.0114286	0.0228571	0.02	0.0142857	-0.0242857	0.0164286	-0.000714286	0.0357143	0.0307143	-0.00785714	-0.0264286	-0.00642857	0.0114286	-0.025	-0.0128571	0.0292857	0.015	0.0307143	-0.0242857	-0.0114286	0.0264286	0.0164286	-0.0185714	0.0214286	0.00571429	0.0328571	-0.02	-0.0321429	0.0235714	-0.0221429	-0.0192857	0.0135714	0.00214286	0.0357143	0.0285714	-0.0214286	0.0157143	0.0285714	-0.0221429	-0.0242857	-0.0157143	0.0242857	0.00428571	-0.00357143	0	-0.00785714	-0.0107143	-0.0214286	0.0242857	-0.0335714	-0.0321429	0.0142857	0.0178571	-0.015	0	0.0242857	-0.0185714	-0.0192857	-0.00714286	0.00571429	0.0314286	0.00928571	-0.0171429	-0.00285714	-0.0257143	0.0121429	0.0107143	-0.00857143	0.005	-0.0107143	0.00214286	0.0242857	-0.0228571	0.00785714	0.0221429	0.0128571	0.000714286	0.0121429	0.0264286	-0.0114286	0.0135714	0.03	-0.0328571	0.0321429	0.0157143	-0.0321429	0.0207143	-0.00214286	0.0207143	-0.0228571	0.00428571	0.0157143	0.0214286	-0.0114286	0.0135714	0.0314286	0.0357143	0.025	0.0235714	0.00428571	-0.0214286	-0.0107143	0.03	0.0278571	0.0321429	0.0157143	-0.03	0.0342857	0.0285714	0.0321429	-0.0135714	0.00642857	-0.00857143	0.0257143	-0.0321429	0.00785714	0.0285714	0.0235714	0.00642857	-0.0207143	-0.035	-0.0257143	0.03	-0.0128571	-0.00214286	-0.0264286	0.0192857	-0.00214286	0.0335714	0.00642857	0.00285714	0.0128571	-0.00285714	-0.00357143	0.005	0.03	0.0128571	0.01	0.0278571	-0.0285714	-0.0285714	-0.0214286	-0.0214286	0.035	0.005	-0.0185714	0.00642857	0.035	-0.0307143	-0.0235714	-0.0221429	0.00642857	0.0235714	0.00857143	-0.00571429	-0.015	0.0171429	-0.0221429	-0.0164286	0.015	-0.015	0.0221429	-0.00857143	0.0171429	0.0192857	-0.00285714	0.0114286	0.0335714	-0.0285714	0.00285714	-0.0314286	0.015	-0.0178571	-0.0178571	0.0142857	-0.0114286	-0.00142857	-0.0157143	-0.0128571	-0.0314286	0.0335714	0	0.01	0.0207143	-0.0278571	0.00571429	0.00642857	-0.00928571	0.0185714	0.0257143	0.00642857	-0.0328571	0.0114286	-0.00142857	-0.0142857	-0.00571429	0.0314286	0.0321429	-0.00857143	0.00357143	0.0357143	0.0321429	-0.0178571	0.0192857	-0.0221429	-0.00285714	-0.0285714	-0.0221429	-0.0171429	0.0307143	-0.0185714	-0.02	-0.00571429	-0.00714286	0.00142857	-0.0328571	0.0335714	-0.0285714	0.03	-0.0185714	0.0321429	0	0.0207143	-0.0271429	0.0342857	0.00714286	0.00285714	0.0292857	0.00285714	-0.005	0.0335714	-0.0314286	0.0285714	0.0164286	-0.0114286	-0.03	-0.0221429	0.0321429	0.02	-0.00428571	0.0264286	0.00285714	-0.0235714	0.0214286	0.0307143	0.0128571	0.0235714	-0.00642857	-0.015	0.0178571	-0.0242857	-0.0185714	0.0185714	-0.00285714	-0.0107143	0.0164286	-0.0314286	-0.00714286	-0.025	-0.0278571	-0.0107143	-0.0278571	-0.0242857	-0.0185714	-0.01	-0.035	0.0235714	0.00285714	0.0321429	0.00785714	0.0335714	-0.0121429	-0.0257143	-0.0264286	-0.0271429	0.00571429	-0.0128571	0.0321429	0	0.00714286	-0.0207143	-0.0235714	-0.0107143	0.0328571	0.00857143	-0.02	-0.0207143	0.0121429	-0.0264286	0.0264286	0.02	-0.00214286	0	-0.00357143	-0.02	0.025	-0.00285714	0.005	-0.00857143	0.03	-0.0235714	0.0257143	-0.0178571	0.0228571	0	0.0271429	0.0292857	0.0221429	0.0228571	0.03	0.03	0.00285714	-0.03	-0.0164286	-0.0342857	0.0135714	-0.00142857	0.0171429	0.0271429	-0.0271429	0.00714286	0.0107143	-0.0278571	-0.0292857	0.00785714	-0.0128571	-0.00357143	0.00571429	0.0271429	-0.0114286	0	0.00428571	-0.0221429	-0.0171429	0.0278571	0.0128571	-0.0264286	0.0207143	0.0357143	-0.00214286	0.0142857	0.03	0.00142857	-0.015	0.0142857	-0.0321429	0.0342857	0.0135714	0.02	0.025	0.0214286	0.0285714	-0.035	0.0285714	0	0.00785714	0.0171429	0.0321429	-0.0221429	-0.0264286	-0.0157143	-0.0214286	-0.0207143	-0.00214286	0.0335714	-0.0292857	0.0114286	0.00785714	-0.00714286	-0.0228571	-0.0307143	0.00785714	-0.0292857	-0.0278571	0.0285714	-0.0142857	-0.025	-0.00785714	0.0342857	0.0307143	0.0178571	-0.015	0.0228571	0.0178571	-0.0221429	-0.0135714	0.0264286	-0.00428571	0.0192857	0.005	0.00428571	-0.0321429	-0.0157143	-0.0157143	-0.0335714	0.0185714	-0.00928571	-0.0214286	-0.00928571	
-0.0157143	-0.00928571	0.0321429	0.0271429	-0.00357143	-0.0321429	0.0192857	0.0171429	-0.0214286	0.0121429	-0.0192857	0.01	-0.00642857	0.00142857	0.0335714	0.0121429	-0.02	0.0207143	-0.0314286	0.0107143	0.00428571	0.00857143	0.0157143	-0.0271429	-0.00571429	0.0357143	-0.0257143	-0.0235714	0.0271429	-0.0121429	-0.0321429	-0.025	-0.02	0.0357143	-0.0342857	0.0114286	0.00428571	-0.0135714	0.03	-0.0164286	0.0335714	0.0114286	0.0285714	-0.00857143	-0.0235714	-0.00857143	-0.0328571	0.0285714	-0.0235714	-0.0292857	-0.0314286	-0.0185714	-0.0192857	0.02	0.0264286	-0.0242857	-0.015	0.00142857	0.0242857	-0.0242857	0.0242857	0.0278571	-0.0142857	0.005	-0.00714286	0.0235714	-0.0192857	0.0321429	-0.0264286	0.0114286	-0.02	-0.0285714	0.0235714	0.00928571	-0.00214286	0.00142857	-0.035	-0.0342857	-0.00642857	0.0135714	0.00928571	-0.00214286	-0.00428571	-0.00928571	0.0185714	-0.0142857	-0.0328571	-0.0328571	0.0221429	0.0264286	-0.0221429	-0.0242857	-0.0164286	0.0357143	0.0164286	0.0114286	0.0228571	-0.00214286	0.00785714	0.0321429	0.01	0.0228571	0.00428571	-0.00285714	-0.00428571	0.00285714	0.0335714	0.0328571	0.00357143	0.0285714	0.01	0.0135714	-0.01	0.00642857	0.005	-0.0278571	0.0271429	0.00714286	0.0114286	0.0128571	-0.00214286	0.0242857	0.0242857	0.0164286	-0.0107143	-0.03	-0.00785714	-0.0242857	0.00285714	0.000714286	-0.0285714	-0.0235714	0.0242857	0.0107143	0.00857143	0.0207143	0.0142857	-0.0278571	0.0178571	-0.0178571	0.0357143	0.0285714	-0.00357143	-0.0107143	-0.000714286	-0.0342857	0.0335714	-0.01	0.00785714	0.00857143	0.00428571	0.00642857	0.0335714	0.0292857	-0.0128571	-0.0135714	0.0342857	-0.02	0.0342857	0.000714286	-0.0185714	0.00714286	-0.0221429	-0.0307143	0.0185714	-0.0128571	0.025	-0.00285714	-0.00571429	-0.0278571	0.0142857	-0.00642857	-0.035	0.0114286	-0.0164286	-0.035	0.0121429	0.0178571	-0.01	-0.0157143	0.0271429	-0.005	-0.00857143	0.0242857	-0.0121429	0.0135714	0.0114286	-0.0142857	-0.00571429	0.01	-0.0128571	0.0107143	-0.0192857	0	0.015	0	0.0228571	-0.03	0.0321429	-0.0192857	-0.0228571	-0.0242857	-0.0242857	-0.0228571	0.0228571	0.0314286	-0.0228571	-0.00142857	0.0135714	-0.0314286	-0.0164286	0.00428571	-0.00142857	0.0107143	0.03	-0.0121429	0.025	0.005	0.00857143	0.0207143	0.0157143	-0.00285714	-0.005	-0.00285714	0.0321429	0.0114286	0.0328571	-0.0157143	0.0164286	0.0285714	-0.0335714	0.0285714	-0.0314286	-0.0228571	0.00714286	0.0264286	-0.0278571	-0.015	0.0257143	-0.0135714	0.0257143	0.0107143	0.0264286	0.0257143	0.0221429	0.02	-0.0228571	0.0107143	0.0257143	-0.0135714	-0.005	-0.0285714	0.0185714	-0.00857143	0.00357143	-0.0192857	-0.0335714	-0.0342857	0	-0.0164286	0.03	0.00142857	0.0128571	-0.000714286	-0.0207143	-0.0164286	0.0264286	0.0242857	-0.03	0.0157143	-0.0257143	0.0307143	0.0271429	0.00142857	-0.0142857	0.0128571	0.0221429	-0.00214286	-0.0121429	0.0121429	0.02	-0.0164286	-0.0157143	-0.0321429	0.01	0.0228571	-0.0164286	-0.0228571	-0.01	-0.015	-0.00428571	0.0207143	-0.0128571	-0.0271429	-0.0164286	-0.0321429	0.0285714	-0.0264286	0.0271429	0.0335714	-0.01	0.00214286	-0.00571429	0.0185714	-0.0321429	0.015	-0.005	0.025	-0.0228571	0.0178571	-0.0335714	-0.00214286	0.00285714	-0.0142857	0.000714286	-0.0235714	0.01	-0.0142857	0.0264286	0.035	0.00571429	-0.0142857	0.0192857	0.0278571	-0.00642857	0.00357143	0.0307143	-0.0135714	-0.0221429	-0.0128571	0.0207143	-0.0314286	0.025	-0.0214286	0.0221429	-0.00642857	-0.005	-0.0185714	0.0192857	0.00714286	0	-0.0128571	0.00571429	-0.0335714	0.00785714	0.00714286	0.0157143	0.0185714	0.0278571	0.00571429	0.0171429	-0.00285714	-0.00785714	-0.0342857	0.0264286	-0.0128571	0.00428571	-0.0135714	-0.0257143	0.0171429	0.00928571	0.03	0.0214286	0.035	0.01	0.00714286	0.0292857	-0.0314286	0.0235714	0.0121429	-0.0235714	0.025	0.0342857	0.0171429	0.0264286	-0.0278571	0.025	-0.0285714	0.0257143	0.0171429	-0.0221429	-0.0271429	0.015	0.00571429	-0.0264286	-0.0292857	0.0278571	0.0135714	-0.00714286	-0.0342857	0.0314286	0.00285714	-0.00357143	-0.0178571	0.00142857	0.00714286	0.025	0.0314286	0.0107143	-0.0221429	0.00714286	-0.0121429	-0.0335714	-0.0285714	0.00571429	-0.00571429	-0.0214286	-0.005	-0.0335714	0.005	-0.0242857	-0.02	0.0128571	-0.00857143	-0.0135714	-0.0121429	-0.00214286	-0.0221429	0.00214286	0.0257143	0.0157143	-0.00285714	0.0292857	0.0128571	0.015	-0.00571429	-0.0157143	-0.0307143	0.0264286	-0.00428571	0.0192857	-0.00285714	0.0192857	0.0214286	-0.0307143	0.0257143	0.0164286	0.02	-0.0157143	0.0178571	0.0264286	0.0321429	-0.00142857	0.00285714	-0.0121429	0.02	-0.00857143	-0.0135714	-0.00142857	0.0285714	-0.0242857	0.015	0.0271429	-0.0314286	-0.00785714	-0.0285714	0.035	-0.0228571	-0.0242857	0.025	-0.0264286	0.03	0.0228571	-0.00642857	-0.0192857	-0.00642857	-0.0164286	-0.00214286	-0.0228571	-0.0314286	-0.02	0.00428571	-0.035	0.0135714	-0.0285714	0.025	0.035	0.035	-0.025	-0.00285714	0.0278571	0.0228571	-0.0235714	-0.0157143	-0.00785714	-0.0307143	-0.00928571	0.0278571	0.0185714	-0.0328571	-0.0178571	0.0271429	-0.00214286	0.00571429	-0.015	0.0142857	0.0342857	0.00357143	0.0128571	0.0128571	-0.0271429	0.0278571	-0.0192857	-0.0271429	-0.0285714	0.0242857	-0.00142857	-0.03	0.0235714	-0.0257143	-0.0321429	-0.0192857	0.0321429	-0.0207143	-0.0342857	0.025	0.0207143	-0.00857143	0.0164286	0.00285714	0.0307143	0.0335714	-0.00571429	-0.00785714	0.00357143	-0.02	0.00714286	0.00142857	-0.0157143	-0.0157143	0.015	-0.00785714	0.0128571	0.0314286	-0.0335714	-0.015	-0.015	0	-0.01	-0.0278571	-0.0242857	0.0307143	0.025	-0.0285714	0.0107143	0.0257143	-0.00214286	-0.00428571	0.0178571	-0.0221429	-0.000714286	0.0121429	-0.0242857	-0.00571429	0.00571429	-0.02	0.00928571	0.0135714	-0.0178571	-0.00571429	0.0328571	0.0328571	0.0221429	-0.0242857	-0.00642857	0.0235714	-0.00428571	0.0135714	0.0242857	-0.0128571	-0.0128571	0.035	-0.0185714	0.0128571	0.00785714	-0.00714286	0.00285714	-0.0307143	0.0235714	-0.0157143	-0.0178571	-0.0128571	-0.00214286	0.03	-0.0178571	-0.0328571	0.0107143	0.0271429	-0.0185714	0.0285714	-0.015	0.0157143	-0.00928571	0.00785714	0.0264286	0.0192857	-0.005	0.0228571	0.0335714	0.0207143	0.0107143	0.0214286	0.0192857	-0.00714286	-0.00142857	-0.00928571	0.0214286	0.00214286	0.0321429	0.00857143	-0.0128571	-0.0214286	-0.00357143	0.02	0.00928571	0.0142857	-0.0121429	-0.0157143	-0.0292857	0.005	0.0135714	0.0278571	-0.0157143	-0.0321429	0	0.0114286	-0.0121429	-0.00428571	-0.00214286	0.0221429	0.0171429	-0.0271429	0.00785714	0.000714286	0.000714286	0.00714286	-0.00785714	-0.0142857	-0.0271429	-0.0114286	-0.00428571	0.0321429	-0.0321429	-0.00714286	-0.0178571	-0.0221429	0.00785714	0.005	0.0342857	0.0135714	0.0107143	0.0114286	-0.0285714	-0.00428571	0.0142857	0.00642857	0.00785714	-0.0342857	0.00285714	0.00714286	-0.0107143	-0.0157143	-0.0192857	-0.00214286	-0.0142857	-0.0178571	-0.0314286	-0.0214286	0.00357143	0.0135714	-0.0321429	0	0.00928571	0.00785714	-0.00642857	0.0264286	0.0214286	-0.0342857	0.0328571	0.0192857	0.0142857	-0.0271429	-0.005	-0.0135714	-0.03	0.01	-0.00642857	0.0128571	-0.0228571	0.0321429	0.0207143	0.00142857	0.0171429	-0.035	0.0342857	-0.0335714	-0.0171429	-0.0335714	0.0171429	-0.0128571	-0.0192857	0.0207143	0.0221429	-0.00928571	-0.00785714	-0.0207143	-0.0185714	-0.0228571	-0.02	0.015	-0.00214286	-0.00428571	-0.0114286	-0.00642857	-0.0171429	-0.00642857	-0.0328571	0.0121429	0.00785714	-0.0207143	-0.0264286	-0.00785714	-0.0185714	0.0257143	-0.00714286	-0.0207143	-0.00714286	-0.0235714	0.0178571	-0.0264286	-0.00142857	0.0335714	0.0292857	-0.0157143	0.0257143	0.0228571	0.0357143	0.00785714	0.000714286	0.0171429	-0.0135714	0.0335714	0.0135714	-0.0242857	-0.00928571	0.0314286	0.005	0.0307143	-0.0271429	0.0135714	0.0107143	-0.0185714	0.00642857	0.0278571	-0.0292857	0	-0.0292857	0.0357143	0.0114286	-0.01	0.0107143	-0.0264286	0.0242857	0.00357143	0.03	0.0135714	0.0271429	-0.00428571	-0.015	-0.00785714	-0.0235714	-0.0278571	-0.0107143	-0.00928571	-0.0164286	-0.0185714	0.0228571	-0.0107143	-0.0242857	0.0314286	-0.0335714	0.0214286	-0.0235714	0.00785714	0.0128571	
0.02	0.00928571	-0.015	0.0192857	-0.0157143	0.01	-0.00642857	-0.00642857	0.035	-0.00142857	-0.0128571	0.0128571	-0.0107143	0.0178571	0.0328571	-0.0178571	-0.005	0.00642857	0.00714286	-0.0135714	0.025	-0.0107143	-0.0264286	-0.0221429	0	0.00571429	0.0164286	0.0221429	0.0171429	0.025	-0.035	-0.0335714	-0.00214286	0.0221429	-0.0128571	0.0178571	0.0328571	-0.0185714	0.0121429	0.0314286	-0.0192857	0.0342857	0.00785714	0.00571429	-0.0178571	-0.0292857	0.0228571	-0.0221429	0.0121429	0.0307143	0	-0.0335714	-0.0164286	-0.0257143	0.0164286	-0.0157143	0.015	-0.00357143	0.00785714	0.0328571	-0.015	0.00785714	0.000714286	-0.0157143	-0.00642857	0.0228571	0.00285714	0.0271429	-0.0321429	-0.0214286	0.0221429	-0.0157143	0.0135714	0.0314286	-0.00928571	-0.00357143	0.00285714	0.0142857	0.01	0.0157143	-0.025	0.0107143	0.0171429	0.0307143	-0.0142857	-0.00285714	-0.0207143	0.00142857	-0.00571429	0.0221429	0.035	-0.02	0.0307143	-0.000714286	-0.000714286	0.025	-0.0142857	-0.0342857	0.0157143	0.0264286	0.0164286	-0.0328571	0.0114286	-0.00571429	0.0335714	0.00285714	0.0257143	0	0.0178571	-0.035	0.0164286	0.0278571	0.0107143	-0.00285714	0.0228571	0.0314286	-0.005	0.00285714	0.0335714	0.0242857	0.0257143	0.0328571	0.00571429	0.02	-0.00428571	-0.0314286	0.00857143	-0.0171429	0.00714286	0.025	0.01	-0.0128571	0.0271429	-0.015	-0.0178571	-0.00928571	-0.0114286	-0.0278571	-0.00857143	-0.03	-0.0278571	-0.0278571	0.0335714	-0.0157143	-0.03	-0.0142857	0.0164286	-0.0335714	-0.0107143	0.0142857	-0.00857143	-0.0214286	0.0107143	0.0321429	-0.000714286	-0.03	0.00214286	0.00857143	-0.0121429	-0.0271429	-0.00285714	0.0328571	0.0321429	0.025	0.0185714	-0.0214286	-0.0207143	-0.0292857	-0.0142857	0.00642857	0.0135714	0.03	-0.0207143	0.0107143	-0.0221429	-0.0157143	-0.00285714	0.03	-0.0142857	0.0214286	-0.0264286	0.0128571	0.000714286	0.0192857	0.00857143	0.035	0.0242857	0.0114286	0.00714286	0.0135714	0.0192857	-0.0321429	-0.0242857	-0.0185714	-0.00642857	-0.00428571	-0.005	0.00857143	-0.0328571	-0.0185714	-0.0214286	0.0157143	0.0121429	-0.00714286	0.0271429	0.0257143	-0.0221429	-0.0121429	-0.015	-0.000714286	0.01	-0.00642857	0.0128571	-0.0257143	0.0135714	0.0221429	0.01	-0.0328571	-0.00214286	-0.0192857	0.0157143	0.0178571	0.0207143	-0.00714286	0.0342857	-0.0214286	0.0235714	-0.00714286	-0.0121429	-0.00857143	-0.025	0.00142857	-0.0285714	0.0228571	-0.005	0.0335714	-0.0221429	-0.0264286	0.0228571	0.035	-0.0264286	-0.00357143	0.0292857	0.0214286	-0.0278571	0.00642857	-0.0264286	-0.0171429	-0.0257143	-0.0278571	-0.000714286	0.0257143	0.025	0.0207143	0.0192857	0.0235714	0	-0.0278571	0.0171429	0.0228571	-0.00142857	-0.00642857	0.025	0.005	0.0171429	0.0207143	0.00285714	0.03	0.03	0.0264286	-0.00571429	-0.0328571	0.0235714	-0.0128571	-0.01	-0.00357143	-0.00571429	-0.00142857	0.015	0.00357143	0.00571429	0.015	0.03	0.0314286	-0.000714286	-0.0214286	0.0185714	0.035	-0.0142857	-0.0342857	0.0214286	0.02	0.0314286	-0.0235714	0.0257143	0.0121429	0.0321429	0.0292857	0.00571429	0.0257143	0.0192857	0.000714286	0.0285714	0.00714286	-0.0114286	0.0192857	-0.0328571	-0.0164286	-0.0185714	0.0171429	-0.0121429	-0.0121429	-0.00428571	-0.0178571	-0.0171429	-0.00357143	-0.00428571	0.00285714	0.0321429	-0.0171429	-0.0307143	-0.0171429	0.00357143	0.0357143	-0.00571429	-0.00714286	0.0114286	-0.00928571	-0.0135714	0.0178571	-0.02	0.00642857	-0.0178571	0.00928571	0.0142857	-0.0285714	-0.00785714	0.0171429	-0.01	-0.0257143	0.035	0.0128571	-0.00285714	0.0321429	-0.00428571	-0.0185714	0.0292857	0.0271429	-0.015	0.025	0.0107143	-0.0107143	-0.0285714	-0.0221429	0.0257143	0.00142857	0.00571429	-0.0335714	0.0271429	-0.00714286	0.0192857	0.00785714	0.035	0.00214286	-0.0185714	-0.0214286	0.00857143	0.00857143	0.0307143	-0.000714286	0.0185714	-0.00428571	-0.0242857	0.0164286	0.0285714	0.00714286	-0.00142857	0.0214286	0.035	0.0185714	-0.0242857	0.00928571	0.00857143	-0.0178571	-0.0121429	-0.00214286	-0.0157143	0.0285714	-0.000714286	0.0121429	0.0228571	0.0192857	-0.0157143	-0.0128571	0.0221429	0.000714286	0.000714286	0.0314286	0.01	0.0328571	-0.00571429	0.0292857	0.0292857	-0.0285714	-0.0242857	0.0214286	0.0135714	0.00928571	-0.0278571	-0.0221429	0.0292857	-0.0171429	0.0221429	0.00142857	-0.0342857	-0.0264286	0.035	0.0228571	0.00285714	0.035	-0.00142857	0.0264286	-0.0157143	0.0178571	-0.0228571	-0.03	0.0192857	-0.0207143	-0.0342857	0.0307143	-0.0242857	0.0321429	0.0235714	-0.0314286	-0.0328571	0	-0.00928571	-0.0185714	-0.0264286	0.035	-0.00571429	-0.0335714	0.0185714	0.0171429	-0.0314286	-0.015	-0.00857143	-0.0328571	-0.0285714	0.03	0.00357143	0.00571429	0.02	0.0228571	0.0242857	-0.00142857	-0.00642857	0.00785714	0.0128571	0.0314286	0.00214286	-0.0107143	-0.00642857	0.0264286	0.03	-0.00428571	-0.00928571	-0.0157143	0.0128571	-0.035	-0.0171429	0.00785714	0.00357143	0.00214286	-0.0107143	0.00714286	0.0221429	0.0157143	-0.0242857	0.0292857	-0.025	-0.02	0.0357143	-0.00357143	0.00357143	0.0235714	0.03	0.0321429	-0.005	-0.0278571	-0.00642857	-0.00214286	-0.00357143	0.0221429	0.0257143	-0.01	0.0185714	0.0171429	-0.025	-0.005	0.0171429	0.03	0.00428571	-0.0157143	-0.00428571	0.0285714	-0.00785714	-0.0185714	0.00785714	0.00285714	0.0114286	-0.0157143	-0.0164286	0.0107143	0.0157143	0.0221429	-0.00142857	0.00928571	0.0185714	-0.00571429	0.0164286	0.0128571	-0.00642857	0.0135714	-0.00142857	-0.0171429	-0.0328571	-0.0192857	0.035	0.0142857	-0.0228571	-0.0185714	0.00785714	0.0164286	-0.0335714	0.00428571	-0.0257143	-0.00642857	0.0207143	-0.0171429	-0.00214286	0.0335714	0.00214286	0.0164286	0.00785714	-0.0185714	0.00285714	-0.03	-0.00857143	0.0221429	-0.0342857	0.00857143	-0.00142857	-0.00571429	-0.0142857	-0.00214286	0.0121429	0.025	-0.0207143	-0.0235714	0.00285714	0.0285714	-0.00714286	0.0114286	-0.0257143	-0.00571429	-0.0207143	-0.0164286	0.0228571	0.00142857	-0.0321429	0.0214286	-0.00142857	0.005	0.00214286	-0.03	-0.0121429	0.00571429	0.0128571	0.0142857	0.0285714	0.0135714	-0.0128571	-0.00928571	-0.0285714	0.00785714	-0.0107143	-0.0157143	0.0342857	0.00357143	-0.00428571	0.000714286	-0.00357143	0.0235714	0.0135714	0.00571429	-0.0185714	0.0278571	-0.00928571	0.005	0.03	-0.00642857	-0.00928571	-0.00785714	0.0335714	-0.00642857	0.035	-0.015	0.0342857	0.0114286	0.000714286	-0.00785714	-0.0114286	0.0228571	-0.0164286	0.0321429	0.0314286	0.00785714	-0.02	0.0292857	0.0121429	0.0107143	0.0314286	-0.0278571	0.035	0.00857143	-0.0207143	-0.02	-0.0342857	-0.0292857	-0.0142857	0.0314286	-0.000714286	0.0114286	-0.0128571	0.0335714	0.00571429	-0.0142857	0.02	-0.0307143	-0.00214286	-0.0157143	-0.00357143	-0.0128571	0.00785714	0.015	-0.0171429	0.00285714	-0.0135714	0.035	-0.00357143	0	-0.025	0.0285714	-0.0271429	-0.0264286	0.000714286	-0.0128571	0.0257143	-0.0328571	-0.00714286	-0.0242857	0.0335714	-0.00714286	-0.0121429	0.0221429	-0.00928571	-0.005	0.00857143	-0.0257143	-0.000714286	-0.0292857	0.0307143	0.0314286	0.03	0.00214286	-0.0242857	-0.0228571	-0.0314286	0.035	0.0128571	-0.0342857	-0.00142857	-0.0107143	0.0292857	0.00642857	-0.00214286	0.0307143	-0.005	0.025	0.0335714	-0.0114286	0.00142857	-0.00357143	0.0171429	-0.01	-0.0178571	-0.0285714	0.02	0.0264286	0.0178571	-0.0164286	-0.00214286	0.0121429	0.0157143	0.0285714	-0.0221429	0.0264286	0.00642857	-0.0185714	-0.00928571	-0.0164286	0.02	0.0242857	0.00785714	0.0128571	0.0321429	0.00642857	-0.0264286	-0.00928571	-0.005	-0.0292857	0.0142857	-0.00285714	0.00214286	-0.005	0.0228571	-0.0142857	-0.0328571	0.00642857	0.0128571	0.02	-0.00928571	0.0114286	0.0328571	-0.03	0.00357143	-0.0257143	-0.00214286	-0.0257143	0.0285714	0.0235714	-0.00714286	0.0121429	-0.0221429	0.00142857	0.0257143	-0.0264286	-0.0285714	0	-0.035	-0.0321429	0.00571429	0.0142857	0	0.00928571	0.0107143	-0.0135714	0.03	-0.0214286	-0.00571429	-0.0278571	0	0.02	0.0185714	-0.00357143	-0.00857143	-0.0142857	-0.0278571	-0.01	-0.005	0.0357143	0.0142857	-0.0114286	-0.0228571	0.0271429	0.025	0.00357143	0.00142857	-0.00214286	-0.0321429	0.00142857	0.000714286	-0.0257143	0.0171429	
0.00142857	0.0185714	-0.00857143	-0.0107143	-0.0221429	0.005	0.0185714	-0.015	-0.0314286	-0.0321429	-0.0328571	-0.0335714	-0.00571429	0.0257143	-0.0264286	0.0192857	-0.0157143	-0.0271429	0.035	-0.0257143	0.0221429	0.0257143	0.0342857	0.0264286	0.0285714	0.0328571	0.0292857	-0.00642857	-0.00285714	0.005	-0.0257143	0.0342857	0.0242857	-0.0335714	-0.0128571	-0.0335714	0.00714286	0.00642857	0.0235714	-0.0235714	0.00928571	-0.00785714	-0.0221429	-0.0321429	-0.0185714	-0.0135714	-0.0121429	-0.0335714	0.0314286	0.0235714	-0.0242857	-0.0171429	0.0135714	0.0114286	0.0107143	0.00571429	0.00785714	-0.0307143	0	-0.0307143	0.00928571	-0.0242857	0.00428571	-0.00214286	-0.0228571	-0.00785714	-0.035	0.0192857	0.0335714	0.0235714	-0.00285714	-0.0278571	-0.0207143	-0.0242857	0.0121429	-0.00428571	0.035	0.00142857	-0.00214286	-0.00428571	-0.0114286	0.00857143	-0.02	-0.0342857	0.0207143	0.0257143	-0.0278571	-0.00714286	0.03	-0.0264286	0.0342857	0.00357143	-0.0157143	0.00214286	-0.035	-0.00357143	-0.005	-0.035	0.0171429	0.0292857	-0.0107143	0.015	-0.035	0.00428571	0.0257143	0.0128571	0.000714286	0.0242857	-0.0221429	0.0335714	0.0214286	0.00142857	-0.0278571	-0.035	-0.0314286	0.0278571	0.0257143	0.0128571	0.0214286	0.0192857	0.0214286	0.0192857	0.0235714	0.00642857	-0.015	-0.0107143	-0.0328571	-0.0192857	0.0264286	-0.015	-0.0264286	-0.02	0.035	-0.0257143	0.0192857	-0.01	0.0221429	0.0207143	0.0157143	0.035	0.0185714	0.000714286	-0.0342857	-0.00857143	0.000714286	-0.0307143	0.02	0.0271429	-0.0164286	0.00571429	-0.0242857	-0.0314286	-0.0114286	0.035	-0.0235714	-0.025	-0.0121429	-0.0214286	-0.00928571	-0.0214286	0.0357143	0	0.0307143	0	0.00928571	-0.0207143	0.025	0.0321429	0.035	0.00428571	-0.00357143	-0.0171429	0.00571429	-0.00285714	0.00928571	-0.03	-0.0321429	0.0307143	-0.00214286	-0.0135714	0	0.00928571	0.0271429	-0.0107143	0.00785714	-0.0328571	-0.000714286	-0.00357143	0.0178571	-0.00857143	-0.0242857	0.0171429	-0.00785714	-0.03	-0.0192857	0.00214286	-0.0157143	0.00714286	-0.00214286	-0.0164286	-0.025	-0.005	0.00142857	-0.0178571	0.0271429	0.0121429	0.0242857	-0.00428571	0.00642857	-0.0135714	0.0171429	0.00714286	0.0307143	-0.0257143	0.0314286	-0.0321429	-0.0235714	0.0321429	-0.000714286	0.03	-0.0128571	-0.0235714	-0.0235714	0.0142857	-0.0185714	0.03	0.0171429	-0.0328571	0.000714286	-0.0214286	0.0228571	-0.0235714	-0.0257143	0.025	-0.00642857	-0.035	0.000714286	-0.0178571	0.0335714	0.00785714	0.00357143	-0.02	-0.0214286	0.035	-0.0107143	0.0114286	-0.0335714	0.00142857	0.00714286	-0.0335714	0.0321429	-0.005	-0.0221429	-0.0278571	0.01	0.0321429	0.00285714	-0.00928571	0.0342857	-0.0328571	-0.03	0.0207143	-0.0207143	-0.0207143	0.00928571	-0.0264286	0.0164286	0.0114286	-0.00928571	0.0135714	-0.0171429	-0.005	-0.005	0.0342857	-0.00642857	0.0192857	0.00928571	0.0321429	0.0214286	0.0171429	0.0342857	-0.0171429	0.0128571	0.0128571	0.0278571	-0.0135714	0.00857143	-0.00571429	-0.0221429	-0.0278571	-0.00285714	-0.0171429	-0.00642857	-0.0228571	0.0342857	-0.0328571	-0.0142857	0.0142857	-0.0207143	0.0121429	0.0292857	0.0342857	-0.0292857	-0.0121429	-0.00214286	-0.0342857	0.00785714	0.00785714	0.0328571	-0.00642857	-0.0114286	-0.00357143	-0.0228571	-0.035	-0.0264286	-0.0314286	0.0235714	-0.0171429	-0.00142857	-0.035	-0.00928571	-0.00357143	0.02	0.0192857	0.00857143	0.0178571	-0.0128571	0.0292857	-0.00357143	-0.0328571	-0.0292857	0.0264286	-0.0342857	0.0142857	-0.0221429	0.0357143	0.015	0.0207143	0.00785714	0.0114286	0.015	-0.00285714	-0.0278571	0.0278571	-0.00214286	-0.0192857	-0.00285714	0.0221429	0.0357143	0.0307143	0.0228571	0.0271429	0.0278571	-0.0278571	-0.0235714	0	0.0257143	-0.00142857	0.0307143	0.0228571	-0.0328571	0.00214286	0.0128571	0.005	-0.02	-0.00857143	0.00428571	0.03	-0.0242857	-0.0242857	0.00571429	-0.00785714	0.00857143	0.0128571	0.0207143	0.00714286	-0.00571429	-0.0185714	-0.00714286	0.0307143	0.0135714	0.0164286	0.0221429	0.005	-0.01	0.0335714	0.00642857	-0.0207143	0.0328571	-0.0335714	-0.0342857	0.035	0.00357143	-0.0207143	0.00357143	0.0192857	0.00571429	0.00928571	0.0128571	0.0164286	0.02	0.0192857	0.00928571	0.0292857	0.0328571	-0.00642857	-0.0342857	0.0278571	-0.0235714	0.0314286	0.0228571	0.025	0.0114286	0.00857143	0.0307143	-0.035	0.00571429	-0.0335714	0.0164286	-0.0321429	-0.0321429	-0.0171429	-0.0328571	0.00714286	-0.00285714	-0.0285714	0.0271429	-0.0335714	0.0157143	0.00357143	-0.0157143	-0.0342857	0.0242857	-0.00571429	-0.00428571	0.0207143	0.0235714	-0.00285714	0.0128571	0.000714286	-0.00785714	-0.000714286	-0.0107143	0.00428571	0.00857143	0.0207143	-0.0292857	0.015	0.0228571	0.0221429	0.0178571	-0.00857143	-0.0307143	-0.0142857	0.0335714	-0.0328571	-0.00714286	-0.01	0.00642857	0.00928571	0.0292857	0.0257143	-0.0242857	-0.0171429	-0.0164286	0.00714286	-0.0328571	0.00785714	-0.0321429	-0.0192857	-0.0278571	-0.005	0.015	0.0335714	0.0342857	0.0242857	-0.0157143	-0.0314286	0.00285714	-0.0292857	-0.00785714	-0.015	-0.00285714	0.0335714	-0.0285714	0.0321429	0.0357143	-0.000714286	-0.0142857	0.00571429	0.01	0.0157143	0.0321429	0.0207143	0.0335714	0.0171429	0.0285714	0.00214286	-0.0114286	0.0314286	0.0178571	0.0335714	0.0271429	0.0342857	-0.00357143	-0.00857143	0.0221429	0.0157143	0.0321429	-0.0107143	0.0214286	-0.0121429	-0.025	0.02	-0.015	-0.0185714	-0.0185714	0.0221429	-0.0178571	-0.0321429	0.0285714	0.0271429	0.0192857	0.025	-0.0228571	-0.0178571	0.00571429	-0.03	0.0192857	-0.005	0.00214286	-0.0328571	0.0292857	-0.00642857	-0.035	-0.01	0.02	0.0221429	-0.0307143	0.0157143	0.0121429	-0.00785714	0.005	0.0221429	0.0128571	-0.00928571	0.005	0.0292857	0.0135714	0.0221429	0.0321429	0.00642857	-0.0214286	-0.0192857	0.0321429	0.0278571	-0.00142857	-0.0328571	0.0328571	0.0185714	0.0342857	-0.035	0.0207143	0.0278571	0.0307143	-0.0135714	-0.0185714	0.0142857	0.01	0.0228571	0.0307143	-0.0142857	-0.0214286	-0.035	-0.0278571	0.0264286	0.0285714	0.0121429	-0.015	0.00571429	0.035	-0.0185714	-0.0242857	-0.0228571	0.0342857	0.00857143	-0.0314286	0.0335714	0.0107143	0.00285714	0.0164286	0.00928571	-0.0314286	-0.0335714	0.000714286	0.0342857	0.0257143	-0.0171429	-0.0221429	-0.000714286	-0.0307143	0.00928571	0.02	0.0207143	0.01	-0.00714286	-0.0235714	0.00214286	0.00571429	-0.00285714	0.00857143	0.00428571	-0.0207143	0.02	-0.0178571	-0.0228571	0.0292857	0.0235714	-0.025	0.00428571	0.0271429	-0.00785714	-0.0228571	0.0307143	0.0307143	-0.0214286	-0.00571429	0.02	0.0335714	0.00714286	-0.0171429	-0.0335714	0.0171429	0.00428571	-0.0121429	-0.00928571	0.0321429	0	-0.00642857	-0.0321429	0.0321429	-0.0335714	0.00714286	-0.025	-0.0128571	-0.00928571	0.0242857	-0.02	0.015	0.0342857	-0.015	0.00571429	0.0271429	0.0342857	-0.0342857	0.0221429	0.0135714	0.0321429	0.00571429	0.0107143	0.00285714	-0.01	-0.0214286	-0.0164286	0.0292857	0.00142857	-0.0242857	-0.00928571	0.00214286	-0.03	-0.00642857	-0.00214286	0.00857143	0.00214286	-0.0264286	-0.00357143	0.0278571	0.0335714	-0.0221429	-0.0278571	-0.00285714	-0.00214286	-0.0214286	-0.0114286	0.0335714	-0.0207143	0.0114286	0.0107143	0.0121429	-0.0192857	-0.0142857	-0.0214286	-0.0285714	-0.000714286	0.0342857	0.00142857	0.00142857	0.0107143	0.0278571	-0.0321429	0.0164286	-0.015	-0.0335714	0.0257143	-0.0121429	-0.0242857	-0.0135714	0.0164286	0.01	-0.000714286	0.0235714	0.00785714	-0.00214286	-0.0342857	-0.00285714	-0.005	0.0171429	-0.0278571	-0.03	-0.00714286	0.0257143	-0.00928571	-0.0278571	0.0321429	-0.00928571	0.00785714	-0.00214286	-0.00714286	-0.0178571	0.0264286	-0.00428571	-0.000714286	0.0121429	0.035	-0.0107143	0.0357143	-0.0257143	-0.0235714	0.0157143	-0.015	0.0107143	-0.0307143	0.0278571	-0.0278571	-0.03	-0.0107143	-0.0314286	-0.0114286	-0.00357143	-0.0264286	0.0164286	0.0228571	-0.035	-0.01	0.0192857	0.0278571	0.0328571	0.0178571	-0.0157143	0.0157143	0.00785714	-0.0185714	-0.0207143	-0.0164286	0.0171429	-0.0307143	-0.0171429	0.0264286	-0.0192857	0	0.0121429	-0.00785714	0.00428571	-0.0307143	-0.035	-0.025	0.0307143	-0.0314286	-0.00142857	0.0285714	0.0142857	0.0164286	0.015	-0.02	-0.03	
-0.00214286	-0.0285714	0.00357143	-0.0207143	0.0285714	-0.0171429	-0.0121429	0.0107143	0.0342857	0.00714286	-0.00857143	0.00428571	0.025	0.0185714	-0.0142857	-0.0114286	0.0314286	0.0128571	-0.00642857	0.0357143	-0.0207143	0.00428571	0.0307143	-0.0171429	-0.0335714	-0.0114286	-0.00142857	-0.0164286	-0.0328571	0.0135714	-0.0114286	-0.0335714	-0.0135714	-0.00714286	0.0178571	-0.0214286	-0.0228571	-0.03	-0.01	-0.025	0.0121429	0.0164286	-0.0192857	-0.0335714	0.0357143	0.00142857	0.0278571	0.0307143	0.0157143	-0.015	0.03	0.03	-0.01	-0.01	0.0135714	-0.00785714	0.0135714	-0.0242857	0.0107143	0.0164286	-0.00928571	0.000714286	-0.0164286	0.0121429	-0.00571429	-0.035	-0.00857143	0.00642857	-0.03	0.0164286	-0.0171429	-0.0171429	-0.00357143	-0.00142857	-0.015	-0.00428571	0.000714286	-0.0235714	-0.01	-0.02	0.0335714	0.0207143	-0.0264286	-0.0121429	-0.025	0.0228571	-0.0192857	-0.0107143	-0.000714286	-0.00785714	0.00642857	0.025	-0.00642857	0.025	-0.0335714	0.0235714	0.0257143	-0.00714286	0.0307143	-0.00357143	-0.0271429	-0.0228571	0.015	-0.03	-0.0235714	0.035	-0.0335714	0.0128571	0.0121429	0.0285714	-0.00642857	-0.025	0.0135714	0.00285714	-0.00214286	-0.0107143	0.0264286	-0.0207143	0.0135714	0.0264286	0.00714286	-0.0157143	-0.0185714	0.00142857	0.01	-0.0171429	-0.0114286	-0.000714286	0.0114286	-0.0164286	0.0314286	0.0192857	0.0328571	0.01	0.025	0.0107143	-0.0257143	-0.00785714	-0.0128571	0.0214286	-0.015	0.0157143	-0.00285714	0.0335714	0.0192857	-0.00357143	-0.0135714	-0.025	0.0107143	0.000714286	0.00285714	0.0185714	-0.0142857	0.0192857	-0.0157143	0.0314286	0.00285714	-0.0264286	0.0314286	-0.0221429	0.0292857	0.0264286	-0.00142857	0.0264286	-0.0342857	0.0242857	0.000714286	-0.025	-0.02	-0.0114286	-0.00285714	0	0.005	-0.00428571	-0.00285714	0.0257143	0.0271429	-0.0157143	0.00142857	0.00142857	-0.0135714	-0.0321429	0.0214286	-0.0271429	-0.0121429	0.00642857	-0.0321429	0.0264286	0.015	0.000714286	-0.0321429	0.00857143	-0.00928571	-0.0328571	0.0357143	0.0292857	0.0264286	-0.0342857	0.005	-0.0292857	0.0264286	0.00357143	-0.0285714	0.0321429	0.0342857	-0.03	0.0214286	0.025	0.0264286	0.0242857	0.0271429	-0.0235714	-0.00714286	-0.0221429	-0.015	0.0164286	0.0192857	0.025	0.00642857	-0.00142857	-0.0107143	-0.025	0.00785714	-0.0185714	0.015	-0.0271429	0.0114286	0.005	0.0107143	-0.02	-0.0235714	-0.0335714	-0.0157143	-0.0164286	0.0335714	0.0192857	0.0257143	-0.015	-0.0264286	0.0157143	-0.0271429	-0.035	-0.00642857	-0.0335714	0.015	-0.0207143	0.0178571	-0.00142857	-0.0321429	0.025	-0.00214286	0.03	0.00142857	-0.0307143	0.0121429	-0.02	0.0142857	-0.0128571	-0.0142857	-0.0114286	-0.0321429	-0.00214286	-0.01	-0.0121429	-0.0178571	0.0242857	-0.0292857	-0.0285714	-0.0271429	-0.02	-0.0121429	0.0178571	0.0171429	0.0164286	0.02	-0.00428571	0.0307143	-0.0328571	-0.005	0.0342857	0.0278571	0.0278571	-0.00642857	0.03	0.0321429	-0.0307143	-0.0264286	-0.0242857	0.0285714	-0.00571429	-0.000714286	0.0314286	-0.00714286	-0.01	0.02	-0.0242857	-0.0214286	0.0264286	0.0192857	0.0235714	0.00714286	-0.0285714	0.00571429	0.025	0.0228571	0.0264286	-0.0157143	-0.0164286	0.0285714	-0.0192857	0.0185714	0.02	-0.0278571	-0.0242857	0.0135714	0.00571429	0.0171429	-0.0121429	0.0164286	0.00928571	-0.0164286	0.0171429	-0.03	-0.0228571	-0.0292857	0.0257143	-0.0114286	0.0214286	-0.0185714	0.00857143	-0.025	0.0235714	0.015	0.0157143	0.0121429	-0.0321429	-0.0285714	-0.00285714	-0.0135714	0.035	0.0128571	-0.0314286	-0.015	0.0207143	0.0164286	-0.000714286	0.0271429	-0.00285714	0.0228571	0.00714286	0.00714286	0.00714286	0.025	0.0121429	0.0192857	-0.00285714	0.00142857	-0.0285714	-0.0178571	0.0178571	0.0157143	-0.00785714	0.005	0.0314286	0.00857143	0.0178571	0	0.015	0.0164286	0.0214286	-0.02	0.03	-0.00928571	0	-0.02	-0.0292857	0.0342857	-0.0292857	-0.0314286	-0.0135714	0.0135714	0.0107143	0.0285714	0.00214286	-0.0128571	0.0121429	0.0342857	0.0235714	-0.0157143	0.0178571	-0.0285714	0.000714286	0.0107143	-0.0228571	0.0335714	0.0207143	0.0307143	-0.00285714	-0.035	-0.0235714	-0.0171429	-0.02	-0.03	-0.0257143	-0.0192857	-0.0142857	0.0178571	-0.0207143	-0.00857143	0.0214286	-0.0335714	0.00571429	0.0335714	0.0307143	0.00928571	-0.0157143	0.00642857	0.00714286	0.00857143	-0.00857143	0.0257143	0.015	0.0278571	-0.0335714	-0.00642857	0.025	0.0221429	-0.0121429	-0.0142857	0.0221429	-0.035	-0.0307143	0.00357143	-0.03	0.0164286	0.0192857	-0.00928571	-0.00214286	-0.000714286	0.0178571	0.02	0.00142857	-0.0128571	0.0171429	0.0328571	0.0314286	-0.035	-0.0314286	-0.0314286	-0.025	-0.005	-0.005	-0.00928571	0.0235714	-0.00357143	0.0192857	-0.0221429	-0.0178571	0.00785714	-0.035	0.00571429	0.00785714	-0.0307143	-0.0271429	0.0135714	-0.0135714	-0.00714286	0.005	0.0192857	0.0278571	-0.0135714	0.00357143	0.03	-0.025	-0.0157143	-0.00785714	0.00714286	0.0221429	-0.00428571	-0.0235714	-0.00214286	0.0257143	0.00714286	0.0235714	-0.0207143	-0.0328571	-0.0271429	-0.00785714	0.0221429	0.0157143	-0.00785714	0.0285714	0.025	0.0342857	-0.035	-0.0321429	-0.0157143	0.03	0.00785714	-0.0321429	-0.0128571	0.03	-0.0278571	0.0178571	0.00571429	0.0285714	-0.0264286	-0.0235714	0.0142857	0.00428571	0.0257143	-0.0242857	0.0314286	-0.00357143	0.000714286	-0.0257143	0.0357143	0.00857143	-0.0328571	-0.0128571	-0.0121429	-0.005	-0.0207143	0.0135714	0.03	0.0164286	0.0164286	-0.0221429	-0.0235714	-0.0114286	0.0178571	-0.00142857	0.0192857	-0.00928571	-0.0192857	-0.0114286	-0.0164286	-0.0107143	-0.0342857	0.0328571	-0.005	0.0264286	0.01	0.0271429	0.0235714	-0.0257143	-0.035	-0.0107143	0.0178571	0.00428571	-0.0228571	0.00642857	0	-0.00785714	-0.0157143	-0.00642857	0.00928571	0.00142857	0.00714286	0.0207143	0.025	0.0257143	0.0207143	0.00785714	-0.0192857	-0.035	-0.00285714	-0.000714286	0.0264286	-0.00142857	0.0328571	0.0221429	0.0257143	0.00642857	0.0128571	-0.0207143	-0.0185714	-0.0214286	-0.0307143	0.0342857	0.0185714	-0.0185714	-0.0292857	-0.0178571	-0.0257143	0.0271429	0.0114286	0.0192857	-0.00785714	0.0192857	-0.0307143	-0.0185714	-0.0257143	0.025	-0.01	-0.01	-0.00928571	0.0228571	-0.01	0.0185714	0.0221429	-0.0128571	0.00428571	-0.0228571	-0.00571429	-0.0185714	-0.00857143	0.0114286	0.0321429	0.0328571	0.00928571	0.0142857	-0.0214286	-0.0192857	-0.00214286	-0.0121429	-0.0285714	0.01	0.00785714	-0.000714286	-0.00714286	0.0128571	-0.0185714	0.00214286	-0.0328571	0.00642857	-0.00642857	-0.00642857	-0.00714286	0.0185714	0.0128571	-0.0214286	-0.0307143	-0.0192857	-0.00857143	-0.000714286	0.0342857	-0.0164286	0.0114286	-0.00357143	-0.0192857	-0.0157143	-0.0257143	0.0314286	-0.0335714	-0.0271429	-0.0171429	-0.0271429	0.0178571	-0.00785714	-0.0271429	-0.0257143	0.00571429	-0.0107143	-0.0221429	-0.0264286	0.0314286	-0.0278571	-0.0321429	0.025	0.0257143	0.0157143	0.005	-0.00357143	-0.00214286	0.0314286	-0.00357143	-0.00428571	0.0157143	-0.0285714	-0.00714286	-0.00285714	0.0278571	0.00285714	-0.00785714	0.0292857	0.0107143	-0.0235714	0.00357143	0.03	0.00357143	0.0114286	-0.0321429	0.01	-0.035	0.0178571	0.0185714	-0.00285714	0.025	0.0221429	-0.0142857	-0.0192857	0.00142857	0.0257143	0.0121429	0.0342857	-0.0135714	0.00928571	0.0314286	0.00357143	0.0157143	-0.0121429	0.0357143	-0.0271429	-0.00857143	-0.00785714	-0.0335714	0.00357143	-0.0307143	-0.0292857	-0.00285714	-0.0264286	0.0171429	-0.0342857	0.0185714	-0.0171429	-0.015	-0.0335714	0.015	0.0107143	0.0235714	-0.035	0.0264286	0.0264286	-0.00857143	-0.0321429	-0.01	0.0135714	0.0121429	0.0221429	-0.0192857	0.0285714	0.0114286	0.0171429	-0.0342857	0.00357143	0.01	0.00428571	-0.0292857	0.0142857	0.01	-0.0314286	0.0228571	0.0278571	0.00714286	-0.0292857	-0.025	-0.00714286	0.01	0.025	-0.0328571	-0.00285714	-0.00928571	0.0292857	0.0242857	0.0178571	-0.00214286	0.0157143	0.0321429	-0.0257143	0.00142857	0.0135714	0.00357143	0.0135714	0.0314286	0.00428571	-0.0185714	0.00571429	0.00928571	0.0242857	0.0207143	0.02	-0.00571429	-0.0264286	0.0121429	-0.035	-0.0207143	0.0221429	-0.00714286	0.0242857	-0.0235714	0.0321429	0.0228571	-0.0314286	0.025	
-0.20871	0.189737	-0.113842	0.240333	-0.151789	0.297254	0.265631	-0.0252982	0.00632456	0.0632456	-0.0695701	
0.056921	0.20871	0.29093	0.145465	0.107517	0.158114	0.00632456	-0.265631	0.234009	0.120167	0.0632456	
0.056921	-0.309903	0.00632456	0.284605	-0.20871	-0.0316228	-0.13914	0.151789	0.202386	-0.0379473	0.0189737	
0.0948683	-0.113842	-0.126491	-0.234009	-0.170763	0.158114	0.0822192	0.202386	-0.227684	0.145465	-0.20871	
-0.259307	-0.0252982	-0.0948683	-0.0948683	-0.0126491	0.27828	0.145465	-0.215035	0.0189737	-0.113842	-0.215035	
0.0316228	0.177088	0.215035	0.309903	-0.284605	0.0505964	-0.113842	-0.0126491	0.0758947	0.29093	-0.120167	
0.265631	0.0632456	-0.284605	-0.202386	-0.170763	-0.0695701	-0.120167	-0.0189737	0.0316228	0.265631	-0.0379473	
-0.056921	0.177088	0.259307	-0.101193	0.00632456	-0.27828	-0.0758947	-0.101193	0.145465	0.265631	-0.246658	
-0.259307	-0.0505964	0.107517	-0.202386	-0.151789	0.101193	-0.120167	0.145465	0.297254	0.151789	-0.107517	
-0.309903	0.265631	-0.271956	0.259307	0.151789	0.0189737	0.297254	0.0948683	0.297254	-0.0822192	0.284605	
